svm_type c_svc
kernel_type linear
nr_class 2
total_sv 3
rho 1.3020052374086646
label 1 -1
nr_sv 1 2
SV
0.01 1:0.0 2:0.0 3:0.0 4:0.0 5:0.0 6:0.0 7:0.0 8:0.0 9:0.0 10:0.0 11:0.0 12:0.0 13:0.0 14:0.0 15:0.0 16:0.0 17:0.0 18:0.0 19:0.0 20:0.0 21:0.0 22:0.0 23:0.0 24:0.0 25:0.0 26:0.0 27:0.0 28:0.0 29:0.0 30:0.0 31:0.0 32:0.0 33:0.0 34:0.0 35:0.0 36:0.0 37:0.0 38:0.0 39:0.0 40:0.0 41:0.0 42:0.0 43:0.0 44:0.0 45:0.0 46:0.0 47:0.0 48:0.0 49:0.0 50:0.0 51:0.0 52:0.0 53:0.0 54:0.0 55:0.0 56:0.0 57:0.0 58:0.0 59:0.0 60:0.0 61:0.0 62:0.0 63:0.0 64:0.0 65:0.0 66:0.0 67:0.0 68:0.0 69:0.0 70:0.0 71:0.0 72:0.0 73:0.0 74:0.0 75:0.0 76:0.0 77:0.0 78:0.0 79:0.0 80:0.0 81:0.0 82:0.0 83:0.0 84:0.0 85:0.0 86:0.0 87:0.0 88:0.0 89:0.0 90:0.0 91:0.0 92:0.0 93:0.0 94:0.0 95:0.0 96:0.0 97:0.0 98:0.0 99:0.0 100:0.0 101:0.0 102:0.7442 103:0.3551 104:-0.0433 105:0.4402 106:0.6794 107:0.3836 108:0.1782 109:-0.3811 110:-0.5754 111:0.4408 112:0.3393 113:-0.2665 114:0.1659 115:0.2668 116:0.1112 117:0.5715 118:-0.3189 119:-0.1634 120:0.2523 121:-0.1006 122:-0.2507 123:-0.1131 124:0.3399 125:0.5453 126:-0.3822 127:-0.0791 128:0.0809 129:0.1857 130:-0.7394 131:-0.5241 132:0.1574 133:0.248 134:0.1608 135:-0.1945 136:-0.3905 137:0.4543 138:-0.2014 139:0.0565 140:-0.0678 141:-0.0714 142:-0.3534 143:0.2226 144:-0.5596 145:-0.5397 146:0.3991 147:0.2661 148:-0.1473 149:-0.0821 150:0.1293 151:0.1278 152:0.5773 153:-0.632 154:-0.1457 155:0.546 156:0.6394 157:0.2325 158:0.4648 159:-0.4857 160:-0.6968 161:-0.487 162:0.2308 163:0.3243 164:0.03 165:0.1035 166:0.2192 167:-0.2662 168:0.1729 169:0.5334 170:0.2491 171:-0.0723 172:-0.3363 173:0.2627 174:0.0244 175:-0.0093 176:-0.4357 177:0.4034 178:0.2433 179:0.0931 180:0.5404 181:-0.392 182:-0.2301 183:0.1385 184:-0.6125 185:-0.1484 186:0.5359 187:0.1392 188:0.0572 189:-0.3096 190:0.1522 191:0.0755 192:-0.7159 193:0.1844 194:-1.3207 195:-0.4254 196:-0.1884 197:-0.0779 198:-0.1941 199:0.062 200:-0.1218 201:0.2339 202:2.0 203:0.1037 204:0.0792 205:-0.2565 206:-0.1624 207:0.0406 208:0.1964 209:0.0646 210:-0.1844 211:-0.0791 212:0.1671 213:-0.0011 214:-0.0037 215:9.0E-4 216:0.0186 217:-0.0195 218:0.152 219:-0.1774 220:-0.007 221:-0.0391 222:-0.1275 223:-0.0715 224:-0.0767 225:0.0067 226:0.1067 227:0.0325 228:-0.0812 229:0.0607 230:-0.1271 231:-0.2248 232:-0.0133 233:-0.0769 234:0.3063 235:-0.146 236:0.0591 237:-0.0567 238:0.1603 239:-0.1715 240:0.1195 241:-0.0616 242:0.0017 243:0.1663 244:-0.0064 245:-0.102 246:-0.181 247:-0.0332 248:0.0391 249:0.0777 250:0.1179 251:0.0843 252:0.0727 253:0.0386 254:-0.1195 255:0.0168 256:0.21 257:0.0186 258:0.1631 259:0.1165 260:-0.1719 261:-0.1631 262:0.0316 263:0.1625 264:0.1047 265:0.1951 266:-0.0273 267:0.0712 268:-0.102 269:-0.1859 270:0.0813 271:0.2739 272:0.0104 273:-0.081 274:-0.0294 275:-0.0448 276:0.0634 277:-0.0064 278:0.1772 279:0.0376 280:0.0728 281:0.0748 282:-0.0455 283:-0.199 284:-0.0417 285:0.0299 286:-0.0838 287:-0.0332 288:-0.0916 289:-0.0133 290:-0.3206 291:-0.0302 292:0.0679 293:-0.2361 294:-0.0035 295:-0.4336 296:-0.1016 297:-0.0408 298:0.0387 299:-0.0075 300:0.1549 301:-0.1195 302:0.0109 303:84.0 304:1.0 
-0.009929302195559597 1:0.7442 2:0.3551 3:-0.0433 4:0.4402 5:0.6794 6:0.3836 7:0.1782 8:-0.3811 9:-0.5754 10:0.4408 11:0.3393 12:-0.2665 13:0.1659 14:0.2668 15:0.1112 16:0.5715 17:-0.3189 18:-0.1634 19:0.2523 20:-0.1006 21:-0.2507 22:-0.1131 23:0.3399 24:0.5453 25:-0.3822 26:-0.0791 27:0.0809 28:0.1857 29:-0.7394 30:-0.5241 31:0.1574 32:0.248 33:0.1608 34:-0.1945 35:-0.3905 36:0.4543 37:-0.2014 38:0.0565 39:-0.0678 40:-0.0714 41:-0.3534 42:0.2226 43:-0.5596 44:-0.5397 45:0.3991 46:0.2661 47:-0.1473 48:-0.0821 49:0.1293 50:0.1278 51:0.5773 52:-0.632 53:-0.1457 54:0.546 55:0.6394 56:0.2325 57:0.4648 58:-0.4857 59:-0.6968 60:-0.487 61:0.2308 62:0.3243 63:0.03 64:0.1035 65:0.2192 66:-0.2662 67:0.1729 68:0.5334 69:0.2491 70:-0.0723 71:-0.3363 72:0.2627 73:0.0244 74:-0.0093 75:-0.4357 76:0.4034 77:0.2433 78:0.0931 79:0.5404 80:-0.392 81:-0.2301 82:0.1385 83:-0.6125 84:-0.1484 85:0.5359 86:0.1392 87:0.0572 88:-0.3096 89:0.1522 90:0.0755 91:-0.7159 92:0.1844 93:-1.3207 94:-0.4254 95:-0.1884 96:-0.0779 97:-0.1941 98:0.062 99:-0.1218 100:0.2339 101:2.0 102:0.0 103:0.0 104:0.0 105:0.0 106:0.0 107:0.0 108:0.0 109:0.0 110:0.0 111:0.0 112:0.0 113:0.0 114:0.0 115:0.0 116:0.0 117:0.0 118:0.0 119:0.0 120:0.0 121:0.0 122:0.0 123:0.0 124:0.0 125:0.0 126:0.0 127:0.0 128:0.0 129:0.0 130:0.0 131:0.0 132:0.0 133:0.0 134:0.0 135:0.0 136:0.0 137:0.0 138:0.0 139:0.0 140:0.0 141:0.0 142:0.0 143:0.0 144:0.0 145:0.0 146:0.0 147:0.0 148:0.0 149:0.0 150:0.0 151:0.0 152:0.0 153:0.0 154:0.0 155:0.0 156:0.0 157:0.0 158:0.0 159:0.0 160:0.0 161:0.0 162:0.0 163:0.0 164:0.0 165:0.0 166:0.0 167:0.0 168:0.0 169:0.0 170:0.0 171:0.0 172:0.0 173:0.0 174:0.0 175:0.0 176:0.0 177:0.0 178:0.0 179:0.0 180:0.0 181:0.0 182:0.0 183:0.0 184:0.0 185:0.0 186:0.0 187:0.0 188:0.0 189:0.0 190:0.0 191:0.0 192:0.0 193:0.0 194:0.0 195:0.0 196:0.0 197:0.0 198:0.0 199:0.0 200:0.0 201:0.0 202:0.0 203:0.1037 204:0.0792 205:-0.2565 206:-0.1624 207:0.0406 208:0.1964 209:0.0646 210:-0.1844 211:-0.0791 212:0.1671 213:-0.0011 214:-0.0037 215:9.0E-4 216:0.0186 217:-0.0195 218:0.152 219:-0.1774 220:-0.007 221:-0.0391 222:-0.1275 223:-0.0715 224:-0.0767 225:0.0067 226:0.1067 227:0.0325 228:-0.0812 229:0.0607 230:-0.1271 231:-0.2248 232:-0.0133 233:-0.0769 234:0.3063 235:-0.146 236:0.0591 237:-0.0567 238:0.1603 239:-0.1715 240:0.1195 241:-0.0616 242:0.0017 243:0.1663 244:-0.0064 245:-0.102 246:-0.181 247:-0.0332 248:0.0391 249:0.0777 250:0.1179 251:0.0843 252:0.0727 253:0.0386 254:-0.1195 255:0.0168 256:0.21 257:0.0186 258:0.1631 259:0.1165 260:-0.1719 261:-0.1631 262:0.0316 263:0.1625 264:0.1047 265:0.1951 266:-0.0273 267:0.0712 268:-0.102 269:-0.1859 270:0.0813 271:0.2739 272:0.0104 273:-0.081 274:-0.0294 275:-0.0448 276:0.0634 277:-0.0064 278:0.1772 279:0.0376 280:0.0728 281:0.0748 282:-0.0455 283:-0.199 284:-0.0417 285:0.0299 286:-0.0838 287:-0.0332 288:-0.0916 289:-0.0133 290:-0.3206 291:-0.0302 292:0.0679 293:-0.2361 294:-0.0035 295:-0.4336 296:-0.1016 297:-0.0408 298:0.0387 299:-0.0075 300:0.1549 301:-0.1195 302:0.0109 303:84.0 305:1.0 
-7.069780444040363E-5 1:0.1438 2:0.1024 3:-0.343 4:0.1644 5:0.0738 6:0.3353 7:0.0665 8:-0.1388 9:-0.1273 10:0.1333 11:0.0114 12:0.0908 13:0.1937 14:0.1475 15:0.0817 16:0.4503 17:-0.0908 18:0.0031 19:-0.0475 20:-0.0847 21:0.1078 22:0.0593 23:0.098 24:0.1212 25:0.1119 26:-0.0165 27:-0.0716 28:-0.1333 29:-0.3165 30:-0.2842 31:-0.1178 32:0.2929 33:-0.3789 34:-0.0029 35:-0.0735 36:0.2702 37:-0.1752 38:-0.0242 39:0.0504 40:-0.1303 41:0.0885 42:-0.2516 43:-0.1241 44:-0.1005 45:-0.0593 46:0.0499 47:0.161 48:0.0595 49:0.0255 50:-0.1498 51:0.1883 52:-0.2761 53:0.1789 54:0.4387 55:0.1362 56:0.2953 57:-0.0248 58:-0.2541 59:-0.2592 60:-0.0469 61:0.2062 62:0.1836 63:0.0829 64:0.0565 65:0.0365 66:-0.0624 67:0.162 68:0.0986 69:0.2632 70:-0.0982 71:0.0167 72:0.0649 73:-0.0789 74:0.0393 75:0.0039 76:0.1904 77:0.2349 78:0.1428 79:0.0597 80:-0.14 81:-0.2776 82:-0.0231 83:0.1182 84:-0.0302 85:0.0798 86:-0.2 87:-0.0711 88:-0.3557 89:-0.0559 90:0.0846 91:-0.0717 92:-0.0204 93:-0.5386 94:0.0857 95:0.2012 96:0.1724 97:0.0917 98:0.1792 99:-0.1605 100:0.0169 101:8.0 102:0.1236 103:0.2186 104:-0.2577 105:-0.0081 106:0.1032 107:0.1801 108:0.0333 109:-0.0839 110:-0.0774 111:0.0976 112:-0.0024 113:-0.0836 114:0.1735 115:0.009 116:0.0161 117:0.1391 118:-0.0616 119:0.0057 120:-0.013 121:-0.1203 122:-0.0341 123:-0.1644 124:0.0106 125:0.0249 126:0.0794 127:-0.0839 128:-0.0098 129:-0.097 130:-0.2853 131:-0.1573 132:-0.0322 133:0.2246 134:-0.3069 135:0.1111 136:0.0372 137:0.2645 138:-0.1232 139:0.0065 140:0.0605 141:-0.1092 142:0.211 143:-0.0803 144:-0.0398 145:-0.0342 146:-0.136 147:0.0636 148:0.0514 149:0.1309 150:0.0373 151:0.0437 152:0.0865 153:-0.1982 154:0.0267 155:0.3534 156:0.1254 157:0.1543 158:0.0598 159:-0.1764 160:-0.1334 161:0.0726 162:0.1923 163:0.156 164:0.176 165:-0.0531 166:0.0696 167:-0.1008 168:0.0842 169:-0.0814 170:0.1567 171:-0.0179 172:0.103 173:-0.0277 174:-0.0378 175:0.1269 176:-0.0023 177:0.2716 178:0.1785 179:0.15 180:-0.0703 181:0.0168 182:-0.2857 183:-0.0188 184:0.1597 185:-0.0283 186:0.0527 187:-0.1199 188:0.0395 189:-0.2466 190:-0.0339 191:0.1313 192:-0.0562 193:0.0526 194:-0.4711 195:-0.0102 196:0.1959 197:0.1266 198:0.0421 199:0.1269 200:-0.1504 201:0.2044 202:26.0 203:-0.0253 204:0.1884 205:-0.3442 206:0.0725 207:-0.0212 208:0.2606 209:0.146 210:-0.3079 211:0.1442 212:0.0305 213:-0.0715 214:0.1304 215:0.2416 216:-0.1087 217:0.0982 218:0.0659 219:-0.1865 220:-0.1861 221:-0.0248 222:-0.1462 223:-0.0554 224:-0.1818 225:0.1807 226:-0.0145 227:0.0455 228:-0.277 229:0.1711 230:-0.0264 231:-0.2543 232:-0.1738 233:-0.0145 234:0.5808 235:-0.2351 236:-0.0508 237:0.0539 238:0.1846 239:-0.2333 240:0.0475 241:0.2488 242:-0.0534 243:0.2071 244:0.1466 245:0.0084 246:-0.1378 247:-0.055 248:0.0151 249:0.1255 250:0.1003 251:0.0868 252:-0.0664 253:0.0661 254:0.0715 255:0.0049 256:0.5046 257:-0.1262 258:0.099 259:-0.0316 260:-0.2677 261:0.1479 262:-0.1078 263:0.1759 264:0.2724 265:0.2204 266:-0.1928 267:0.2557 268:-0.1613 269:-0.0858 270:0.0791 271:0.1736 272:-0.2708 273:0.1756 274:-0.3309 275:-0.1021 276:0.0349 277:-0.0055 278:0.0639 279:-0.0541 280:0.0741 281:0.0603 282:0.3283 283:-0.3162 284:0.0059 285:-0.082 286:0.0624 287:0.2462 288:-0.1242 289:-0.1247 290:-0.2171 291:-0.0918 292:0.0169 293:-0.0947 294:-0.2483 295:-0.4772 296:-0.0422 297:-0.1026 298:0.0317 299:0.1897 300:0.1211 301:0.0224 302:-0.0576 303:1.0 307:1.0 
