svm_type c_svc
kernel_type linear
nr_class 2
total_sv 22
rho -1.1770427988102725
label 1 -1
nr_sv 11 11
SV
0.003332417573900691 1:0.1453 2:0.3643 3:-0.425 4:0.145 5:0.4649 6:0.6612 7:0.1552 8:-0.0404 9:-0.1535 10:0.3222 11:-0.2529 12:0.3939 13:0.1407 14:0.2096 15:-0.3805 16:1.1041 17:-0.2387 18:-0.2514 19:0.0648 20:-0.6077 21:0.1974 22:0.4339 23:0.411 24:0.8059 25:-0.1732 26:0.1168 27:-0.6702 28:0.1625 29:-0.4924 30:-0.1943 31:-0.237 32:0.3465 33:0.0884 34:-0.3142 35:-0.5784 36:0.5711 37:-0.0809 38:-0.1612 39:-0.262 40:0.0072 41:-0.3738 42:-0.4084 43:-0.4531 44:-0.668 45:0.127 46:0.4605 47:-0.0347 48:0.0964 49:0.131 50:0.11 51:0.2219 52:-0.7442 53:0.012 54:0.3433 55:0.5533 56:0.195 57:-0.4527 58:-0.5718 59:-0.4512 60:-0.1788 61:0.4109 62:0.7609 63:-0.2141 64:-0.0979 65:0.0131 66:-0.1695 67:0.1413 68:0.9696 69:0.0166 70:-0.3661 71:0.2417 72:0.6232 73:0.1431 74:-0.2569 75:-0.0705 76:0.2913 77:0.3954 78:0.5833 79:0.1703 80:-0.6171 81:-0.0014 82:-0.2243 83:-0.2285 84:-0.1691 85:0.2592 86:-0.0993 87:-0.0416 88:-0.364 89:-0.3638 90:-0.3791 91:-0.2181 92:-0.1148 93:-1.008 94:0.226 95:0.2163 96:0.0482 97:0.1834 98:0.1917 99:-0.1971 100:0.1979 101:3.0 102:0.5271 103:0.1941 104:0.1263 105:0.2219 106:0.344 107:0.5887 108:0.0914 109:-0.4767 110:0.2472 111:0.7627 112:-0.0201 113:-0.4876 114:0.0892 115:0.0415 116:0.1493 117:0.47 118:-0.335 119:0.4576 120:-0.1008 121:0.1343 122:-0.591 123:0.0909 124:0.8825 125:0.4941 126:0.5207 127:0.2691 128:-0.5599 129:0.5281 130:-0.1283 131:-0.3446 132:0.0579 133:0.0811 134:-0.1562 135:-0.2891 136:-0.0823 137:0.135 138:-0.1596 139:-0.1154 140:-0.2427 141:-0.1318 142:0.2882 143:-0.5865 144:-0.5034 145:-0.4975 146:0.6137 147:0.0978 148:-0.2519 149:0.3178 150:0.0642 151:-0.2824 152:0.5118 153:-0.3269 154:0.0197 155:0.3414 156:0.414 157:0.2371 158:0.1298 159:0.1789 160:-0.3381 161:-0.0161 162:0.5918 163:0.0957 164:-0.3396 165:-0.0566 166:-0.2732 167:-0.7713 168:-0.1683 169:0.4672 170:-0.4332 171:-0.0268 172:0.3567 173:0.5323 174:-0.4944 175:-0.5849 176:-0.1761 177:0.4155 178:-0.0436 179:0.0319 180:0.1776 181:-0.6444 182:-0.234 183:-0.3899 184:0.1774 185:0.2221 186:0.145 187:0.4038 188:-0.166 189:-0.1196 190:-0.0723 191:-0.7872 192:-0.4343 193:0.3024 194:-1.0697 195:-0.2399 196:-0.1527 197:-0.625 198:-0.0147 199:-0.0125 200:-0.5509 201:0.867 202:1.0 203:0.1568 204:0.2243 205:-0.2577 206:3.0E-4 207:0.1477 208:0.2883 209:0.0588 210:-0.1731 211:0.0183 212:0.1836 213:0.1092 214:-0.1043 215:0.0527 216:0.0213 217:0.09 218:0.1644 219:-0.1606 220:0.0933 221:-0.1008 222:-0.2027 223:-0.1172 224:0.0241 225:0.0857 226:0.1739 227:0.0942 228:-0.0323 229:-0.0601 230:-0.0517 231:-0.2719 232:-0.0788 233:0.0371 234:0.2448 235:-0.1322 236:-0.0251 237:-0.0503 238:0.1789 239:-0.1276 240:0.0887 241:-9.0E-4 242:-0.0214 243:0.1155 244:-0.0911 245:-0.2108 246:-0.1605 247:0.0171 248:0.1157 249:0.0436 250:0.1356 251:0.1732 252:-0.0282 253:0.1653 254:-0.0966 255:0.066 256:0.2089 257:0.0685 258:0.084 259:0.0553 260:-0.1455 261:-0.235 262:-0.025 263:0.1453 264:0.1568 265:0.1384 266:0.0932 267:0.0989 268:-0.1626 269:-0.1014 270:0.039 271:0.224 272:0.004 273:-0.0263 274:0.1041 275:-0.049 276:-0.0264 277:-0.1386 278:0.2219 279:0.0715 280:0.1382 281:0.1031 282:-0.122 283:-0.2685 284:-0.103 285:-0.0195 286:-0.0793 287:0.0247 288:-0.0207 289:0.0012 290:-0.2289 291:-0.0369 292:0.0076 293:-0.1791 294:-0.0291 295:-0.5032 296:-0.085 297:-0.0354 298:0.0069 299:-0.032 300:0.0417 301:-0.1325 302:0.1363 303:39.0 304:1.0 
0.01 1:0.0412 2:0.1825 3:-0.2071 4:0.0902 5:0.0083 6:0.0605 7:0.0553 8:-0.2135 9:0.1005 10:-0.0432 11:-0.1413 12:0.0461 13:-0.0129 14:0.0938 15:0.1795 16:0.1714 17:-0.1218 18:1.0E-4 19:-0.094 20:-0.2233 21:0.128 22:-0.1095 23:0.0938 24:0.0982 25:0.1185 26:-0.023 27:-0.0981 28:0.1385 29:-0.2791 30:-0.1298 31:0.1148 32:0.3202 33:-0.2191 34:0.17 35:-0.0783 36:0.0536 37:-0.0134 38:0.0064 39:-0.0127 40:0.0517 41:0.2981 42:-0.1531 43:-0.1154 44:-0.0417 45:-0.0771 46:-0.014 47:0.265 48:0.1997 49:0.1278 50:0.0879 51:-0.0363 52:-0.0893 53:-0.1135 54:0.377 55:0.0594 56:0.0801 57:0.0781 58:-0.1096 59:-0.2343 60:-0.0357 61:0.2268 62:-0.0958 63:0.2419 64:-0.0219 65:-0.0106 66:0.0701 67:4.0E-4 68:-0.0483 69:0.2387 70:-0.0379 71:0.0331 72:-0.0162 73:0.0484 74:0.1133 75:-0.1434 76:0.0848 77:0.0706 78:0.0325 79:-0.039 80:0.0224 81:-0.3344 82:-0.0344 83:0.1094 84:-0.0335 85:-0.1715 86:0.036 87:0.0144 88:-0.1837 89:0.0765 90:0.1671 91:-0.1107 92:0.0732 93:-0.4606 94:-0.0464 95:0.1251 96:0.1386 97:0.0515 98:0.2253 99:-0.0267 100:0.1489 101:5.0 102:0.2192 103:0.1529 104:-0.2629 105:0.1435 106:0.189 107:0.2707 108:0.0157 109:-0.1132 110:-0.2407 111:0.0889 112:-0.0042 113:-0.1645 114:0.1323 115:0.0124 116:0.1433 117:0.3277 118:-0.0934 119:0.0242 120:0.1596 121:0.0238 122:0.0859 123:-0.0205 124:-0.0437 125:0.0064 126:0.051 127:-0.0939 128:0.0793 129:-0.2552 130:-0.2171 131:-0.2191 132:-0.1249 133:0.4218 134:-0.4577 135:0.024 136:-0.0015 137:0.2163 138:-0.1257 139:-0.0856 140:-0.0047 141:0.067 142:0.1037 143:-0.0363 144:-0.2016 145:-0.1408 146:-0.1027 147:0.1197 148:0.0382 149:0.1032 150:-0.0867 151:-0.0148 152:0.2267 153:-0.1719 154:0.1584 155:0.4371 156:0.1422 157:0.2828 158:0.109 159:-0.2094 160:-0.2136 161:-0.042 162:0.1351 163:0.2306 164:0.1871 165:0.1668 166:0.0753 167:-0.1179 168:-0.0264 169:0.1179 170:0.1326 171:-0.0355 172:0.1727 173:0.0579 174:-0.0421 175:-0.0936 176:-0.0874 177:0.1498 178:0.1013 179:0.1983 180:-0.072 181:0.0628 182:-0.3012 183:0.1509 184:0.0419 185:-0.1309 186:0.1028 187:-0.043 188:-0.0963 189:-0.2046 190:0.0146 191:0.1726 192:-0.137 193:-0.0154 194:-0.4263 195:0.0107 196:0.1133 197:0.1913 198:0.0886 199:0.0596 200:-0.0684 201:0.2243 202:8.0 203:0.2275 204:0.2212 205:-0.1859 206:0.0326 207:0.1288 208:0.1802 209:0.1908 210:-0.2466 211:-0.1761 212:0.0835 213:0.0654 214:-0.0247 215:0.1331 216:0.0752 217:0.0702 218:0.3427 219:-0.209 220:0.0851 221:-0.0276 222:-0.2278 223:-0.1117 224:-0.0387 225:0.0229 226:0.3198 227:0.0352 228:-0.0809 229:-0.1462 230:-0.021 231:-0.3859 232:-0.2498 233:-0.0062 234:0.2495 235:-0.1229 236:-0.1283 237:-0.1149 238:0.3012 239:-0.1612 240:0.0264 241:-0.053 242:-0.0477 243:-0.0141 244:-0.102 245:-0.2315 246:-0.319 247:0.0634 248:0.1377 249:-0.1325 250:0.2384 251:0.1292 252:-0.0214 253:0.2912 254:-0.322 255:0.0053 256:0.2748 257:0.1526 258:0.2891 259:0.2013 260:-0.2527 261:-0.2383 262:-0.0485 263:0.1321 264:0.0955 265:0.0166 266:0.0828 267:-0.0037 268:-0.1389 269:0.011 270:0.2645 271:0.0963 272:-0.0349 273:-0.102 274:0.2807 275:-0.0016 276:0.0597 277:-0.2716 278:0.2995 279:0.1495 280:0.2401 281:0.1768 282:-0.0369 283:-0.2268 284:0.0259 285:-0.1165 286:-0.1453 287:0.1219 288:-0.0091 289:-0.0249 290:-0.3433 291:0.0686 292:0.0904 293:-0.4947 294:0.0156 295:-0.6543 296:-0.1546 297:0.0604 298:0.0452 299:0.2194 300:0.1452 301:-0.1266 302:-0.0137 303:9.0 307:1.0 
0.007734978573700986 1:-0.0262 2:0.0792 3:-0.2166 4:-0.2459 5:-0.0612 6:0.085 7:0.0645 8:-0.0355 9:0.1257 10:-0.0864 11:-0.0433 12:0.0767 13:-0.0625 14:-0.0583 15:-0.0195 16:-0.1209 17:-0.154 18:-0.0103 19:-0.0369 20:-0.173 21:-0.1258 22:0.0466 23:-0.0403 24:0.2066 25:0.1713 26:-0.0478 27:0.0083 28:-0.1112 29:-0.3866 30:-0.0042 31:-0.0844 32:0.4462 33:-0.1862 34:0.2074 35:0.0512 36:0.1723 37:-0.161 38:0.1355 39:-0.0083 40:-0.0141 41:0.1249 42:2.0E-4 43:-0.1854 44:-0.1295 45:-0.1442 46:-0.2044 47:0.1215 48:0.3617 49:0.0853 50:0.0192 51:0.09 52:-0.0599 53:0.0253 54:0.2305 55:-0.0463 56:0.1174 57:-0.0772 58:-0.0233 59:-0.1799 60:0.0992 61:0.0305 62:0.1896 63:0.0945 64:0.0559 65:0.0733 66:-0.1054 67:-0.2288 68:0.0156 69:0.3805 70:-0.0565 71:-0.0742 72:-0.0424 73:-0.2057 74:0.0827 75:-0.0176 76:0.2786 77:0.1878 78:0.305 79:0.2061 80:-0.0299 81:-0.282 82:-0.0163 83:0.0687 84:-0.0629 85:0.2146 86:0.0896 87:-0.0295 88:-0.1419 89:-0.0736 90:0.0367 91:-0.1104 92:-0.0141 93:-0.3763 94:-0.2615 95:0.0266 96:0.1155 97:-0.1299 98:0.0903 99:0.0476 100:0.1085 101:2.0 102:0.2358 103:0.3721 104:-0.1427 105:-0.016 106:0.0788 107:0.213 108:0.063 109:-0.2251 110:-0.1381 111:0.0305 112:-0.0276 113:0.1888 114:0.0562 115:0.0119 116:0.0438 117:0.072 118:-0.1054 119:-0.0558 120:0.1338 121:-0.0686 122:0.039 123:-0.1787 124:0.0628 125:0.0093 126:-0.1514 127:-0.1245 128:-0.0906 129:-0.2087 130:-0.1189 131:-0.2353 132:-0.0802 133:0.3858 134:-0.1666 135:0.0039 136:0.0638 137:0.2248 138:-0.2846 139:0.1725 140:0.1707 141:-0.0964 142:0.2481 143:-0.0727 144:0.162 145:-0.0629 146:-0.0587 147:0.0251 148:0.175 149:0.1247 150:0.1709 151:0.2574 152:0.1341 153:-0.2385 154:-0.0243 155:0.4655 156:-0.0345 157:0.1711 158:0.1069 159:-0.1897 160:-0.147 161:-0.0633 162:0.1165 163:0.2551 164:0.1841 165:0.0086 166:0.1876 167:0.0031 168:-0.1697 169:-0.1016 170:0.0457 171:-0.1947 172:0.2113 173:0.0698 174:-0.0861 175:-0.0301 176:-0.2183 177:0.0476 178:0.1717 179:0.266 180:-0.0051 181:0.1829 182:-0.1769 183:-0.0343 184:0.0156 185:-0.1994 186:-0.0041 187:-0.081 188:0.243 189:-0.1765 190:-0.0893 191:-0.1428 192:-0.0384 193:-0.0792 194:-0.3371 195:-0.0241 196:0.1791 197:0.0999 198:0.2272 199:0.0869 200:-0.0504 201:0.0892 202:3.0 203:0.135 204:0.05 205:-0.2064 206:-0.1371 207:0.0861 208:0.2504 209:0.0398 210:-0.1825 211:-0.1299 212:0.2793 213:-0.0322 214:0.1092 215:-0.0645 216:0.0139 217:0.0277 218:0.0029 219:-0.1593 220:0.0702 221:-0.0968 222:-0.2183 223:-0.0632 224:0.0127 225:0.0283 226:0.1963 227:0.0017 228:-0.1332 229:0.0765 230:-0.1446 231:-0.225 232:-0.0796 233:0.007 234:0.3544 235:-0.1607 236:-0.0188 237:-0.0284 238:0.1318 239:-0.098 240:0.1525 241:3.0E-4 242:0.0393 243:0.1572 244:-0.0576 245:-0.0353 246:-0.151 247:-0.0594 248:0.0527 249:0.087 250:0.049 251:0.0344 252:-0.0212 253:0.0808 254:-0.1268 255:-0.0122 256:0.2862 257:-0.0167 258:0.0693 259:0.0282 260:-0.186 261:-0.0951 262:0.0126 263:0.1726 264:0.1044 265:0.2488 266:0.0874 267:0.0377 268:-0.1218 269:-0.1064 270:-0.0148 271:0.1629 272:1.0E-4 273:0.0095 274:-0.0467 275:-0.0032 276:0.1006 277:-0.0015 278:0.2024 279:-0.0539 280:0.1231 281:0.0486 282:-0.0266 283:-0.2397 284:-0.045 285:0.0773 286:-0.0392 287:-0.0126 288:-0.0578 289:-0.007 290:-0.3327 291:-0.092 292:0.0741 293:-0.1839 294:-0.0079 295:-0.3628 296:-0.1205 297:-0.0341 298:0.0524 299:0.0727 300:0.1915 301:-0.1891 302:0.0905 303:17.0 310:1.0 
0.01 1:0.0194 2:0.1514 3:-0.2671 4:-0.0516 5:0.0553 6:0.1826 7:0.1548 8:-0.0937 9:-0.0515 10:0.2154 11:-0.1052 12:0.1879 13:0.1295 14:0.033 15:0.0851 16:0.0459 17:-0.1064 18:-0.0205 19:0.015 20:-0.1734 21:-0.1049 22:-0.0725 23:-0.0457 24:0.015 25:0.1099 26:0.1212 27:-0.0727 28:0.0119 29:-0.1906 30:-0.1856 31:-0.0721 32:0.1408 33:-0.1298 34:0.0563 35:-0.1196 36:0.0937 37:-0.198 38:-0.0155 39:-0.0135 40:-0.2157 41:0.2045 42:0.054 43:-0.171 44:-0.2179 45:-0.1162 46:0.0111 47:0.1961 48:0.0531 49:0.028 50:0.1084 51:0.2239 52:-0.0987 53:0.0778 54:0.303 55:0.0502 56:-0.0405 57:-0.0963 58:-0.1709 59:-0.3347 60:-0.1241 61:0.1095 62:0.1236 63:0.3001 64:-0.0656 65:0.0832 66:0.0135 67:-0.0717 68:0.0549 69:0.3014 70:-0.022 71:-0.1437 72:0.1174 73:-0.0735 74:0.0502 75:-0.1618 76:0.3168 77:0.0765 78:-0.027 79:0.2073 80:-0.0542 81:-0.241 82:-0.1275 83:-0.1282 84:-0.0085 85:-0.0894 86:0.0458 87:0.1145 88:-0.1665 89:-0.1021 90:0.1683 91:-0.2529 92:0.0556 93:-0.2915 94:-0.0883 95:0.0815 96:0.3324 97:-0.0144 98:-0.0159 99:-0.2422 100:-0.0384 101:9.0 102:0.35 103:0.1991 104:-0.1808 105:0.1435 106:0.2356 107:0.3152 108:0.2201 109:-0.2908 110:-0.129 111:0.1331 112:0.1414 113:-0.0559 114:0.1111 115:0.0054 116:0.0537 117:0.1682 118:-0.1465 119:-0.1214 120:0.1395 121:-0.0431 122:-0.0849 123:-0.1066 124:0.1359 125:0.1898 126:-0.1499 127:-0.0755 128:-0.0317 129:-0.087 130:-0.388 131:-0.2333 132:0.0206 133:0.4151 134:-0.0919 135:-0.0324 136:-0.1281 137:0.2243 138:-0.1599 139:0.0657 140:-0.008 141:-0.0244 142:0.05 143:0.1571 144:-0.2613 145:-0.29 146:0.1027 147:0.0877 148:0.0274 149:0.0652 150:0.1536 151:0.0792 152:0.1249 153:-0.2706 154:0.0091 155:0.4193 156:0.2899 157:0.0827 158:0.2213 159:-0.3245 160:-0.3245 161:-0.1035 162:0.1166 163:0.2401 164:0.2351 165:-0.03 166:0.2013 167:-0.1825 168:0.0122 169:0.1801 170:0.2254 171:0.0228 172:-0.0374 173:0.0161 174:-0.1219 175:-0.0399 176:-0.0782 177:0.1631 178:0.092 179:0.0986 180:0.1435 181:-0.0727 182:-0.2309 183:0.0469 184:-0.2318 185:-0.1282 186:0.2175 187:0.0068 188:0.0521 189:-0.1829 190:-0.0338 191:0.0407 192:-0.3128 193:0.0557 194:-0.6093 195:-0.0979 196:-0.0636 197:0.0185 198:-0.043 199:0.056 200:-0.0571 201:0.0769 202:14.0 203:0.6259 204:0.3958 205:-0.0945 206:0.398 207:0.6215 208:0.2339 209:0.152 210:-0.3809 211:-0.4441 212:0.3951 213:0.3164 214:-0.267 215:0.1873 216:0.2374 217:0.1524 218:0.4557 219:-0.3531 220:-0.003 221:0.0068 222:-0.3647 223:-0.3216 224:-0.0315 225:0.3279 226:0.6989 227:-0.2956 228:-0.195 229:0.0512 230:0.1863 231:-0.6897 232:-0.6044 233:0.3067 234:0.4039 235:0.0515 236:-0.3303 237:-0.3777 238:0.3371 239:-0.3258 240:0.0149 241:0.0472 242:-0.0046 243:-0.2491 244:0.0569 245:-0.5334 246:-0.4078 247:0.2796 248:0.1413 249:-0.2597 250:0.003 251:0.197 252:-0.0123 253:0.597 254:-0.5541 255:-0.2035 256:0.513 257:0.475 258:0.2744 259:0.2114 260:-0.3837 261:-0.3653 262:-0.5509 263:0.2317 264:0.5127 265:-0.0462 266:0.0522 267:0.1723 268:-0.2651 269:0.1633 270:0.5141 271:0.2009 272:-0.1932 273:-0.3514 274:0.2925 275:0.0658 276:0.0867 277:-0.5293 278:0.3617 279:0.1376 280:0.1796 281:0.589 282:-0.2577 283:-0.3347 284:0.0348 285:-0.5315 286:-0.0399 287:0.6692 288:0.1649 289:0.0065 290:-0.3949 291:0.079 292:0.0824 293:-0.6325 294:0.1234 295:-1.3515 296:-0.4066 297:-0.2587 298:0.0089 299:-0.0567 300:0.1538 301:-0.1671 302:0.2522 303:2.0 312:1.0 
0.009007204522641006 1:0.1512 2:0.1885 3:-0.2264 4:0.0378 5:0.1688 6:0.2192 7:0.1591 8:-0.146 9:-0.1467 10:0.2564 11:-0.0244 12:0.1053 13:0.1361 14:0.0755 15:0.0899 16:0.1414 17:-0.1451 18:-0.0465 19:0.0581 20:-0.1602 21:-0.1314 22:-0.0798 23:0.0244 24:0.1114 25:0.0204 26:0.0848 27:-0.0447 28:0.0435 29:-0.2903 30:-0.2471 31:-0.0304 32:0.1603 33:-0.077 34:0.0107 35:-0.1689 36:0.1593 37:-0.1986 38:-0.0024 39:-0.0233 40:-0.1895 41:0.1031 42:0.0846 43:-0.2417 44:-0.2764 45:-0.0225 46:0.0574 47:0.1337 48:0.0285 49:0.0464 50:0.112 51:0.2882 52:-0.1957 53:0.0372 54:0.3472 55:0.1573 56:0.0091 57:0.0057 58:-0.2281 59:-0.4005 60:-0.1901 61:0.1316 62:0.1601 63:0.251 64:-0.0349 65:0.1079 66:-0.0373 67:-0.0272 68:0.1419 69:0.2919 70:-0.0311 71:-0.1787 72:0.1438 73:-0.0557 74:0.0394 75:-0.2116 76:0.3326 77:0.1068 78:-0.0052 79:0.2679 80:-0.1156 81:-0.239 82:-0.0791 83:-0.2162 84:-0.034 85:0.0243 86:0.0628 87:0.1041 88:-0.1925 89:-0.0559 90:0.1514 91:-0.3371 92:0.079 93:-0.4786 94:-0.1496 95:0.0324 96:0.2578 97:-0.0471 98:-0.0018 99:-0.2203 100:0.0111 101:11.0 102:0.2843 103:0.173 104:-0.2037 105:0.0941 106:0.1616 107:0.3038 108:0.2271 109:-0.2758 110:-0.0546 111:0.0818 112:0.1085 113:-0.0208 114:0.1019 115:-0.0382 116:0.0441 117:0.1009 118:-0.1178 119:-0.1144 120:0.1207 121:-0.0335 122:-0.0573 123:-0.1055 124:0.1018 125:0.1306 126:-0.1112 127:-0.0749 128:-0.0504 129:-0.1325 130:-0.3294 131:-0.1848 132:-0.0022 133:0.4429 134:-0.134 135:-0.0054 136:-0.0843 137:0.1859 138:-0.153 139:0.0672 140:0.002 141:-0.0166 142:0.1172 143:0.1462 144:-0.2116 145:-0.2483 146:0.0533 147:0.058 148:0.0565 149:0.0898 150:0.1577 151:0.0711 152:0.0494 153:-0.2104 154:0.0349 155:0.3981 156:0.2317 157:0.0578 158:0.1807 159:-0.2976 160:-0.2625 161:-0.0396 162:0.0976 163:0.226 164:0.2693 165:-0.0523 166:0.1983 167:-0.1685 168:-0.0146 169:0.1213 170:0.2214 171:0.0387 172:0.0124 173:-0.025 174:-0.1462 175:-0.045 176:-0.0186 177:0.123 178:0.0667 179:0.0996 180:0.0773 181:-0.0195 182:-0.2311 183:0.0316 184:-0.1684 185:-0.1249 186:0.1645 187:-0.0153 188:0.0512 189:-0.1618 190:-0.0647 191:0.0349 192:-0.2456 193:0.0342 194:-0.4907 195:-0.0433 196:-0.0428 197:0.0346 198:-0.0179 199:0.055 200:-0.0463 201:0.0507 202:12.0 203:0.6259 204:0.3958 205:-0.0945 206:0.398 207:0.6215 208:0.2339 209:0.152 210:-0.3809 211:-0.4441 212:0.3951 213:0.3164 214:-0.267 215:0.1873 216:0.2374 217:0.1524 218:0.4557 219:-0.3531 220:-0.003 221:0.0068 222:-0.3647 223:-0.3216 224:-0.0315 225:0.3279 226:0.6989 227:-0.2956 228:-0.195 229:0.0512 230:0.1863 231:-0.6897 232:-0.6044 233:0.3067 234:0.4039 235:0.0515 236:-0.3303 237:-0.3777 238:0.3371 239:-0.3258 240:0.0149 241:0.0472 242:-0.0046 243:-0.2491 244:0.0569 245:-0.5334 246:-0.4078 247:0.2796 248:0.1413 249:-0.2597 250:0.003 251:0.197 252:-0.0123 253:0.597 254:-0.5541 255:-0.2035 256:0.513 257:0.475 258:0.2744 259:0.2114 260:-0.3837 261:-0.3653 262:-0.5509 263:0.2317 264:0.5127 265:-0.0462 266:0.0522 267:0.1723 268:-0.2651 269:0.1633 270:0.5141 271:0.2009 272:-0.1932 273:-0.3514 274:0.2925 275:0.0658 276:0.0867 277:-0.5293 278:0.3617 279:0.1376 280:0.1796 281:0.589 282:-0.2577 283:-0.3347 284:0.0348 285:-0.5315 286:-0.0399 287:0.6692 288:0.1649 289:0.0065 290:-0.3949 291:0.079 292:0.0824 293:-0.6325 294:0.1234 295:-1.3515 296:-0.4066 297:-0.2587 298:0.0089 299:-0.0567 300:0.1538 301:-0.1671 302:0.2522 303:2.0 313:1.0 
0.01 1:0.0 2:0.0 3:0.0 4:0.0 5:0.0 6:0.0 7:0.0 8:0.0 9:0.0 10:0.0 11:0.0 12:0.0 13:0.0 14:0.0 15:0.0 16:0.0 17:0.0 18:0.0 19:0.0 20:0.0 21:0.0 22:0.0 23:0.0 24:0.0 25:0.0 26:0.0 27:0.0 28:0.0 29:0.0 30:0.0 31:0.0 32:0.0 33:0.0 34:0.0 35:0.0 36:0.0 37:0.0 38:0.0 39:0.0 40:0.0 41:0.0 42:0.0 43:0.0 44:0.0 45:0.0 46:0.0 47:0.0 48:0.0 49:0.0 50:0.0 51:0.0 52:0.0 53:0.0 54:0.0 55:0.0 56:0.0 57:0.0 58:0.0 59:0.0 60:0.0 61:0.0 62:0.0 63:0.0 64:0.0 65:0.0 66:0.0 67:0.0 68:0.0 69:0.0 70:0.0 71:0.0 72:0.0 73:0.0 74:0.0 75:0.0 76:0.0 77:0.0 78:0.0 79:0.0 80:0.0 81:0.0 82:0.0 83:0.0 84:0.0 85:0.0 86:0.0 87:0.0 88:0.0 89:0.0 90:0.0 91:0.0 92:0.0 93:0.0 94:0.0 95:0.0 96:0.0 97:0.0 98:0.0 99:0.0 100:0.0 101:0.0 102:0.1329 103:0.11 104:-0.2878 105:-0.1926 106:0.029 107:0.1657 108:0.0177 109:-0.1225 110:-0.0171 111:0.2197 112:0.0258 113:0.0198 114:-0.0058 115:0.0348 116:-0.0251 117:0.1685 118:-0.1858 119:-0.0532 120:-0.1204 121:-0.1791 122:-0.0426 123:-0.0273 124:-0.0534 125:0.1918 126:0.0572 127:-0.102 128:0.0549 129:-0.1644 130:-0.2106 131:0.012 132:-0.0709 133:0.2927 134:-0.1816 135:0.0417 136:0.0354 137:0.0837 138:-0.2031 139:0.1066 140:-0.0445 141:0.0819 142:0.179 143:0.0097 144:-0.0781 145:-0.1592 146:-0.0859 147:0.1431 148:0.0829 149:0.0865 150:0.0584 151:0.0247 152:0.0448 153:-0.1686 154:-0.0093 155:0.227 156:-0.0278 157:0.1164 158:0.02 159:-0.0786 160:-0.1637 161:0.0359 162:0.0853 163:0.0682 164:0.2114 165:-0.0349 166:0.0284 167:-0.041 168:-0.088 169:-0.0414 170:0.3102 171:0.0361 172:-0.1014 173:-0.0275 174:-0.0076 175:0.0795 176:0.0106 177:0.1985 178:0.0225 179:0.0687 180:0.1745 181:-0.0928 182:-0.2561 183:-0.1546 184:0.0902 185:-0.0227 186:-0.0155 187:-0.0642 188:-0.0252 189:-0.3389 190:-0.0961 191:0.0807 192:-0.2397 193:-0.0514 194:-0.395 195:-0.0912 196:-0.014 197:0.0577 198:-0.0284 199:0.2056 200:-0.1888 201:0.0538 202:22.0 203:0.2713 204:0.3167 205:-0.3228 206:0.0815 207:0.1826 208:0.3315 209:0.0364 210:-0.2252 211:-0.0716 212:0.2022 213:0.1242 214:0.0033 215:0.1169 216:0.0332 217:0.0478 218:0.1814 219:-0.1691 220:0.0275 221:-0.0277 222:-0.2627 223:-0.1753 224:0.0516 225:0.2243 226:0.3274 227:0.0121 228:-0.0824 229:-0.1481 230:-0.0053 231:-0.2923 232:-0.2082 233:0.0182 234:0.2393 235:-0.0237 236:-0.0438 237:-0.1015 238:0.2167 239:-0.1227 240:0.1021 241:-0.0629 242:0.0292 243:-0.0095 244:-0.207 245:-0.2066 246:-0.2605 247:0.057 248:0.0831 249:-0.067 250:0.1217 251:0.113 252:0.0534 253:0.2064 254:-0.2269 255:0.0262 256:0.2496 257:0.1126 258:0.1522 259:0.0651 260:-0.1351 261:-0.2051 262:-0.0646 263:0.1924 264:0.2051 265:0.1654 266:0.0198 267:0.0522 268:-0.2094 269:-0.1026 270:0.1555 271:0.0942 272:-0.0767 273:-0.0357 274:0.2433 275:-0.135 276:-0.0275 277:-0.0797 278:0.2213 279:0.0493 280:0.0667 281:0.12 282:-0.0954 283:-0.1969 284:-0.1089 285:-0.0679 286:-0.1082 287:0.0648 288:-0.0114 289:-0.0621 290:-0.2584 291:0.0266 292:0.063 293:-0.2841 294:0.0098 295:-0.6544 296:-0.0251 297:-0.0443 298:-0.0202 299:-0.0401 300:0.0833 301:-0.0914 302:0.1617 303:32.0 315:1.0 
0.01 1:0.0 2:0.0 3:0.0 4:0.0 5:0.0 6:0.0 7:0.0 8:0.0 9:0.0 10:0.0 11:0.0 12:0.0 13:0.0 14:0.0 15:0.0 16:0.0 17:0.0 18:0.0 19:0.0 20:0.0 21:0.0 22:0.0 23:0.0 24:0.0 25:0.0 26:0.0 27:0.0 28:0.0 29:0.0 30:0.0 31:0.0 32:0.0 33:0.0 34:0.0 35:0.0 36:0.0 37:0.0 38:0.0 39:0.0 40:0.0 41:0.0 42:0.0 43:0.0 44:0.0 45:0.0 46:0.0 47:0.0 48:0.0 49:0.0 50:0.0 51:0.0 52:0.0 53:0.0 54:0.0 55:0.0 56:0.0 57:0.0 58:0.0 59:0.0 60:0.0 61:0.0 62:0.0 63:0.0 64:0.0 65:0.0 66:0.0 67:0.0 68:0.0 69:0.0 70:0.0 71:0.0 72:0.0 73:0.0 74:0.0 75:0.0 76:0.0 77:0.0 78:0.0 79:0.0 80:0.0 81:0.0 82:0.0 83:0.0 84:0.0 85:0.0 86:0.0 87:0.0 88:0.0 89:0.0 90:0.0 91:0.0 92:0.0 93:0.0 94:0.0 95:0.0 96:0.0 97:0.0 98:0.0 99:0.0 100:0.0 101:0.0 102:0.2104 103:0.2026 104:-0.2999 105:-0.0425 106:0.1372 107:0.2393 108:0.0437 109:-0.1782 110:-0.0951 111:0.2379 112:0.1226 113:-0.01 114:0.0547 115:0.0323 116:-0.0018 117:0.1671 118:-0.1927 119:-0.0142 120:-0.0748 121:-0.236 122:-0.1173 123:0.003 124:0.0911 125:0.2839 126:0.0237 127:-0.0809 128:-0.0433 129:-0.0998 130:-0.237 131:-0.0917 132:-0.0182 133:0.2678 134:-0.0934 135:-0.0241 136:-0.0525 137:0.1495 138:-0.1641 139:0.1274 140:-0.0443 141:0.054 142:0.0749 143:-0.0885 144:-0.1393 145:-0.2016 146:-0.0165 147:0.1037 148:0.0114 149:0.0873 150:0.1005 151:0.0295 152:0.1435 153:-0.2105 154:-0.0034 155:0.2392 156:0.0848 157:0.1264 158:0.0419 159:-0.1296 160:-0.2061 161:-0.0135 162:0.1348 163:0.1626 164:0.182 165:-0.0054 166:0.0498 167:-0.1261 168:-0.0837 169:0.0607 170:0.2058 171:-0.0231 172:-0.1062 173:0.1204 174:-0.054 175:0.0384 176:-0.0435 177:0.2278 178:0.0354 179:0.0736 180:0.1598 181:-0.1182 182:-0.2275 183:-0.134 184:-0.0101 185:-0.0718 186:0.0368 187:-0.0526 188:-0.0277 189:-0.3054 190:-0.0424 191:0.0665 192:-0.2587 193:0.0174 194:-0.5268 195:-0.0602 196:-0.0191 197:0.0186 198:-0.028 199:0.146 200:-0.1576 201:0.1068 202:46.0 203:0.2405 204:0.4042 205:-0.3587 206:0.041 207:0.0213 208:0.4054 209:-0.057 210:-0.2131 211:0.2134 212:0.0453 213:-0.1374 214:0.1251 215:0.1368 216:0.0427 217:0.1327 218:0.2279 219:-0.0793 220:0.0457 221:-0.0123 222:-0.186 223:-0.1439 224:0.1143 225:0.2264 226:0.2048 227:0.0694 228:-0.1451 229:-0.193 230:0.1009 231:-0.3853 232:-0.2728 233:-0.0177 234:0.2225 235:-0.0572 236:0.0783 237:-0.007 238:0.2372 239:-0.1056 240:-0.0308 241:-0.119 242:0.0318 243:0.0232 244:-0.2926 245:-0.2403 246:-0.3204 247:0.0866 248:0.1297 249:-0.1057 250:0.2227 251:0.0346 252:0.1122 253:0.1234 254:-0.1608 255:0.0984 256:0.2472 257:-0.1136 258:0.2022 259:0.0744 260:-0.0112 261:-0.0856 262:-0.0822 263:0.2294 264:0.073 265:0.196 266:0.0145 267:9.0E-4 268:-0.2251 269:-0.171 270:0.159 271:0.0463 272:-0.0745 273:0.1888 274:0.205 275:-0.2502 276:-0.1119 277:-0.0397 278:0.1214 279:0.0556 280:0.0328 281:0.0409 282:0.0429 283:-0.184 284:-0.0902 285:0.0342 286:-0.0826 287:0.0045 288:0.0806 289:-0.1583 290:-0.2095 291:0.0863 292:0.0917 293:-0.3082 294:-0.2022 295:-0.6743 296:-0.0053 297:-0.1055 298:-0.0291 299:-0.0777 300:0.059 301:0.021 302:0.1811 303:8.0 316:1.0 
0.00925971426102417 1:0.184 2:0.1246 3:-0.2767 4:-0.0939 5:0.0857 6:0.208 7:0.0292 8:-0.138 9:-0.1112 10:0.2481 11:0.0885 12:0.0188 13:0.0204 14:0.0306 15:-0.0365 16:0.1905 17:-0.2013 18:-0.034 19:-0.0938 20:-0.2365 21:-0.0888 22:-0.0066 23:0.0561 24:0.3092 25:0.03 26:-0.0866 27:-0.0035 28:-0.1288 29:-0.2333 30:-0.0515 31:-0.0473 32:0.3013 33:-0.1329 34:-0.0186 35:-0.0451 36:0.1176 37:-0.2117 38:0.1109 39:-0.0263 40:0.0637 41:0.1003 42:-0.0439 43:-0.1244 44:-0.1868 45:-0.0611 46:0.1334 47:0.047 48:0.0812 49:0.0903 50:2.0E-4 51:0.1388 52:-0.2022 53:-0.0128 54:0.2482 55:0.0565 56:0.1447 57:-0.0031 58:-0.1083 59:-0.191 60:7.0E-4 61:0.1147 62:0.1315 63:0.172 64:-0.0312 65:0.051 66:-0.0671 67:-0.0698 68:0.0415 69:0.2588 70:-0.0028 71:-0.1446 72:0.0599 73:-0.0067 74:0.072 75:-0.0211 76:0.2253 77:0.0448 78:0.0818 79:0.1978 80:-0.1372 81:-0.2472 82:-0.1421 83:0.0054 84:-0.043 85:0.0174 86:-0.065 87:-0.0375 88:-0.3227 89:-0.0741 90:0.0557 91:-0.256 92:0.0188 93:-0.5073 94:-0.0727 95:0.0093 96:0.0548 97:0.0208 98:0.1991 99:-0.1915 100:0.0779 101:31.0 102:0.265 103:0.3639 104:-0.3476 105:0.0636 106:0.2437 107:0.3041 108:0.0737 109:-0.2613 110:-0.0618 111:0.2169 112:0.1932 113:-0.0694 114:0.1257 115:0.036 116:0.0699 117:0.1188 118:-0.1748 119:0.0265 120:-0.0355 121:-0.2351 122:-0.1761 123:0.0228 124:0.1636 125:0.2315 126:0.0107 127:-0.0689 128:-0.1255 129:-0.04 130:-0.2448 131:-0.1748 132:0.0421 133:0.1985 134:-0.0118 135:-0.0355 136:-0.0678 137:0.2155 138:-0.0657 139:0.1615 140:-0.0815 141:0.0338 142:0.0226 143:-0.1806 144:-0.1701 145:-0.2323 146:0.0758 147:0.0424 148:-0.0621 149:0.1001 150:0.1217 151:0.0898 152:0.1533 153:-0.2276 154:0.0161 155:0.2206 156:0.1432 157:0.0885 158:0.1349 159:-0.1735 160:-0.2372 161:-0.0427 162:0.1763 163:0.2269 164:0.2028 165:0.0478 166:0.0472 167:-0.2481 168:-0.1123 169:0.1003 170:0.0962 171:-0.065 172:-0.0266 173:0.2455 174:-0.1519 175:-0.0311 176:-0.0897 177:0.2329 178:0.0159 179:0.0566 180:0.0813 181:-0.079 182:-0.1866 183:-0.1175 184:-0.042 185:-0.1313 186:0.077 187:-0.0271 188:-0.0074 189:-0.2696 190:0.0231 191:0.0886 192:-0.2642 193:0.0144 194:-0.5672 195:-0.0342 196:-0.0779 197:-0.0561 198:-0.1289 199:0.0363 200:-0.0874 201:0.1664 202:15.0 203:0.2405 204:0.4042 205:-0.3587 206:0.041 207:0.0213 208:0.4054 209:-0.057 210:-0.2131 211:0.2134 212:0.0453 213:-0.1374 214:0.1251 215:0.1368 216:0.0427 217:0.1327 218:0.2279 219:-0.0793 220:0.0457 221:-0.0123 222:-0.186 223:-0.1439 224:0.1143 225:0.2264 226:0.2048 227:0.0694 228:-0.1451 229:-0.193 230:0.1009 231:-0.3853 232:-0.2728 233:-0.0177 234:0.2225 235:-0.0572 236:0.0783 237:-0.007 238:0.2372 239:-0.1056 240:-0.0308 241:-0.119 242:0.0318 243:0.0232 244:-0.2926 245:-0.2403 246:-0.3204 247:0.0866 248:0.1297 249:-0.1057 250:0.2227 251:0.0346 252:0.1122 253:0.1234 254:-0.1608 255:0.0984 256:0.2472 257:-0.1136 258:0.2022 259:0.0744 260:-0.0112 261:-0.0856 262:-0.0822 263:0.2294 264:0.073 265:0.196 266:0.0145 267:9.0E-4 268:-0.2251 269:-0.171 270:0.159 271:0.0463 272:-0.0745 273:0.1888 274:0.205 275:-0.2502 276:-0.1119 277:-0.0397 278:0.1214 279:0.0556 280:0.0328 281:0.0409 282:0.0429 283:-0.184 284:-0.0902 285:0.0342 286:-0.0826 287:0.0045 288:0.0806 289:-0.1583 290:-0.2095 291:0.0863 292:0.0917 293:-0.3082 294:-0.2022 295:-0.6743 296:-0.0053 297:-0.1055 298:-0.0291 299:-0.0777 300:0.059 301:0.021 302:0.1811 303:8.0 317:1.0 
0.01 1:0.0 2:0.0 3:0.0 4:0.0 5:0.0 6:0.0 7:0.0 8:0.0 9:0.0 10:0.0 11:0.0 12:0.0 13:0.0 14:0.0 15:0.0 16:0.0 17:0.0 18:0.0 19:0.0 20:0.0 21:0.0 22:0.0 23:0.0 24:0.0 25:0.0 26:0.0 27:0.0 28:0.0 29:0.0 30:0.0 31:0.0 32:0.0 33:0.0 34:0.0 35:0.0 36:0.0 37:0.0 38:0.0 39:0.0 40:0.0 41:0.0 42:0.0 43:0.0 44:0.0 45:0.0 46:0.0 47:0.0 48:0.0 49:0.0 50:0.0 51:0.0 52:0.0 53:0.0 54:0.0 55:0.0 56:0.0 57:0.0 58:0.0 59:0.0 60:0.0 61:0.0 62:0.0 63:0.0 64:0.0 65:0.0 66:0.0 67:0.0 68:0.0 69:0.0 70:0.0 71:0.0 72:0.0 73:0.0 74:0.0 75:0.0 76:0.0 77:0.0 78:0.0 79:0.0 80:0.0 81:0.0 82:0.0 83:0.0 84:0.0 85:0.0 86:0.0 87:0.0 88:0.0 89:0.0 90:0.0 91:0.0 92:0.0 93:0.0 94:0.0 95:0.0 96:0.0 97:0.0 98:0.0 99:0.0 100:0.0 101:0.0 102:0.2016 103:0.1848 104:-0.1799 105:-0.0226 106:0.2199 107:0.2404 108:0.1068 109:-0.1964 110:-0.1774 111:0.2413 112:0.04 113:0.0053 114:-0.0317 115:0.1539 116:-0.0015 117:0.1975 118:-0.2247 119:0.0932 120:-0.0926 121:-0.2086 122:-0.1333 123:0.1135 124:0.1358 125:0.2511 126:0.0437 127:0.0303 128:-0.0258 129:-0.0492 130:-0.3148 131:-0.0951 132:0.0213 133:0.2297 134:-0.1447 135:0.0289 136:-0.1954 137:0.1827 138:-0.1776 139:0.1368 140:-0.1665 141:-0.0098 142:0.0568 143:-0.1247 144:-0.2326 145:-0.285 146:0.0378 147:0.1472 148:-0.042 149:0.0981 150:0.0859 151:0.054 152:0.2158 153:-0.1721 154:0.0109 155:0.2457 156:0.1705 157:0.2007 158:0.1446 159:-0.0865 160:-0.2254 161:-0.0986 162:0.1318 163:0.0978 164:0.1293 165:0.0068 166:0.023 167:-0.0982 168:-0.0997 169:0.1647 170:0.2765 171:-0.084 172:-0.153 173:0.1053 174:-0.0038 175:0.1458 176:-0.0843 177:0.2383 178:-0.0046 179:0.0406 180:0.19 181:-0.0885 182:-0.2031 183:-0.0404 184:-0.0158 185:-0.1445 186:0.115 187:-0.023 188:-0.0748 189:-0.3675 190:-0.0925 191:0.0241 192:-0.4079 193:0.0344 194:-0.6099 195:-0.1315 196:-0.0463 197:0.0333 198:-0.0391 199:0.2528 200:-0.127 201:0.0461 202:21.0 203:-0.0253 204:0.1884 205:-0.3442 206:0.0725 207:-0.0212 208:0.2606 209:0.146 210:-0.3079 211:0.1442 212:0.0305 213:-0.0715 214:0.1304 215:0.2416 216:-0.1087 217:0.0982 218:0.0659 219:-0.1865 220:-0.1861 221:-0.0248 222:-0.1462 223:-0.0554 224:-0.1818 225:0.1807 226:-0.0145 227:0.0455 228:-0.277 229:0.1711 230:-0.0264 231:-0.2543 232:-0.1738 233:-0.0145 234:0.5808 235:-0.2351 236:-0.0508 237:0.0539 238:0.1846 239:-0.2333 240:0.0475 241:0.2488 242:-0.0534 243:0.2071 244:0.1466 245:0.0084 246:-0.1378 247:-0.055 248:0.0151 249:0.1255 250:0.1003 251:0.0868 252:-0.0664 253:0.0661 254:0.0715 255:0.0049 256:0.5046 257:-0.1262 258:0.099 259:-0.0316 260:-0.2677 261:0.1479 262:-0.1078 263:0.1759 264:0.2724 265:0.2204 266:-0.1928 267:0.2557 268:-0.1613 269:-0.0858 270:0.0791 271:0.1736 272:-0.2708 273:0.1756 274:-0.3309 275:-0.1021 276:0.0349 277:-0.0055 278:0.0639 279:-0.0541 280:0.0741 281:0.0603 282:0.3283 283:-0.3162 284:0.0059 285:-0.082 286:0.0624 287:0.2462 288:-0.1242 289:-0.1247 290:-0.2171 291:-0.0918 292:0.0169 293:-0.0947 294:-0.2483 295:-0.4772 296:-0.0422 297:-0.1026 298:0.0317 299:0.1897 300:0.1211 301:0.0224 302:-0.0576 303:1.0 319:1.0 
0.01 1:0.4389 2:0.1614 3:-0.1941 4:0.0549 5:0.5651 6:0.2415 7:0.0393 8:-0.2276 9:-0.4266 10:0.3995 11:0.1011 12:-0.1321 13:0.0163 14:0.2751 15:0.0917 16:0.3407 17:-0.2011 18:0.1478 19:-0.1909 20:-0.2936 21:-0.212 22:0.0511 23:0.1012 24:0.539 25:-0.1651 26:0.0255 27:-0.0391 28:-0.0482 29:-0.5675 30:-0.2574 31:0.1355 32:0.1405 33:-0.0606 34:-0.1173 35:-0.3174 36:0.3564 37:-0.2814 38:0.0848 39:-0.1566 40:-0.0237 41:-0.081 42:-0.0103 43:-0.3494 44:-0.3779 45:0.1246 46:0.2544 47:-0.1113 48:0.0171 49:0.0847 50:0.0067 51:0.3484 52:-0.4134 53:-0.0863 54:0.26 55:0.3905 56:0.3095 57:0.1962 58:-0.106 59:-0.4204 60:-0.2821 61:0.1235 62:0.247 63:0.0619 64:0.0813 65:0.0107 66:-0.1874 67:0.0226 68:0.3721 69:0.2424 70:-0.0481 71:-0.39 72:0.1845 73:0.1075 74:0.1375 75:-0.3515 76:0.319 77:0.0069 78:0.0604 79:0.4013 80:-0.3412 81:-0.2254 82:-0.0611 83:-0.1605 84:-0.1091 85:0.1908 86:-0.0218 87:-0.0059 88:-0.4514 89:0.0851 90:0.0448 91:-0.5332 92:0.0735 93:-0.8468 94:-0.2927 95:-0.114 96:0.0684 97:-0.1358 98:0.1996 99:-0.2367 100:0.1414 101:8.0 102:0.0633 103:0.1984 104:-0.1716 105:-0.0678 106:0.0185 107:0.2397 108:0.1462 109:-0.1782 110:-0.0321 111:0.149 112:0.0044 113:0.0855 114:-0.0597 115:0.0832 116:-0.0558 117:0.114 118:-0.2385 119:0.0614 120:-0.0352 121:-0.1591 122:-0.0873 123:0.1498 124:0.156 125:0.0831 126:0.1655 127:0.0331 128:-0.018 129:-0.0499 130:-0.1674 131:-4.0E-4 132:-0.0453 133:0.2818 134:-0.1938 135:0.1141 136:-0.1243 137:0.0814 138:-0.117 139:0.1672 140:-0.1723 141:-0.0017 142:0.1372 143:-0.1915 144:-0.1644 145:-0.2309 146:-0.0129 147:0.0847 148:-0.0015 149:0.1454 150:0.0866 151:0.0816 152:0.1384 153:-0.0313 154:0.0676 155:0.2374 156:0.0422 157:0.1373 158:0.1145 159:-0.0751 160:-0.1117 161:0.0085 162:0.1367 163:0.0108 164:0.1686 165:-0.0367 166:0.0301 167:-0.0461 168:-0.171 169:0.0437 170:0.2963 171:-0.1049 172:-0.0148 173:0.0591 174:-0.0687 175:0.1506 176:0.0715 177:0.1913 178:-0.0114 179:0.029 180:0.0668 181:0.0589 182:-0.1901 183:-0.0283 184:0.0685 185:-0.1652 186:0.0707 187:-0.0237 188:-0.115 189:-0.3185 190:-0.1961 191:0.012 192:-0.3348 193:0.0116 194:-0.4717 195:-0.0375 196:-0.0067 197:0.0128 198:0.0172 199:0.2838 200:-0.0629 201:-0.0094 202:13.0 203:-0.0253 204:0.1884 205:-0.3442 206:0.0725 207:-0.0212 208:0.2606 209:0.146 210:-0.3079 211:0.1442 212:0.0305 213:-0.0715 214:0.1304 215:0.2416 216:-0.1087 217:0.0982 218:0.0659 219:-0.1865 220:-0.1861 221:-0.0248 222:-0.1462 223:-0.0554 224:-0.1818 225:0.1807 226:-0.0145 227:0.0455 228:-0.277 229:0.1711 230:-0.0264 231:-0.2543 232:-0.1738 233:-0.0145 234:0.5808 235:-0.2351 236:-0.0508 237:0.0539 238:0.1846 239:-0.2333 240:0.0475 241:0.2488 242:-0.0534 243:0.2071 244:0.1466 245:0.0084 246:-0.1378 247:-0.055 248:0.0151 249:0.1255 250:0.1003 251:0.0868 252:-0.0664 253:0.0661 254:0.0715 255:0.0049 256:0.5046 257:-0.1262 258:0.099 259:-0.0316 260:-0.2677 261:0.1479 262:-0.1078 263:0.1759 264:0.2724 265:0.2204 266:-0.1928 267:0.2557 268:-0.1613 269:-0.0858 270:0.0791 271:0.1736 272:-0.2708 273:0.1756 274:-0.3309 275:-0.1021 276:0.0349 277:-0.0055 278:0.0639 279:-0.0541 280:0.0741 281:0.0603 282:0.3283 283:-0.3162 284:0.0059 285:-0.082 286:0.0624 287:0.2462 288:-0.1242 289:-0.1247 290:-0.2171 291:-0.0918 292:0.0169 293:-0.0947 294:-0.2483 295:-0.4772 296:-0.0422 297:-0.1026 298:0.0317 299:0.1897 300:0.1211 301:0.0224 302:-0.0576 303:1.0 320:1.0 
0.01 1:0.0412 2:0.1825 3:-0.2071 4:0.0902 5:0.0083 6:0.0605 7:0.0553 8:-0.2135 9:0.1005 10:-0.0432 11:-0.1413 12:0.0461 13:-0.0129 14:0.0938 15:0.1795 16:0.1714 17:-0.1218 18:1.0E-4 19:-0.094 20:-0.2233 21:0.128 22:-0.1095 23:0.0938 24:0.0982 25:0.1185 26:-0.023 27:-0.0981 28:0.1385 29:-0.2791 30:-0.1298 31:0.1148 32:0.3202 33:-0.2191 34:0.17 35:-0.0783 36:0.0536 37:-0.0134 38:0.0064 39:-0.0127 40:0.0517 41:0.2981 42:-0.1531 43:-0.1154 44:-0.0417 45:-0.0771 46:-0.014 47:0.265 48:0.1997 49:0.1278 50:0.0879 51:-0.0363 52:-0.0893 53:-0.1135 54:0.377 55:0.0594 56:0.0801 57:0.0781 58:-0.1096 59:-0.2343 60:-0.0357 61:0.2268 62:-0.0958 63:0.2419 64:-0.0219 65:-0.0106 66:0.0701 67:4.0E-4 68:-0.0483 69:0.2387 70:-0.0379 71:0.0331 72:-0.0162 73:0.0484 74:0.1133 75:-0.1434 76:0.0848 77:0.0706 78:0.0325 79:-0.039 80:0.0224 81:-0.3344 82:-0.0344 83:0.1094 84:-0.0335 85:-0.1715 86:0.036 87:0.0144 88:-0.1837 89:0.0765 90:0.1671 91:-0.1107 92:0.0732 93:-0.4606 94:-0.0464 95:0.1251 96:0.1386 97:0.0515 98:0.2253 99:-0.0267 100:0.1489 101:5.0 102:0.2192 103:0.1529 104:-0.2629 105:0.1435 106:0.189 107:0.2707 108:0.0157 109:-0.1132 110:-0.2407 111:0.0889 112:-0.0042 113:-0.1645 114:0.1323 115:0.0124 116:0.1433 117:0.3277 118:-0.0934 119:0.0242 120:0.1596 121:0.0238 122:0.0859 123:-0.0205 124:-0.0437 125:0.0064 126:0.051 127:-0.0939 128:0.0793 129:-0.2552 130:-0.2171 131:-0.2191 132:-0.1249 133:0.4218 134:-0.4577 135:0.024 136:-0.0015 137:0.2163 138:-0.1257 139:-0.0856 140:-0.0047 141:0.067 142:0.1037 143:-0.0363 144:-0.2016 145:-0.1408 146:-0.1027 147:0.1197 148:0.0382 149:0.1032 150:-0.0867 151:-0.0148 152:0.2267 153:-0.1719 154:0.1584 155:0.4371 156:0.1422 157:0.2828 158:0.109 159:-0.2094 160:-0.2136 161:-0.042 162:0.1351 163:0.2306 164:0.1871 165:0.1668 166:0.0753 167:-0.1179 168:-0.0264 169:0.1179 170:0.1326 171:-0.0355 172:0.1727 173:0.0579 174:-0.0421 175:-0.0936 176:-0.0874 177:0.1498 178:0.1013 179:0.1983 180:-0.072 181:0.0628 182:-0.3012 183:0.1509 184:0.0419 185:-0.1309 186:0.1028 187:-0.043 188:-0.0963 189:-0.2046 190:0.0146 191:0.1726 192:-0.137 193:-0.0154 194:-0.4263 195:0.0107 196:0.1133 197:0.1913 198:0.0886 199:0.0596 200:-0.0684 201:0.2243 202:8.0 203:0.2275 204:0.2212 205:-0.1859 206:0.0326 207:0.1288 208:0.1802 209:0.1908 210:-0.2466 211:-0.1761 212:0.0835 213:0.0654 214:-0.0247 215:0.1331 216:0.0752 217:0.0702 218:0.3427 219:-0.209 220:0.0851 221:-0.0276 222:-0.2278 223:-0.1117 224:-0.0387 225:0.0229 226:0.3198 227:0.0352 228:-0.0809 229:-0.1462 230:-0.021 231:-0.3859 232:-0.2498 233:-0.0062 234:0.2495 235:-0.1229 236:-0.1283 237:-0.1149 238:0.3012 239:-0.1612 240:0.0264 241:-0.053 242:-0.0477 243:-0.0141 244:-0.102 245:-0.2315 246:-0.319 247:0.0634 248:0.1377 249:-0.1325 250:0.2384 251:0.1292 252:-0.0214 253:0.2912 254:-0.322 255:0.0053 256:0.2748 257:0.1526 258:0.2891 259:0.2013 260:-0.2527 261:-0.2383 262:-0.0485 263:0.1321 264:0.0955 265:0.0166 266:0.0828 267:-0.0037 268:-0.1389 269:0.011 270:0.2645 271:0.0963 272:-0.0349 273:-0.102 274:0.2807 275:-0.0016 276:0.0597 277:-0.2716 278:0.2995 279:0.1495 280:0.2401 281:0.1768 282:-0.0369 283:-0.2268 284:0.0259 285:-0.1165 286:-0.1453 287:0.1219 288:-0.0091 289:-0.0249 290:-0.3433 291:0.0686 292:0.0904 293:-0.4947 294:0.0156 295:-0.6543 296:-0.1546 297:0.0604 298:0.0452 299:0.2194 300:0.1452 301:-0.1266 302:-0.0137 303:9.0 322:1.0 
-0.01 1:0.0685 2:0.147 3:-0.1169 4:0.1289 5:0.302 6:0.1594 7:0.0815 8:-0.1458 9:0.1308 10:0.0523 11:0.0605 12:-0.0524 13:0.0488 14:0.2094 15:0.2939 16:0.0475 17:-0.1707 18:0.0713 19:-0.3253 20:-0.3513 21:0.1526 22:0.1922 23:0.1414 24:0.167 25:-0.0239 26:0.0803 27:0.0119 28:-0.0434 29:-0.2974 30:-0.1511 31:0.1294 32:0.3058 33:-0.2522 34:-0.0144 35:-0.1 36:0.12 37:-0.1417 38:-0.0741 39:-0.0385 40:-0.0183 41:0.1207 42:-0.0292 43:-0.1664 44:-0.1505 45:0.0904 46:0.2267 47:0.1821 48:0.1181 49:0.1116 50:0.0263 51:0.138 52:-0.1688 53:0.0453 54:0.2244 55:0.136 56:0.0122 57:0.1258 58:-0.152 59:-0.0372 60:-0.0841 61:0.0663 62:0.0843 63:0.1775 64:0.1851 65:0.0464 66:-0.162 67:0.0424 68:0.137 69:0.2074 70:-0.0274 71:0.0641 72:-0.0033 73:-0.0206 74:0.0488 75:-0.1669 76:0.2878 77:-0.01 78:0.0971 79:0.1417 80:-0.0265 81:-0.2879 82:-0.077 83:0.0583 84:-0.1955 85:-0.2004 86:-0.0332 87:-0.0126 88:-0.1526 89:-0.0612 90:0.1423 91:-0.2487 92:7.0E-4 93:-0.5472 94:-0.1624 95:0.1201 96:0.1988 97:-0.0132 98:0.1635 99:-0.1305 100:-0.0784 101:4.0 102:0.2247 103:0.3292 104:-0.1995 105:0.1313 106:0.33 107:0.1662 108:0.1766 109:-0.1614 110:-0.2099 111:0.0958 112:0.0999 113:0.0155 114:0.0592 115:0.2541 116:-0.0775 117:0.1928 118:-0.0805 119:0.0019 120:0.0898 121:-0.1804 122:-0.1329 123:-0.1808 124:0.1783 125:0.3693 126:-0.0639 127:-0.1665 128:-0.042 129:0.1083 130:-0.5343 131:-0.3317 132:0.0547 133:0.3306 134:-0.0938 135:0.1123 136:-0.2848 137:0.214 138:-0.0521 139:0.1292 140:-0.1331 141:-0.0457 142:0.0523 143:0.0315 144:-0.3178 145:-0.2876 146:-0.0346 147:-0.0488 148:-0.0313 149:0.0975 150:0.0945 151:0.0672 152:0.2516 153:-0.2414 154:-0.2181 155:0.3737 156:0.3325 157:0.1993 158:0.028 159:-0.2677 160:-0.2682 161:-0.2294 162:0.0671 163:0.2829 164:0.0678 165:0.0011 166:0.0452 167:-0.0504 168:-0.0371 169:0.1435 170:0.2137 171:-0.0945 172:-0.2783 173:0.148 174:-0.1281 175:0.0653 176:-0.3018 177:0.3122 178:0.1867 179:0.226 180:0.3787 181:-0.1267 182:-0.3436 183:0.1312 184:-0.1578 185:-0.0857 186:0.2758 187:0.0391 188:0.105 189:-0.333 190:0.1155 191:0.1239 192:-0.3471 193:0.1352 194:-0.7126 195:-0.166 196:-0.0986 197:0.0081 198:-0.056 199:0.0871 200:-0.0381 201:0.2611 202:6.0 203:0.3116 204:0.1699 205:-0.2708 206:-0.1607 207:0.2492 208:0.2539 209:-0.125 210:-0.1589 211:0.0426 212:0.1947 213:0.0684 214:0.0633 215:-0.034 216:-0.0081 217:0.0544 218:0.4182 219:-0.3572 220:-0.0777 221:-0.0863 222:-0.1612 223:-0.0432 224:-0.0053 225:-0.044 226:0.4366 227:0.2611 228:-0.1963 229:0.1973 230:0.0278 231:-0.2884 232:-0.1668 233:-0.1324 234:0.1547 235:-0.156 236:0.4811 237:0.0798 238:0.1506 239:-0.1655 240:-0.1697 241:0.0542 242:0.2033 243:0.0756 244:-0.0662 245:-0.1639 246:-0.3256 247:0.079 248:0.038 249:0.2406 250:0.1851 251:0.0454 252:-0.0235 253:0.2497 254:-0.2328 255:0.1652 256:0.1699 257:-0.1697 258:0.1085 259:0.0102 260:-0.0259 261:-0.0523 262:-0.239 263:-0.0126 264:0.1867 265:0.1013 266:-0.2298 267:-0.1086 268:-0.1282 269:0.026 270:0.1871 271:0.3889 272:-0.1103 273:-0.0821 274:0.2012 275:-0.228 276:-0.0075 277:0.0793 278:0.0565 279:0.0457 280:-0.075 281:0.1938 282:-0.1391 283:-0.3249 284:-0.1021 285:-0.1681 286:0.0782 287:0.2233 288:0.1039 289:0.1499 290:-0.387 291:-0.1792 292:0.1021 293:-0.4943 294:0.0924 295:-0.3756 296:-0.1607 297:-0.086 298:-0.1442 299:-0.0596 300:0.2731 301:-0.4202 302:-0.0413 303:3.0 305:1.0 
-0.01 1:0.1743 2:0.2638 3:-0.1641 4:0.1633 5:0.3469 6:0.1565 7:0.1237 8:-0.1423 9:-0.0802 10:0.0864 11:0.1012 12:-0.0355 13:0.0394 14:0.2785 15:0.0891 16:0.1567 17:-0.1388 18:0.0398 19:-0.1094 20:-0.2832 21:0.0038 22:0.0039 23:0.1749 24:0.3023 25:-0.0478 26:-0.0306 27:-0.0283 28:0.0495 29:-0.4506 30:-0.2643 31:0.0988 32:0.3096 33:-0.1663 34:0.0486 35:-0.2335 36:0.173 37:-0.0951 38:0.0276 39:-0.121 40:-0.0382 41:0.0637 42:0.0052 43:-0.2883 44:-0.2442 45:0.042 46:0.1019 47:0.0522 48:0.1067 49:0.0745 50:0.0471 51:0.229 52:-0.2344 53:-0.1154 54:0.2957 55:0.2985 56:0.1057 57:0.0752 58:-0.2162 59:-0.1877 60:-0.1798 61:0.0604 62:0.1888 63:0.0887 64:0.0895 65:0.0245 66:-0.0959 67:0.0243 68:0.1667 69:0.2187 70:-0.0496 71:-0.1483 72:0.1028 73:-0.0816 74:0.0659 75:-0.2881 76:0.3277 77:0.1017 78:0.1773 79:0.2979 80:-0.1 81:-0.3322 82:0.0315 83:-0.0561 84:-0.1484 85:0.0471 86:0.013 87:0.0633 88:-0.2575 89:0.0437 90:0.1604 91:-0.3235 92:0.0824 93:-0.6586 94:-0.1827 95:-9.0E-4 96:0.105 97:-0.0394 98:0.1185 99:-0.0799 100:0.1325 101:9.0 102:0.0027 103:0.1235 104:-0.1524 105:-0.1341 106:0.083 107:0.2173 108:0.2189 109:-0.2522 110:0.115 111:-0.0035 112:-0.0678 113:0.1517 114:0.1759 115:-0.12 116:0.0753 117:-0.0995 118:0.0248 119:-0.0234 120:0.0227 121:-0.0414 122:-0.0848 123:-0.167 124:0.0574 125:0.0962 126:-0.0332 127:-0.2663 128:0.0644 129:-0.0286 130:-0.2569 131:-0.1483 132:7.0E-4 133:0.3994 134:-0.1476 135:0.1151 136:0.0435 137:0.1664 138:-0.0666 139:0.1285 140:0.1488 141:0.0034 142:0.2353 143:-7.0E-4 144:0.0524 145:-0.0862 146:-0.1479 147:-0.1524 148:0.1547 149:0.1062 150:0.3228 151:0.0646 152:-0.0227 153:-0.0074 154:0.0139 155:0.4003 156:-0.1814 157:0.2 158:0.0417 159:-0.2173 160:0.0116 161:-0.0452 162:0.1176 163:0.2416 164:0.34 165:0.03 166:0.2157 167:-0.1331 168:-0.2104 169:-0.0682 170:0.1486 171:-0.1853 172:0.0517 173:-0.0962 174:-0.0704 175:-0.0058 176:0.1282 177:0.0911 178:0.0804 179:0.1004 180:0.0772 181:0.0601 182:-0.2118 183:0.0962 184:-0.107 185:-0.0231 186:0.2005 187:-0.0417 188:-0.0318 189:-0.2158 190:-0.0171 191:-0.0947 192:-0.1427 193:0.0199 194:-0.4828 195:-0.0184 196:-0.006 197:-0.0043 198:-0.018 199:0.1419 200:-0.0729 201:-0.0681 202:1.0 203:0.3116 204:0.1699 205:-0.2708 206:-0.1607 207:0.2492 208:0.2539 209:-0.125 210:-0.1589 211:0.0426 212:0.1947 213:0.0684 214:0.0633 215:-0.034 216:-0.0081 217:0.0544 218:0.4182 219:-0.3572 220:-0.0777 221:-0.0863 222:-0.1612 223:-0.0432 224:-0.0053 225:-0.044 226:0.4366 227:0.2611 228:-0.1963 229:0.1973 230:0.0278 231:-0.2884 232:-0.1668 233:-0.1324 234:0.1547 235:-0.156 236:0.4811 237:0.0798 238:0.1506 239:-0.1655 240:-0.1697 241:0.0542 242:0.2033 243:0.0756 244:-0.0662 245:-0.1639 246:-0.3256 247:0.079 248:0.038 249:0.2406 250:0.1851 251:0.0454 252:-0.0235 253:0.2497 254:-0.2328 255:0.1652 256:0.1699 257:-0.1697 258:0.1085 259:0.0102 260:-0.0259 261:-0.0523 262:-0.239 263:-0.0126 264:0.1867 265:0.1013 266:-0.2298 267:-0.1086 268:-0.1282 269:0.026 270:0.1871 271:0.3889 272:-0.1103 273:-0.0821 274:0.2012 275:-0.228 276:-0.0075 277:0.0793 278:0.0565 279:0.0457 280:-0.075 281:0.1938 282:-0.1391 283:-0.3249 284:-0.1021 285:-0.1681 286:0.0782 287:0.2233 288:0.1039 289:0.1499 290:-0.387 291:-0.1792 292:0.1021 293:-0.4943 294:0.0924 295:-0.3756 296:-0.1607 297:-0.086 298:-0.1442 299:-0.0596 300:0.2731 301:-0.4202 302:-0.0413 303:3.0 306:1.0 
-0.01 1:0.231 2:0.2177 3:-0.2467 4:-0.064 5:-0.0264 6:0.0966 7:0.0123 8:0.0017 9:-0.2052 10:0.1876 11:0.0121 12:-0.0372 13:-0.0377 14:0.1458 15:-0.05 16:0.1072 17:-0.1493 18:-0.0159 19:-0.0893 20:-0.3237 21:-0.0384 22:-0.0272 23:0.0296 24:0.2228 25:-0.1242 26:0.0818 27:0.0441 28:-0.1301 29:-0.2224 30:-0.2196 31:-0.1165 32:0.2975 33:-0.0489 34:-0.074 35:-0.1284 36:0.0769 37:-0.165 38:0.2339 39:0.0035 40:-0.102 41:0.1073 42:-0.0794 43:-0.0029 44:-0.0656 45:-0.0941 46:0.0141 47:-0.0064 48:0.2469 49:0.1189 50:0.1441 51:0.1371 52:-0.0547 53:-0.0079 54:0.1222 55:0.0987 56:0.0594 57:0.241 58:-0.2035 59:-0.0673 60:0.0641 61:0.1904 62:0.07 63:0.091 64:0.1436 65:0.0376 66:-0.0012 67:-0.1631 68:-0.137 69:0.2903 70:-0.011 71:-0.0782 72:0.0545 73:0.0788 74:0.0339 75:0.0935 76:0.1225 77:0.0189 78:0.1515 79:0.0343 80:-0.2074 81:-0.1131 82:-0.226 83:0.1737 84:-0.0749 85:-0.1044 86:0.0375 87:0.076 88:-0.3777 89:-0.0674 90:-0.081 91:-0.2597 92:0.0576 93:-0.3357 94:-0.1537 95:0.0125 96:0.1583 97:0.1104 98:0.2426 99:-0.2252 100:0.1504 101:4.0 102:0.1801 103:0.2214 104:-0.2286 105:0.0232 106:0.1329 107:0.2309 108:0.0823 109:-0.1884 110:0.0411 111:0.1811 112:0.0913 113:-0.002 114:0.0305 115:0.0494 116:0.1006 117:0.2097 118:-0.1877 119:0.054 120:-0.1115 121:-0.166 122:-0.0644 123:0.0702 124:0.0961 125:0.1563 126:0.0317 127:-0.0011 128:-0.09 129:-0.1174 130:-0.2411 131:-0.1482 132:0.0046 133:0.2136 134:-0.196 135:0.059 136:-0.1072 137:0.2242 138:-0.131 139:0.0841 140:-0.0085 141:0.0361 142:0.0718 143:-0.0517 144:-0.2167 145:-0.1875 146:-0.0054 147:0.1599 148:0.0423 149:0.1519 150:0.1034 151:0.0671 152:0.1274 153:-0.1584 154:0.0112 155:0.254 156:0.0907 157:0.0795 158:0.1449 159:-0.1603 160:-0.2196 161:-0.0244 162:0.0748 163:0.119 164:0.1277 165:0.0835 166:0.0474 167:-0.0996 168:-0.1288 169:0.0931 170:0.2116 171:-0.0529 172:0.0432 173:0.0877 174:-0.0294 175:-0.0504 176:-0.0584 177:0.2117 178:0.0593 179:0.1014 180:0.0523 181:-0.025 182:-0.2325 183:-0.0129 184:-0.0076 185:-0.1354 186:-0.0058 187:0.0282 188:-0.0591 189:-0.2031 190:-0.0684 191:0.0977 192:-0.316 193:-0.0362 194:-0.4607 195:-0.0925 196:0.0899 197:0.0312 198:-0.0402 199:0.1331 200:-0.0782 201:0.0642 202:43.0 203:0.0784 204:0.3357 205:-0.2901 206:0.0742 207:0.1272 208:0.2734 209:0.033 210:-0.1228 211:0.0785 212:0.1852 213:-0.0168 214:0.0809 215:0.0885 216:0.0185 217:-0.0045 218:0.149 219:-8.0E-4 220:-0.0451 221:-0.0733 222:-0.2456 223:-0.0386 224:0.0406 225:0.1983 226:0.1908 227:0.119 228:0.0049 229:-0.1235 230:0.0618 231:-0.2433 232:-0.1126 233:-0.0192 234:0.2836 235:-0.1035 236:0.054 237:-0.0867 238:0.2889 239:-0.1518 240:0.1361 241:-0.0057 242:-0.035 243:0.0952 244:-0.1726 245:-0.0957 246:-0.2303 247:0.0022 248:0.0237 249:0.0455 250:0.2239 251:0.2036 252:0.0882 253:0.1374 254:-0.1582 255:0.0702 256:0.3126 257:0.1316 258:0.07 259:0.0515 260:-0.1715 261:-0.285 262:0.0538 263:0.1923 264:0.125 265:0.0674 266:-0.0302 267:0.0503 268:-0.1149 269:-0.1042 270:0.1737 271:0.1427 272:-0.1892 273:0.0562 274:0.2185 275:-0.0922 276:-0.0139 277:0.0553 278:0.1569 279:0.106 280:0.1859 281:0.031 282:-0.1811 283:-0.2524 284:-0.0972 285:-0.124 286:-0.0289 287:0.0669 288:0.0249 289:-0.067 290:-0.2803 291:-0.0389 292:-0.1024 293:-0.1299 294:-0.01 295:-0.5481 296:0.0017 297:0.0991 298:0.0149 299:0.0186 300:0.0738 301:-0.1579 302:0.0293 303:13.0 308:1.0 
-0.004747834296877303 1:0.231 2:0.2177 3:-0.2467 4:-0.064 5:-0.0264 6:0.0966 7:0.0123 8:0.0017 9:-0.2052 10:0.1876 11:0.0121 12:-0.0372 13:-0.0377 14:0.1458 15:-0.05 16:0.1072 17:-0.1493 18:-0.0159 19:-0.0893 20:-0.3237 21:-0.0384 22:-0.0272 23:0.0296 24:0.2228 25:-0.1242 26:0.0818 27:0.0441 28:-0.1301 29:-0.2224 30:-0.2196 31:-0.1165 32:0.2975 33:-0.0489 34:-0.074 35:-0.1284 36:0.0769 37:-0.165 38:0.2339 39:0.0035 40:-0.102 41:0.1073 42:-0.0794 43:-0.0029 44:-0.0656 45:-0.0941 46:0.0141 47:-0.0064 48:0.2469 49:0.1189 50:0.1441 51:0.1371 52:-0.0547 53:-0.0079 54:0.1222 55:0.0987 56:0.0594 57:0.241 58:-0.2035 59:-0.0673 60:0.0641 61:0.1904 62:0.07 63:0.091 64:0.1436 65:0.0376 66:-0.0012 67:-0.1631 68:-0.137 69:0.2903 70:-0.011 71:-0.0782 72:0.0545 73:0.0788 74:0.0339 75:0.0935 76:0.1225 77:0.0189 78:0.1515 79:0.0343 80:-0.2074 81:-0.1131 82:-0.226 83:0.1737 84:-0.0749 85:-0.1044 86:0.0375 87:0.076 88:-0.3777 89:-0.0674 90:-0.081 91:-0.2597 92:0.0576 93:-0.3357 94:-0.1537 95:0.0125 96:0.1583 97:0.1104 98:0.2426 99:-0.2252 100:0.1504 101:4.0 102:0.1616 103:0.2352 104:-0.24 105:0.0333 106:0.1351 107:0.2421 108:0.0742 109:-0.1728 110:0.0405 111:0.1819 112:0.0671 113:0.0142 114:0.0372 115:0.0494 116:0.0743 117:0.1997 118:-0.1536 119:0.0343 120:-0.1093 121:-0.1859 122:-0.0669 123:0.0679 124:0.1084 125:0.1667 126:0.0437 127:0.0058 128:-0.1035 129:-0.09 130:-0.2383 131:-0.1362 132:-0.0046 133:0.2209 134:-0.1734 135:0.0564 136:-0.111 137:0.237 138:-0.1303 139:0.0925 140:-0.0106 141:0.0273 142:0.0778 143:-0.0731 144:-0.2039 145:-0.1963 146:-0.0045 147:0.1369 148:0.04 149:0.1711 150:0.1233 151:0.0677 152:0.1312 153:-0.1617 154:0.0277 155:0.2619 156:0.0986 157:0.0808 158:0.121 159:-0.1601 160:-0.2416 161:-0.0134 162:0.0982 163:0.1165 164:0.1145 165:0.0663 166:0.0463 167:-0.0977 168:-0.1285 169:0.1128 170:0.2023 171:-0.0729 172:0.0405 173:0.1193 174:-0.0377 175:-0.0429 176:-0.0326 177:0.2063 178:0.069 179:0.1204 180:0.0548 181:-0.0688 182:-0.234 183:-0.028 184:-0.0382 185:-0.1123 186:0.0067 187:0.032 188:-0.0644 189:-0.2169 190:-0.0669 191:0.0566 192:-0.2792 193:-0.0256 194:-0.4798 195:-0.0697 196:0.0973 197:0.0311 198:-0.0229 199:0.1234 200:-0.097 201:0.0543 202:54.0 203:0.0177 204:0.5923 205:-0.32 206:0.0821 207:0.0373 208:0.2043 209:-0.0204 210:-0.1831 211:0.2996 212:0.185 213:0.0427 214:0.0991 215:0.2258 216:-0.15 217:0.1282 218:0.0844 219:0.106 220:-0.0589 221:0.0761 222:-0.1448 223:0.1703 224:-0.0603 225:0.4287 226:0.1011 227:0.2762 228:-0.1483 229:0.0567 230:0.3087 231:-0.3314 232:-0.2414 233:0.098 234:0.4713 235:-0.2037 236:0.0951 237:0.1267 238:0.2988 239:-0.2855 240:0.1952 241:0.0677 242:-0.1874 243:0.0634 244:-0.2585 245:0.2237 246:-0.229 247:0.02 248:-0.1054 249:0.1257 250:0.1015 251:0.2193 252:0.1899 253:0.0902 254:-0.0663 255:-0.0486 256:0.4213 257:0.1442 258:-0.0167 259:0.1828 260:-0.2381 261:-0.0505 262:0.1883 263:0.2058 264:0.2248 265:0.0928 266:-0.1916 267:0.0966 268:-0.2485 269:0.0223 270:0.0843 271:0.016 272:-0.3997 273:0.1995 274:0.0838 275:-0.2139 276:-0.0147 277:-0.0144 278:9.0E-4 279:0.1012 280:0.1386 281:-0.1544 282:0.1439 283:-0.3205 284:-0.1545 285:0.0607 286:-0.0693 287:0.1311 288:-0.0937 289:0.0342 290:-0.3316 291:0.0827 292:-0.0954 293:-0.1021 294:-0.1526 295:-0.5122 296:-0.0975 297:-0.0513 298:-0.0719 299:-0.1249 300:0.009 301:-0.089 302:0.1054 303:2.0 309:1.0 
-0.01 1:0.1383 2:0.052 3:-0.1837 4:0.046 5:0.2054 6:0.2493 7:0.0236 8:0.0547 9:-0.1997 10:0.1397 11:-0.0643 12:0.0427 13:-0.0884 14:0.3403 15:-0.0426 16:8.0E-4 17:-0.2089 18:-0.2001 19:-0.0053 20:-0.1441 21:-0.0066 22:0.0537 23:0.0031 24:-0.01 25:0.148 26:-0.0982 27:0.1755 28:-0.2225 29:-0.4716 30:0.1103 31:-0.2312 32:0.4128 33:-0.376 34:0.0651 35:-0.0788 36:0.2141 37:-0.1664 38:-0.1629 39:-0.0162 40:-0.0586 41:-0.0762 42:0.1359 43:-0.1055 44:-0.31 45:-0.0273 46:0.1281 47:0.2785 48:0.1853 49:-0.0681 50:0.1581 51:0.1276 52:-0.3344 53:-0.1342 54:0.1081 55:-0.0954 56:0.0019 57:0.1677 58:-0.0237 59:-0.2352 60:0.0504 61:-0.0512 62:0.0292 63:-0.029 64:0.2583 65:0.1471 66:-0.2803 67:0.0039 68:0.0424 69:0.3738 70:0.0126 71:-0.4703 72:0.0607 73:-0.1071 74:0.1797 75:-0.0308 76:0.1773 77:-0.1266 78:0.1201 79:0.2722 80:-0.1496 81:-0.3164 82:-0.1408 83:-0.0737 84:-0.0835 85:0.1612 86:-0.0226 87:-0.1922 88:-0.1863 89:-0.114 90:0.0288 91:-0.5261 92:0.1268 93:-0.4947 94:-0.1201 95:-0.0913 96:0.1325 97:-0.1332 98:0.0938 99:-0.0094 100:0.1154 101:3.0 102:0.1879 103:0.0631 104:-0.2275 105:-0.1171 106:0.2023 107:0.2615 108:0.034 109:-0.2077 110:-0.14 111:0.273 112:-0.1888 113:0.0907 114:0.0286 115:-0.0115 116:-0.0119 117:0.2009 118:-0.0531 119:-0.0992 120:0.0402 121:-0.0893 122:-0.0384 123:-0.0766 124:-0.0525 125:0.1315 126:0.0438 127:-0.1783 128:0.0135 129:-0.1073 130:-0.2843 131:-0.1306 132:-0.1088 133:0.2853 134:-0.2189 135:0.1142 136:0.0506 137:0.2048 138:-0.0649 139:-0.0586 140:-0.0408 141:0.0897 142:0.1941 143:-0.0218 144:-0.0472 145:-0.209 146:0.068 147:0.1091 148:0.0989 149:0.1794 150:0.0888 151:-0.0552 152:0.1261 153:-0.1515 154:0.0116 155:0.4237 156:-0.0111 157:0.2038 158:0.1566 159:-0.1268 160:-0.2575 161:-0.0758 162:0.1485 163:0.1298 164:0.1596 165:0.0585 166:-0.0459 167:-0.1982 168:-0.0784 169:0.0994 170:0.1247 171:0.0401 172:0.0461 173:0.0154 174:-0.0676 175:-0.0146 176:-0.0302 177:0.2343 178:-0.0934 179:0.006 180:-0.0848 181:0.0426 182:-0.3384 183:0.0332 184:-0.033 185:-0.1787 186:-0.0247 187:-0.0874 188:-0.0782 189:-0.2446 190:0.0906 191:0.1064 192:-0.2334 193:-0.1087 194:-0.3619 195:-0.0301 196:0.0281 197:0.0649 198:-0.176 199:0.1214 200:-0.0754 201:0.0922 202:9.0 203:0.3098 204:0.1015 205:-0.1584 206:-0.0709 207:0.1623 208:0.2331 209:0.083 210:-0.203 211:-0.1542 212:0.2205 213:0.1052 214:0.0064 215:0.1162 216:0.0396 217:-0.0373 218:0.2061 219:-0.2454 220:-0.0888 221:-0.0264 222:-0.1711 223:-0.1386 224:-0.0595 225:0.1316 226:0.1165 227:-0.0063 228:-0.1615 229:0.0347 230:-0.0414 231:-0.3222 232:-0.1559 233:7.0E-4 234:0.4308 235:-0.073 236:-0.0551 237:-0.2138 238:0.2241 239:-0.2248 240:0.1092 241:0.0226 242:-0.0216 243:0.1108 244:0.0064 245:-0.2514 246:-0.1761 247:0.046 248:0.0978 249:0.0249 250:0.0304 251:0.1088 252:0.0319 253:0.0963 254:-0.242 255:-0.0744 256:0.3923 257:0.1503 258:0.1351 259:0.2443 260:-0.2594 261:-0.2202 262:-0.2217 263:0.1653 264:0.1865 265:0.1126 266:-0.0169 267:0.1005 268:-0.0859 269:0.0455 270:0.1787 271:0.2173 272:-0.0243 273:-0.1593 274:-0.0453 275:-0.0141 276:0.1052 277:-0.1168 278:0.2025 279:-0.0587 280:0.0334 281:0.1962 282:-0.1598 283:-0.3188 284:-0.0423 285:-0.0445 286:-0.0906 287:0.0702 288:-0.0304 289:-0.0266 290:-0.3596 291:0.0202 292:0.0237 293:-0.2674 294:0.0378 295:-0.6413 296:-0.229 297:-0.0697 298:-0.0875 299:-0.1044 300:0.1064 301:-0.1757 302:0.1192 303:8.0 311:1.0 
-0.01 1:0.1713 2:0.1882 3:-0.3052 4:-0.0114 5:0.1057 6:0.2896 7:0.0858 8:-0.0737 9:-0.1224 10:0.1712 11:-0.0631 12:0.1113 13:0.0879 14:0.025 15:-0.1021 16:0.2467 17:-0.1561 18:0.0096 19:-0.1481 20:-0.2219 21:-0.0863 22:0.0551 23:0.1327 24:0.1977 25:0.0282 26:-0.0996 27:-0.0423 28:-0.0535 29:-0.249 30:-0.1158 31:-0.0674 32:0.3095 33:-0.1655 34:-0.1451 35:-0.2504 36:0.33 37:-0.1025 38:0.0201 39:1.0E-4 40:-0.0482 41:0.0805 42:-0.0686 43:-0.1869 44:-0.089 45:-0.0281 46:0.0988 47:0.0448 48:0.2074 49:0.1194 50:-0.0637 51:0.1591 52:-0.2075 53:0.0445 54:0.3669 55:0.1047 56:0.0796 57:-0.0033 58:-0.2104 59:-0.2073 60:-0.0374 61:0.0559 62:0.2838 63:0.1675 64:0.0694 65:0.0364 66:-0.0486 67:-0.0911 68:0.1252 69:0.1451 70:-0.1023 71:0.0188 72:0.1417 73:-0.0283 74:0.0174 75:-0.056 76:0.1741 77:0.0997 78:0.2506 79:0.0957 80:-0.1397 81:-0.1449 82:-0.0417 83:-0.0977 84:-0.024 85:0.0678 86:0.0323 87:-0.0843 88:-0.2556 89:-0.0455 90:-0.1057 91:-0.2273 92:0.089 93:-0.5063 94:-0.042 95:0.1187 96:0.0684 97:0.0265 98:0.1288 99:-0.1234 100:0.0326 101:11.0 102:-0.0218 103:0.1847 104:-0.1099 105:-0.2346 106:0.0145 107:-0.0356 108:0.0136 109:-0.18 110:0.2091 111:-0.3745 112:-0.0633 113:-0.1505 114:0.0695 115:0.03 116:-0.3816 117:-0.2746 118:-0.2063 119:-0.2024 120:0.1135 121:-0.0923 122:-0.2322 123:-0.0602 124:-0.3838 125:0.5584 126:-0.2248 127:0.0624 128:0.0317 129:-0.2042 130:-0.1776 131:-0.0514 132:0.0748 133:0.2326 134:0.2194 135:0.2497 136:0.1679 137:0.3698 138:0.0331 139:0.0112 140:-0.2028 141:-0.2193 142:0.3743 143:-0.0776 144:0.0354 145:-0.1763 146:-0.1196 147:-0.0362 148:0.2879 149:0.2462 150:0.5642 151:-0.1262 152:0.4068 153:-0.0796 154:0.2729 155:0.2109 156:0.0154 157:0.2491 158:0.2835 159:-0.2956 160:-0.4839 161:-0.0461 162:0.023 163:0.1454 164:0.2707 165:0.3156 166:0.0821 167:-0.118 168:0.3444 169:-0.0965 170:0.0595 171:-0.1761 172:0.2898 173:0.1231 174:0.0681 175:0.0701 176:-0.0827 177:0.199 178:0.321 179:-0.0291 180:0.1372 181:-0.0992 182:-0.5284 183:0.2434 184:0.0918 185:-0.2247 186:0.3117 187:0.2229 188:0.0694 189:-0.0707 190:0.1417 191:-0.1015 192:0.1426 193:-0.1009 194:-0.5789 195:-0.3432 196:0.0642 197:0.3117 198:-0.0146 199:0.1365 200:0.0532 201:-0.038 202:1.0 203:0.2268 204:0.1876 205:-0.2446 206:0.0275 207:0.176 208:0.2527 209:0.0603 210:-0.1541 211:-0.1448 212:0.2321 213:0.039 214:-0.0507 215:0.0642 216:0.0504 217:0.0276 218:0.196 219:-0.1593 220:0.0558 221:-0.0919 222:-0.2275 223:-0.1225 224:-0.0038 225:0.0521 226:0.2373 227:-0.0575 228:-0.0302 229:-0.0262 230:-0.0481 231:-0.2536 232:-0.1096 233:0.0044 234:0.3051 235:-0.1157 236:-0.098 237:-0.1196 238:0.1807 239:-0.1889 240:0.0715 241:0.0025 242:-0.0261 243:0.0445 244:-0.1173 245:-0.1913 246:-0.1533 247:-0.0458 248:0.0718 249:0.0045 250:0.0989 251:0.0759 252:-0.0046 253:0.1551 254:-0.1539 255:-0.0044 256:0.3051 257:0.1228 258:0.1448 259:0.1214 260:-0.1768 261:-0.2003 262:-0.0794 263:0.1702 264:0.1282 265:0.184 266:0.0903 267:0.0545 268:-0.0775 269:-0.0091 270:0.0439 271:0.1697 272:0.044 273:-0.0795 274:0.0334 275:0.0301 276:0.0441 277:-0.0642 278:0.2237 279:0.0104 280:0.1258 281:0.1649 282:-0.0879 283:-0.2748 284:-0.0642 285:0.0144 286:-0.053 287:0.071 288:-0.0261 289:-0.0143 290:-0.331 291:-0.0452 292:0.0894 293:-0.2409 294:0.0116 295:-0.5546 296:-0.1627 297:0.0447 298:0.0949 299:0.0373 300:0.136 301:-0.1371 302:0.1154 303:39.0 305:1.0 
-0.01 1:0.2127 2:0.1944 3:-0.171 4:-0.0585 5:0.2032 6:0.2543 7:0.0662 8:-0.2267 9:0.0338 10:0.1683 11:0.0602 12:-0.0534 13:0.0247 14:0.0493 15:0.0671 16:0.1021 17:-0.2431 18:0.0631 19:-0.1261 20:-0.1469 21:-0.0669 22:-0.0539 23:0.0793 24:0.2035 25:0.1865 26:-0.0943 27:-0.0258 28:0.0983 29:-0.3048 30:-0.2181 31:0.1149 32:0.3484 33:-0.133 34:0.0701 35:-0.1245 36:0.1454 37:-0.0721 38:0.0598 39:0.0491 40:-0.1167 41:0.1786 42:-0.127 43:-0.1848 44:-0.1683 45:0.0221 46:-0.0802 47:0.0613 48:0.1904 49:0.248 50:0.1482 51:0.1831 52:-0.2271 53:-0.0512 54:0.1918 55:0.2221 56:0.1374 57:0.1284 58:-0.1257 59:-0.1529 60:-0.2171 61:0.2793 62:0.1546 63:0.1198 64:-0.028 65:0.0741 66:-0.052 67:-0.0903 68:0.0518 69:0.1204 70:0.0523 71:-0.0501 72:0.1515 73:-0.0251 74:0.0282 75:-0.0671 76:0.2505 77:0.0364 78:0.1601 79:0.1182 80:-0.1245 81:-0.2809 82:-0.0269 83:-0.1865 84:-0.0125 85:0.0579 86:-0.0556 87:-0.0167 88:-0.1737 89:-0.0623 90:-0.046 91:-0.2711 92:0.0654 93:-0.5724 94:-0.1374 95:0.0499 96:0.0579 97:-0.0373 98:0.158 99:-0.0991 100:0.1102 101:15.0 102:0.2115 103:0.3035 104:-0.1104 105:0.0037 106:-0.0345 107:0.1151 108:0.2162 109:-0.1084 110:0.0229 111:0.0909 112:0.0412 113:0.0589 114:0.0266 115:0.0845 116:0.0379 117:0.19 118:-0.165 119:0.1723 120:-0.2746 121:-0.1708 122:-0.1544 123:0.1866 124:0.1498 125:0.0674 126:0.3432 127:-0.2028 128:-0.094 129:-0.099 130:-0.4157 131:0.0808 132:0.0087 133:0.1131 134:0.1033 135:0.1372 136:-0.2583 137:0.1594 138:-0.1112 139:0.1062 140:-0.0149 141:-0.0713 142:0.1823 143:0.0206 144:-0.1241 145:-0.2435 146:0.1979 147:0.2124 148:-0.11 149:0.2387 150:0.4441 151:0.2478 152:0.0531 153:-0.3661 154:-0.032 155:0.2766 156:0.2177 157:0.1832 158:0.1136 159:-0.0712 160:-0.2294 161:-0.2457 162:0.1935 163:-0.0013 164:0.072 165:0.0466 166:-0.1796 167:-0.0478 168:-0.1831 169:0.0527 170:-0.2104 171:-0.01 172:0.243 173:0.3708 174:0.0691 175:0.0854 176:0.0116 177:0.4568 178:0.0642 179:0.1061 180:0.0896 181:-0.0555 182:-0.2029 183:-0.1735 184:-0.4361 185:-0.0427 186:0.1882 187:0.0594 188:0.0184 189:0.0468 190:-0.0566 191:-0.0592 192:-0.2207 193:0.06 194:-0.4451 195:-0.0874 196:0.3499 197:0.1064 198:-0.0367 199:0.0952 200:-0.0568 201:0.0877 202:3.0 203:0.1343 204:0.2528 205:-0.1468 206:-0.0968 207:0.1473 208:0.1452 209:0.0906 210:-0.2261 211:0.0621 212:0.2376 213:0.0098 214:0.0345 215:0.0496 216:0.1403 217:0.0416 218:0.1824 219:-0.2165 220:0.2122 221:-0.111 222:-0.0691 223:-0.119 224:-0.0223 225:0.0661 226:0.1172 227:0.1374 228:-0.1302 229:-0.1016 230:0.0192 231:-0.1478 232:-0.0044 233:-0.0137 234:0.2903 235:-0.1354 236:0.0899 237:0.0042 238:0.1499 239:-0.1772 240:0.0468 241:-0.1031 242:-0.014 243:0.1761 244:-0.2228 245:-0.062 246:-0.2399 247:-0.023 248:-0.0342 249:-0.056 250:0.1754 251:0.2193 252:0.1237 253:0.0737 254:-0.0877 255:0.0485 256:0.2297 257:-0.0514 258:0.2894 259:0.1063 260:-0.1122 261:-0.1434 262:-0.0606 263:0.2393 264:0.0414 265:0.1541 266:-0.0317 267:0.1171 268:-0.123 269:-0.0854 270:0.0601 271:0.2041 272:-0.0076 273:-0.0813 274:0.1058 275:0.0223 276:0.0639 277:-0.0166 278:0.2751 279:-0.0462 280:-0.0427 281:0.0714 282:0.0244 283:-0.2061 284:0.1533 285:-0.099 286:-0.1268 287:0.0835 288:-0.0405 289:-0.0023 290:-0.3457 291:-0.0644 292:0.1195 293:-0.3476 294:-0.0304 295:-0.4225 296:-0.0398 297:7.0E-4 298:0.1331 299:0.2542 300:0.2085 301:-0.1388 302:0.0304 303:11.0 321:1.0 
-0.01 1:0.0962 2:0.1283 3:-0.0786 4:0.1922 5:0.4545 6:0.0898 7:0.1256 8:-0.1615 9:0.0881 10:0.0652 11:0.1177 12:-0.049 13:0.0097 14:0.33 15:0.3555 16:0.0631 17:-0.1339 18:0.1044 19:-0.3757 20:-0.3244 21:0.167 22:0.2966 23:0.1604 24:0.1938 25:-0.0557 26:0.0822 27:0.0038 28:-0.0731 29:-0.3487 30:-0.1259 31:0.1788 32:0.2404 33:-0.2516 34:-0.001 35:-0.0704 36:0.1869 37:-0.1208 38:-0.1242 39:-0.1139 40:0.0246 41:0.108 42:-0.0548 43:-0.1772 44:-0.2558 45:0.1443 46:0.3109 47:0.2128 48:0.0911 49:0.0573 50:-0.012 51:0.2289 52:-0.2048 53:0.0584 54:0.2035 55:0.1735 56:-0.0269 57:0.2154 58:-0.1216 59:-0.0327 60:-0.144 61:0.0435 62:0.067 63:0.1812 64:0.3056 65:-0.046 66:-0.204 67:0.1016 68:0.2264 69:0.1748 70:-0.044 71:0.0945 72:0.0638 73:-0.0433 74:0.0724 75:-0.2513 76:0.3814 77:-0.095 78:0.0767 79:0.2001 80:-0.0638 81:-0.2678 82:-0.0659 83:0.0213 84:-0.2651 85:-0.1933 86:-0.0175 87:-0.0393 88:-0.1225 89:-0.0418 90:0.1487 91:-0.2874 92:-0.0397 93:-0.5627 94:-0.2255 95:0.1528 96:0.1802 97:-0.0694 98:0.1585 99:-0.1769 100:-0.1605 101:4.0 102:0.2247 103:0.3292 104:-0.1995 105:0.1313 106:0.33 107:0.1662 108:0.1766 109:-0.1614 110:-0.2099 111:0.0958 112:0.0999 113:0.0155 114:0.0592 115:0.2541 116:-0.0775 117:0.1928 118:-0.0805 119:0.0019 120:0.0898 121:-0.1804 122:-0.1329 123:-0.1808 124:0.1783 125:0.3693 126:-0.0639 127:-0.1665 128:-0.042 129:0.1083 130:-0.5343 131:-0.3317 132:0.0547 133:0.3306 134:-0.0938 135:0.1123 136:-0.2848 137:0.214 138:-0.0521 139:0.1292 140:-0.1331 141:-0.0457 142:0.0523 143:0.0315 144:-0.3178 145:-0.2876 146:-0.0346 147:-0.0488 148:-0.0313 149:0.0975 150:0.0945 151:0.0672 152:0.2516 153:-0.2414 154:-0.2181 155:0.3737 156:0.3325 157:0.1993 158:0.028 159:-0.2677 160:-0.2682 161:-0.2294 162:0.0671 163:0.2829 164:0.0678 165:0.0011 166:0.0452 167:-0.0504 168:-0.0371 169:0.1435 170:0.2137 171:-0.0945 172:-0.2783 173:0.148 174:-0.1281 175:0.0653 176:-0.3018 177:0.3122 178:0.1867 179:0.226 180:0.3787 181:-0.1267 182:-0.3436 183:0.1312 184:-0.1578 185:-0.0857 186:0.2758 187:0.0391 188:0.105 189:-0.333 190:0.1155 191:0.1239 192:-0.3471 193:0.1352 194:-0.7126 195:-0.166 196:-0.0986 197:0.0081 198:-0.056 199:0.0871 200:-0.0381 201:0.2611 202:6.0 203:0.3116 204:0.1699 205:-0.2708 206:-0.1607 207:0.2492 208:0.2539 209:-0.125 210:-0.1589 211:0.0426 212:0.1947 213:0.0684 214:0.0633 215:-0.034 216:-0.0081 217:0.0544 218:0.4182 219:-0.3572 220:-0.0777 221:-0.0863 222:-0.1612 223:-0.0432 224:-0.0053 225:-0.044 226:0.4366 227:0.2611 228:-0.1963 229:0.1973 230:0.0278 231:-0.2884 232:-0.1668 233:-0.1324 234:0.1547 235:-0.156 236:0.4811 237:0.0798 238:0.1506 239:-0.1655 240:-0.1697 241:0.0542 242:0.2033 243:0.0756 244:-0.0662 245:-0.1639 246:-0.3256 247:0.079 248:0.038 249:0.2406 250:0.1851 251:0.0454 252:-0.0235 253:0.2497 254:-0.2328 255:0.1652 256:0.1699 257:-0.1697 258:0.1085 259:0.0102 260:-0.0259 261:-0.0523 262:-0.239 263:-0.0126 264:0.1867 265:0.1013 266:-0.2298 267:-0.1086 268:-0.1282 269:0.026 270:0.1871 271:0.3889 272:-0.1103 273:-0.0821 274:0.2012 275:-0.228 276:-0.0075 277:0.0793 278:0.0565 279:0.0457 280:-0.075 281:0.1938 282:-0.1391 283:-0.3249 284:-0.1021 285:-0.1681 286:0.0782 287:0.2233 288:0.1039 289:0.1499 290:-0.387 291:-0.1792 292:0.1021 293:-0.4943 294:0.0924 295:-0.3756 296:-0.1607 297:-0.086 298:-0.1442 299:-0.0596 300:0.2731 301:-0.4202 302:-0.0413 303:3.0 305:1.0 
-0.01 1:0.2013 2:0.2725 3:-0.1545 4:0.1953 5:0.4186 6:0.1262 7:0.1487 8:-0.1485 9:-0.1286 10:0.0969 11:0.1315 12:-0.0316 13:0.0213 14:0.3401 15:0.0863 16:0.179 17:-0.1185 18:0.0495 19:-0.1001 20:-0.262 21:-0.0113 22:0.0218 23:0.1879 24:0.3331 25:-0.0648 26:-0.0456 27:-0.0375 28:0.0501 29:-0.4944 30:-0.2697 31:0.1156 32:0.2821 33:-0.1537 34:0.0633 35:-0.2399 36:0.2092 37:-0.0794 38:0.0207 39:-0.1652 40:-0.0226 41:0.0501 42:-9.0E-4 43:-0.3104 44:-0.3027 45:0.0582 46:0.1201 47:0.0467 48:0.0935 49:0.046 50:0.0336 51:0.281 52:-0.2592 53:-0.1328 54:0.297 55:0.3378 56:0.1022 57:0.1063 58:-0.2123 59:-0.2073 60:-0.2191 61:0.0498 62:0.1963 63:0.0776 64:0.1275 65:-0.0182 66:-0.1044 67:0.0471 68:0.2093 69:0.2063 70:-0.0599 71:-0.1657 72:0.1468 73:-0.1 74:0.0785 75:-0.3415 76:0.3735 77:0.0812 78:0.18 79:0.3453 80:-0.1265 81:-0.33 82:0.0518 83:-0.0883 84:-0.1715 85:0.0855 86:0.0264 87:0.0627 88:-0.2595 89:0.067 90:0.1657 91:-0.3507 92:0.0767 93:-0.6812 94:-0.2126 95:-0.0041 96:0.0836 97:-0.0672 98:0.1099 99:-0.0926 100:0.1274 101:9.0 102:0.0027 103:0.1235 104:-0.1524 105:-0.1341 106:0.083 107:0.2173 108:0.2189 109:-0.2522 110:0.115 111:-0.0035 112:-0.0678 113:0.1517 114:0.1759 115:-0.12 116:0.0753 117:-0.0995 118:0.0248 119:-0.0234 120:0.0227 121:-0.0414 122:-0.0848 123:-0.167 124:0.0574 125:0.0962 126:-0.0332 127:-0.2663 128:0.0644 129:-0.0286 130:-0.2569 131:-0.1483 132:7.0E-4 133:0.3994 134:-0.1476 135:0.1151 136:0.0435 137:0.1664 138:-0.0666 139:0.1285 140:0.1488 141:0.0034 142:0.2353 143:-7.0E-4 144:0.0524 145:-0.0862 146:-0.1479 147:-0.1524 148:0.1547 149:0.1062 150:0.3228 151:0.0646 152:-0.0227 153:-0.0074 154:0.0139 155:0.4003 156:-0.1814 157:0.2 158:0.0417 159:-0.2173 160:0.0116 161:-0.0452 162:0.1176 163:0.2416 164:0.34 165:0.03 166:0.2157 167:-0.1331 168:-0.2104 169:-0.0682 170:0.1486 171:-0.1853 172:0.0517 173:-0.0962 174:-0.0704 175:-0.0058 176:0.1282 177:0.0911 178:0.0804 179:0.1004 180:0.0772 181:0.0601 182:-0.2118 183:0.0962 184:-0.107 185:-0.0231 186:0.2005 187:-0.0417 188:-0.0318 189:-0.2158 190:-0.0171 191:-0.0947 192:-0.1427 193:0.0199 194:-0.4828 195:-0.0184 196:-0.006 197:-0.0043 198:-0.018 199:0.1419 200:-0.0729 201:-0.0681 202:1.0 203:0.3116 204:0.1699 205:-0.2708 206:-0.1607 207:0.2492 208:0.2539 209:-0.125 210:-0.1589 211:0.0426 212:0.1947 213:0.0684 214:0.0633 215:-0.034 216:-0.0081 217:0.0544 218:0.4182 219:-0.3572 220:-0.0777 221:-0.0863 222:-0.1612 223:-0.0432 224:-0.0053 225:-0.044 226:0.4366 227:0.2611 228:-0.1963 229:0.1973 230:0.0278 231:-0.2884 232:-0.1668 233:-0.1324 234:0.1547 235:-0.156 236:0.4811 237:0.0798 238:0.1506 239:-0.1655 240:-0.1697 241:0.0542 242:0.2033 243:0.0756 244:-0.0662 245:-0.1639 246:-0.3256 247:0.079 248:0.038 249:0.2406 250:0.1851 251:0.0454 252:-0.0235 253:0.2497 254:-0.2328 255:0.1652 256:0.1699 257:-0.1697 258:0.1085 259:0.0102 260:-0.0259 261:-0.0523 262:-0.239 263:-0.0126 264:0.1867 265:0.1013 266:-0.2298 267:-0.1086 268:-0.1282 269:0.026 270:0.1871 271:0.3889 272:-0.1103 273:-0.0821 274:0.2012 275:-0.228 276:-0.0075 277:0.0793 278:0.0565 279:0.0457 280:-0.075 281:0.1938 282:-0.1391 283:-0.3249 284:-0.1021 285:-0.1681 286:0.0782 287:0.2233 288:0.1039 289:0.1499 290:-0.387 291:-0.1792 292:0.1021 293:-0.4943 294:0.0924 295:-0.3756 296:-0.1607 297:-0.086 298:-0.1442 299:-0.0596 300:0.2731 301:-0.4202 302:-0.0413 303:3.0 306:1.0 
-0.01 1:0.231 2:0.2177 3:-0.2467 4:-0.064 5:-0.0264 6:0.0966 7:0.0123 8:0.0017 9:-0.2052 10:0.1876 11:0.0121 12:-0.0372 13:-0.0377 14:0.1458 15:-0.05 16:0.1072 17:-0.1493 18:-0.0159 19:-0.0893 20:-0.3237 21:-0.0384 22:-0.0272 23:0.0296 24:0.2228 25:-0.1242 26:0.0818 27:0.0441 28:-0.1301 29:-0.2224 30:-0.2196 31:-0.1165 32:0.2975 33:-0.0489 34:-0.074 35:-0.1284 36:0.0769 37:-0.165 38:0.2339 39:0.0035 40:-0.102 41:0.1073 42:-0.0794 43:-0.0029 44:-0.0656 45:-0.0941 46:0.0141 47:-0.0064 48:0.2469 49:0.1189 50:0.1441 51:0.1371 52:-0.0547 53:-0.0079 54:0.1222 55:0.0987 56:0.0594 57:0.241 58:-0.2035 59:-0.0673 60:0.0641 61:0.1904 62:0.07 63:0.091 64:0.1436 65:0.0376 66:-0.0012 67:-0.1631 68:-0.137 69:0.2903 70:-0.011 71:-0.0782 72:0.0545 73:0.0788 74:0.0339 75:0.0935 76:0.1225 77:0.0189 78:0.1515 79:0.0343 80:-0.2074 81:-0.1131 82:-0.226 83:0.1737 84:-0.0749 85:-0.1044 86:0.0375 87:0.076 88:-0.3777 89:-0.0674 90:-0.081 91:-0.2597 92:0.0576 93:-0.3357 94:-0.1537 95:0.0125 96:0.1583 97:0.1104 98:0.2426 99:-0.2252 100:0.1504 101:4.0 102:0.1801 103:0.2214 104:-0.2286 105:0.0232 106:0.1329 107:0.2309 108:0.0823 109:-0.1884 110:0.0411 111:0.1811 112:0.0913 113:-0.002 114:0.0305 115:0.0494 116:0.1006 117:0.2097 118:-0.1877 119:0.054 120:-0.1115 121:-0.166 122:-0.0644 123:0.0702 124:0.0961 125:0.1563 126:0.0317 127:-0.0011 128:-0.09 129:-0.1174 130:-0.2411 131:-0.1482 132:0.0046 133:0.2136 134:-0.196 135:0.059 136:-0.1072 137:0.2242 138:-0.131 139:0.0841 140:-0.0085 141:0.0361 142:0.0718 143:-0.0517 144:-0.2167 145:-0.1875 146:-0.0054 147:0.1599 148:0.0423 149:0.1519 150:0.1034 151:0.0671 152:0.1274 153:-0.1584 154:0.0112 155:0.254 156:0.0907 157:0.0795 158:0.1449 159:-0.1603 160:-0.2196 161:-0.0244 162:0.0748 163:0.119 164:0.1277 165:0.0835 166:0.0474 167:-0.0996 168:-0.1288 169:0.0931 170:0.2116 171:-0.0529 172:0.0432 173:0.0877 174:-0.0294 175:-0.0504 176:-0.0584 177:0.2117 178:0.0593 179:0.1014 180:0.0523 181:-0.025 182:-0.2325 183:-0.0129 184:-0.0076 185:-0.1354 186:-0.0058 187:0.0282 188:-0.0591 189:-0.2031 190:-0.0684 191:0.0977 192:-0.316 193:-0.0362 194:-0.4607 195:-0.0925 196:0.0899 197:0.0312 198:-0.0402 199:0.1331 200:-0.0782 201:0.0642 202:43.0 203:0.0784 204:0.3357 205:-0.2901 206:0.0742 207:0.1272 208:0.2734 209:0.033 210:-0.1228 211:0.0785 212:0.1852 213:-0.0168 214:0.0809 215:0.0885 216:0.0185 217:-0.0045 218:0.149 219:-8.0E-4 220:-0.0451 221:-0.0733 222:-0.2456 223:-0.0386 224:0.0406 225:0.1983 226:0.1908 227:0.119 228:0.0049 229:-0.1235 230:0.0618 231:-0.2433 232:-0.1126 233:-0.0192 234:0.2836 235:-0.1035 236:0.054 237:-0.0867 238:0.2889 239:-0.1518 240:0.1361 241:-0.0057 242:-0.035 243:0.0952 244:-0.1726 245:-0.0957 246:-0.2303 247:0.0022 248:0.0237 249:0.0455 250:0.2239 251:0.2036 252:0.0882 253:0.1374 254:-0.1582 255:0.0702 256:0.3126 257:0.1316 258:0.07 259:0.0515 260:-0.1715 261:-0.285 262:0.0538 263:0.1923 264:0.125 265:0.0674 266:-0.0302 267:0.0503 268:-0.1149 269:-0.1042 270:0.1737 271:0.1427 272:-0.1892 273:0.0562 274:0.2185 275:-0.0922 276:-0.0139 277:0.0553 278:0.1569 279:0.106 280:0.1859 281:0.031 282:-0.1811 283:-0.2524 284:-0.0972 285:-0.124 286:-0.0289 287:0.0669 288:0.0249 289:-0.067 290:-0.2803 291:-0.0389 292:-0.1024 293:-0.1299 294:-0.01 295:-0.5481 296:0.0017 297:0.0991 298:0.0149 299:0.0186 300:0.0738 301:-0.1579 302:0.0293 303:13.0 308:1.0 
-0.0045864806343895404 1:0.231 2:0.2177 3:-0.2467 4:-0.064 5:-0.0264 6:0.0966 7:0.0123 8:0.0017 9:-0.2052 10:0.1876 11:0.0121 12:-0.0372 13:-0.0377 14:0.1458 15:-0.05 16:0.1072 17:-0.1493 18:-0.0159 19:-0.0893 20:-0.3237 21:-0.0384 22:-0.0272 23:0.0296 24:0.2228 25:-0.1242 26:0.0818 27:0.0441 28:-0.1301 29:-0.2224 30:-0.2196 31:-0.1165 32:0.2975 33:-0.0489 34:-0.074 35:-0.1284 36:0.0769 37:-0.165 38:0.2339 39:0.0035 40:-0.102 41:0.1073 42:-0.0794 43:-0.0029 44:-0.0656 45:-0.0941 46:0.0141 47:-0.0064 48:0.2469 49:0.1189 50:0.1441 51:0.1371 52:-0.0547 53:-0.0079 54:0.1222 55:0.0987 56:0.0594 57:0.241 58:-0.2035 59:-0.0673 60:0.0641 61:0.1904 62:0.07 63:0.091 64:0.1436 65:0.0376 66:-0.0012 67:-0.1631 68:-0.137 69:0.2903 70:-0.011 71:-0.0782 72:0.0545 73:0.0788 74:0.0339 75:0.0935 76:0.1225 77:0.0189 78:0.1515 79:0.0343 80:-0.2074 81:-0.1131 82:-0.226 83:0.1737 84:-0.0749 85:-0.1044 86:0.0375 87:0.076 88:-0.3777 89:-0.0674 90:-0.081 91:-0.2597 92:0.0576 93:-0.3357 94:-0.1537 95:0.0125 96:0.1583 97:0.1104 98:0.2426 99:-0.2252 100:0.1504 101:4.0 102:0.1616 103:0.2352 104:-0.24 105:0.0333 106:0.1351 107:0.2421 108:0.0742 109:-0.1728 110:0.0405 111:0.1819 112:0.0671 113:0.0142 114:0.0372 115:0.0494 116:0.0743 117:0.1997 118:-0.1536 119:0.0343 120:-0.1093 121:-0.1859 122:-0.0669 123:0.0679 124:0.1084 125:0.1667 126:0.0437 127:0.0058 128:-0.1035 129:-0.09 130:-0.2383 131:-0.1362 132:-0.0046 133:0.2209 134:-0.1734 135:0.0564 136:-0.111 137:0.237 138:-0.1303 139:0.0925 140:-0.0106 141:0.0273 142:0.0778 143:-0.0731 144:-0.2039 145:-0.1963 146:-0.0045 147:0.1369 148:0.04 149:0.1711 150:0.1233 151:0.0677 152:0.1312 153:-0.1617 154:0.0277 155:0.2619 156:0.0986 157:0.0808 158:0.121 159:-0.1601 160:-0.2416 161:-0.0134 162:0.0982 163:0.1165 164:0.1145 165:0.0663 166:0.0463 167:-0.0977 168:-0.1285 169:0.1128 170:0.2023 171:-0.0729 172:0.0405 173:0.1193 174:-0.0377 175:-0.0429 176:-0.0326 177:0.2063 178:0.069 179:0.1204 180:0.0548 181:-0.0688 182:-0.234 183:-0.028 184:-0.0382 185:-0.1123 186:0.0067 187:0.032 188:-0.0644 189:-0.2169 190:-0.0669 191:0.0566 192:-0.2792 193:-0.0256 194:-0.4798 195:-0.0697 196:0.0973 197:0.0311 198:-0.0229 199:0.1234 200:-0.097 201:0.0543 202:54.0 203:0.0177 204:0.5923 205:-0.32 206:0.0821 207:0.0373 208:0.2043 209:-0.0204 210:-0.1831 211:0.2996 212:0.185 213:0.0427 214:0.0991 215:0.2258 216:-0.15 217:0.1282 218:0.0844 219:0.106 220:-0.0589 221:0.0761 222:-0.1448 223:0.1703 224:-0.0603 225:0.4287 226:0.1011 227:0.2762 228:-0.1483 229:0.0567 230:0.3087 231:-0.3314 232:-0.2414 233:0.098 234:0.4713 235:-0.2037 236:0.0951 237:0.1267 238:0.2988 239:-0.2855 240:0.1952 241:0.0677 242:-0.1874 243:0.0634 244:-0.2585 245:0.2237 246:-0.229 247:0.02 248:-0.1054 249:0.1257 250:0.1015 251:0.2193 252:0.1899 253:0.0902 254:-0.0663 255:-0.0486 256:0.4213 257:0.1442 258:-0.0167 259:0.1828 260:-0.2381 261:-0.0505 262:0.1883 263:0.2058 264:0.2248 265:0.0928 266:-0.1916 267:0.0966 268:-0.2485 269:0.0223 270:0.0843 271:0.016 272:-0.3997 273:0.1995 274:0.0838 275:-0.2139 276:-0.0147 277:-0.0144 278:9.0E-4 279:0.1012 280:0.1386 281:-0.1544 282:0.1439 283:-0.3205 284:-0.1545 285:0.0607 286:-0.0693 287:0.1311 288:-0.0937 289:0.0342 290:-0.3316 291:0.0827 292:-0.0954 293:-0.1021 294:-0.1526 295:-0.5122 296:-0.0975 297:-0.0513 298:-0.0719 299:-0.1249 300:0.009 301:-0.089 302:0.1054 303:2.0 309:1.0 
