svm_type c_svc
kernel_type linear
nr_class 2
total_sv 27
rho -0.9688406793273515
label 1 -1
nr_sv 18 9
SV
0.003110199423117932 1:0.0 2:0.0 3:0.0 4:0.0 5:0.0 6:0.0 7:0.0 8:0.0 9:0.0 10:0.0 11:0.0 12:0.0 13:0.0 14:0.0 15:0.0 16:0.0 17:0.0 18:0.0 19:0.0 20:0.0 21:0.0 22:0.0 23:0.0 24:0.0 25:0.0 26:0.0 27:0.0 28:0.0 29:0.0 30:0.0 31:0.0 32:0.0 33:0.0 34:0.0 35:0.0 36:0.0 37:0.0 38:0.0 39:0.0 40:0.0 41:0.0 42:0.0 43:0.0 44:0.0 45:0.0 46:0.0 47:0.0 48:0.0 49:0.0 50:0.0 51:0.0 52:0.0 53:0.0 54:0.0 55:0.0 56:0.0 57:0.0 58:0.0 59:0.0 60:0.0 61:0.0 62:0.0 63:0.0 64:0.0 65:0.0 66:0.0 67:0.0 68:0.0 69:0.0 70:0.0 71:0.0 72:0.0 73:0.0 74:0.0 75:0.0 76:0.0 77:0.0 78:0.0 79:0.0 80:0.0 81:0.0 82:0.0 83:0.0 84:0.0 85:0.0 86:0.0 87:0.0 88:0.0 89:0.0 90:0.0 91:0.0 92:0.0 93:0.0 94:0.0 95:0.0 96:0.0 97:0.0 98:0.0 99:0.0 100:0.0 101:0.0 102:0.2456 103:0.168 104:-0.139 105:-0.0369 106:0.5715 107:0.5618 108:0.3412 109:-0.025 110:0.2775 111:0.4591 112:-0.2296 113:0.1375 114:-0.0906 115:-0.1973 116:0.2013 117:-0.1268 118:0.3769 119:-0.4288 120:0.5351 121:-0.6285 122:0.4652 123:0.425 124:-0.0174 125:0.1576 126:-0.0871 127:-0.1274 128:-0.4344 129:-0.4146 130:-0.4894 131:-0.4411 132:-0.0454 133:0.3447 134:-0.0694 135:0.6442 136:0.0348 137:0.2755 138:0.8878 139:-0.495 140:-0.3081 141:-0.3425 142:0.2684 143:-0.3951 144:-0.2702 145:-0.6303 146:0.0185 147:0.7343 148:-0.6125 149:-0.7239 150:-0.1012 151:0.6896 152:0.2915 153:-0.1093 154:-0.5271 155:-0.0504 156:0.1147 157:-0.3897 158:0.1625 159:-0.4625 160:-0.2187 161:0.3144 162:-0.4726 163:-0.0964 164:-0.0527 165:-0.4663 166:0.2318 167:0.415 168:-0.0759 169:0.544 170:-0.1874 171:0.1825 172:0.3473 173:0.3665 174:-0.0751 175:0.1783 176:-0.2909 177:0.3485 178:0.0086 179:0.0294 180:-0.1382 181:0.3812 182:0.186 183:0.0688 184:0.018 185:-0.0289 186:-0.404 187:-0.0632 188:0.2706 189:-0.1924 190:0.1734 191:-0.5214 192:-0.3469 193:-0.0486 194:-0.1327 195:0.216 196:0.0213 197:0.2943 198:-0.3127 199:-0.1239 200:-0.7476 201:0.0033 202:2.0 203:0.0196 204:-0.0212 205:-0.2594 206:0.0416 207:0.1415 208:0.2238 209:0.1582 210:0.0488 211:0.0736 212:-0.0223 213:-0.022 214:-0.1841 215:0.0238 216:-0.0489 217:-0.0998 218:0.1083 219:-0.1183 220:-0.1554 221:-0.0627 222:-0.1668 223:-0.1485 224:0.0524 225:0.1872 226:0.1654 227:0.1648 228:-0.0565 229:-0.0891 230:-0.0197 231:-0.1769 232:-0.1935 233:0.1501 234:0.038 235:0.0157 236:-0.1437 237:-0.2238 238:0.1631 239:0.0021 240:0.0561 241:-0.1029 242:-0.3102 243:0.1869 244:0.16 245:-0.0153 246:-0.0304 247:-0.0214 248:0.0891 249:-0.1955 250:-0.0317 251:0.0479 252:-0.0619 253:0.1554 254:-0.1514 255:-0.0633 256:0.1018 257:0.1724 258:-0.0555 259:0.1194 260:0.0224 261:-0.29 262:-0.0189 263:0.0747 264:-0.1668 265:0.1497 266:-0.1623 267:0.1026 268:-0.0987 269:-0.2138 270:-0.0333 271:-0.0757 272:-0.1158 273:-0.1993 274:0.1026 275:-0.1516 276:0.1303 277:-0.0574 278:0.2176 279:0.3846 280:0.0868 281:-0.2399 282:0.1058 283:-0.0823 284:0.0997 285:-0.066 286:0.0924 287:-0.1679 288:0.0321 289:-0.0493 290:-0.1257 291:0.2015 292:-0.1206 293:-0.1122 294:-0.0931 295:-0.2065 296:-0.1476 297:0.245 298:0.1379 299:-0.1478 300:-0.0546 301:-0.129 302:0.0703 303:41.0 304:1.0 
0.0059199523517779 1:0.1686 2:0.1246 3:-0.4161 4:0.0448 5:0.4659 6:0.7077 7:0.2365 8:0.3152 9:-0.1196 10:0.0528 11:-0.1288 12:-0.3888 13:0.0109 14:-0.3073 15:0.0264 16:0.3237 17:0.1376 18:-0.6921 19:0.0169 20:-0.2713 21:-0.2533 22:0.2924 23:0.3445 24:0.5011 25:-0.1105 26:0.1443 27:-0.3928 28:-0.0928 29:-0.339 30:-0.2459 31:0.2502 32:0.0136 33:-0.0886 34:-0.1623 35:-0.4149 36:0.2947 37:0.1138 38:-0.2379 39:0.0585 40:-0.7833 41:0.395 42:0.0632 43:-0.2593 44:-0.3667 45:0.342 46:0.6605 47:-0.7106 48:-0.5484 49:-0.0342 50:-0.0551 51:0.3792 52:-0.1425 53:-0.214 54:0.0842 55:0.307 56:-0.3545 57:0.2879 58:-0.1661 59:-0.2463 60:-0.3059 61:0.2435 62:-0.1893 63:-0.0117 64:-0.4748 65:0.2268 66:-0.0868 67:0.0175 68:0.2811 69:-0.519 70:-0.2027 71:-0.0113 72:0.227 73:-0.4264 74:0.3099 75:-0.1306 76:0.1927 77:0.7125 78:0.0254 79:-0.56 80:0.0584 81:0.2059 82:0.0542 83:-0.144 84:0.2169 85:-0.3458 86:0.3237 87:0.0791 88:-0.2171 89:0.0814 90:-0.7282 91:-0.4237 92:-0.1734 93:-0.295 94:0.0382 95:0.4719 96:0.2638 97:-0.2185 98:-0.3767 99:-0.6671 100:0.2729 101:5.0 102:-0.0023 103:-0.0263 104:-0.2141 105:0.1898 106:0.2047 107:0.1301 108:0.1021 109:0.0799 110:-0.0327 111:-0.019 112:0.0461 113:0.0039 114:0.0174 115:-0.0302 116:-0.0827 117:0.0172 118:-0.0507 119:-0.2582 120:-0.0602 121:-0.1093 122:-0.1556 123:-0.0488 124:0.0786 125:0.2053 126:0.1561 127:-0.1077 128:-0.0998 129:0.0892 130:-0.143 131:-0.1585 132:0.208 133:-0.0697 134:0.0288 135:-0.1141 136:-0.1752 137:0.1091 138:0.0922 139:0.0509 140:-0.1784 141:-0.2738 142:0.2165 143:0.1327 144:-0.0247 145:-0.1147 146:-0.1774 147:4.0E-4 148:-0.1738 149:-0.0164 150:0.1087 151:-0.0254 152:0.13 153:-0.1688 154:-0.0644 155:0.2727 156:0.1447 157:-0.0142 158:0.0749 159:0.0552 160:-0.2794 161:-0.0226 162:0.0437 163:-0.0381 164:0.2099 165:0.0601 166:0.0906 167:-0.0982 168:-0.3544 169:-0.1352 170:-0.0873 171:0.0281 172:-0.1619 173:0.1544 174:-0.0529 175:0.0535 176:-0.0521 177:0.2872 178:0.3446 179:0.0178 180:-0.0892 181:0.1355 182:-0.0782 183:0.1394 184:-0.0427 185:0.1301 186:-0.1874 187:-0.0782 188:-0.0562 189:-0.1778 190:0.1789 191:-0.0584 192:0.0496 193:0.0266 194:-0.1816 195:-0.1728 196:0.4061 197:0.1325 198:-0.1132 199:0.0954 200:-0.1606 201:0.1156 202:9.0 203:0.0188 204:-0.0284 205:-0.2528 206:-0.0092 207:0.1017 208:0.2141 209:0.1744 210:0.0076 211:0.1358 212:-0.0143 213:-0.0399 214:-0.2111 215:0.0232 216:-0.0325 217:-0.108 218:0.1061 219:-0.1498 220:-0.0746 221:-0.0507 222:-0.1906 223:-0.113 224:0.0726 225:0.1979 226:0.1163 227:0.1882 228:-0.0641 229:-0.0655 230:-0.0609 231:-0.1816 232:-0.208 233:0.1138 234:0.0862 235:0.0196 236:-0.1231 237:-0.2098 238:0.1703 239:-0.0071 240:0.0696 241:-0.1032 242:-0.2724 243:0.1581 244:0.1593 245:0.0047 246:0.0114 247:-0.0087 248:0.0794 249:-0.1622 250:-0.006 251:0.0318 252:-0.0475 253:0.1444 254:-0.1452 255:-0.0633 256:0.0432 257:0.1648 258:-0.0486 259:0.1172 260:0.0148 261:-0.2956 262:0.0249 263:0.0471 264:-0.2033 265:0.1404 266:-0.2111 267:0.0978 268:-0.0817 269:-0.1885 270:-0.0136 271:-0.0285 272:-0.142 273:-0.212 274:0.082 275:-0.1512 276:0.1375 277:-0.0596 278:0.2026 279:0.3489 280:0.1135 281:-0.2505 282:0.1111 283:-0.1049 284:0.0907 285:-0.0621 286:0.0627 287:-0.151 288:0.0329 289:-0.0494 290:-0.1015 291:0.2206 292:-0.0898 293:-0.1392 294:-0.1214 295:-0.2023 296:-0.1464 297:0.161 298:0.1318 299:-0.1572 300:-0.0708 301:-0.0833 302:0.0316 303:29.0 305:1.0 
0.0025750035958378077 1:0.01 2:-0.043 3:-0.1657 4:0.0987 5:0.1095 6:0.0907 7:0.2018 8:-0.1029 9:-0.063 10:0.1749 11:-0.2286 12:0.0113 13:0.2529 14:0.0919 15:-0.2253 16:-0.1004 17:-0.0122 18:-0.0068 19:0.0227 20:0.0311 21:-0.3165 22:-0.1353 23:0.1145 24:0.0902 25:0.1939 26:-0.2457 27:-0.0031 28:0.1091 29:-0.2207 30:-0.175 31:-0.031 32:0.1759 33:0.0467 34:-0.1502 35:-0.1351 36:0.074 37:-0.0229 38:0.007 39:-0.1404 40:-0.196 41:0.1314 42:0.1848 43:0.0285 44:-0.0542 45:0.0914 46:0.0473 47:-0.0383 48:0.1378 49:0.1121 50:-0.0502 51:0.3405 52:-0.1732 53:-0.2163 54:-0.0247 55:0.2486 56:0.0492 57:0.0586 58:-0.0992 59:-0.396 60:-0.0344 61:0.0488 62:-0.1119 63:0.2454 64:-0.0337 65:0.0891 66:-0.0634 67:-0.3889 68:0.2528 69:0.0926 70:0.0122 71:-0.2711 72:0.2043 73:-0.0684 74:0.258 75:-0.1181 76:0.2476 77:0.1632 78:0.1296 79:-0.0995 80:0.0844 81:-0.1522 82:0.0292 83:-0.0103 84:-0.0519 85:-0.2175 86:-0.0234 87:-0.1524 88:-0.0885 89:0.2699 90:-0.1071 91:-0.0022 92:-0.0963 93:-0.1245 94:-0.1399 95:0.3134 96:0.0687 97:-0.1013 98:0.1004 99:-0.0045 100:0.1153 101:8.0 102:-0.1857 103:-0.0797 104:0.1047 105:0.1503 106:0.0248 107:-0.1795 108:-0.0135 109:0.2612 110:-0.2257 111:-0.1243 112:0.2978 113:-0.2517 114:0.0024 115:0.2278 116:-0.1197 117:0.1651 118:0.0694 119:0.0302 120:-0.2162 121:-0.2195 122:0.0616 123:-0.1073 124:0.1643 125:0.1928 126:0.2492 127:-0.1289 128:-0.2627 129:-0.1917 130:-0.4296 131:0.1886 132:-0.0391 133:0.1525 134:-0.0128 135:-0.1449 136:-0.2219 137:0.0831 138:0.1536 139:0.0649 140:-0.0762 141:-0.1782 142:0.1983 143:0.099 144:-0.203 145:-0.1394 146:-0.1188 147:-0.261 148:-0.0785 149:0.2749 150:-0.0171 151:-0.0216 152:0.0944 153:-0.1158 154:-0.2084 155:0.2985 156:0.1995 157:-0.3493 158:0.1791 159:0.1406 160:-0.4267 161:-0.0341 162:0.4568 163:-0.3188 164:0.1077 165:0.0632 166:0.0383 167:-0.0681 168:-0.1445 169:-0.0583 170:-0.1541 171:-0.0114 172:-0.1621 173:0.0095 174:-0.2217 175:0.2232 176:-0.1176 177:0.0074 178:0.0914 179:0.0734 180:-0.0278 181:0.4616 182:-0.0498 183:0.0367 184:0.0505 185:-0.1335 186:-0.1014 187:-0.1115 188:-0.0843 189:-0.0545 190:0.1645 191:-0.159 192:-0.2048 193:0.0581 194:-0.4605 195:-0.211 196:0.0722 197:0.0576 198:-0.2195 199:0.0287 200:-0.1461 201:-0.1948 202:2.0 203:-0.1081 204:-0.0898 205:-0.2925 206:0.1344 207:0.2057 208:0.0183 209:0.0439 210:-0.2767 211:0.1516 212:0.1766 213:0.0371 214:0.1175 215:-0.0258 216:0.0292 217:-0.1396 218:0.1728 219:-0.1804 220:0.0539 221:-0.0747 222:-0.0934 223:-0.066 224:0.0612 225:0.1396 226:0.0586 227:0.0309 228:-0.2874 229:-0.1389 230:-0.1073 231:-0.1962 232:-0.2526 233:0.009 234:0.2772 235:0.0453 236:-0.1898 237:-0.2435 238:0.1648 239:0.0355 240:-0.1851 241:-0.0722 242:-0.3046 243:0.0869 244:0.0529 245:0.0406 246:-0.0942 247:0.0047 248:0.175 249:-0.1955 250:0.0577 251:-0.0302 252:-0.0395 253:0.2196 254:-0.1466 255:-0.1556 256:-0.0371 257:0.0928 258:-0.0105 259:0.1396 260:-0.0895 261:-0.2491 262:0.1267 263:0.0701 264:-0.1463 265:0.1097 266:-0.2335 267:0.1719 268:0.0873 269:-0.2226 270:-0.0254 271:-0.1033 272:-0.0747 273:-0.2268 274:-0.0245 275:-0.2039 276:0.2416 277:-0.1175 278:0.2577 279:0.1564 280:0.173 281:-0.1747 282:0.0826 283:-0.0831 284:0.1868 285:-6.0E-4 286:0.1345 287:-0.0518 288:0.0095 289:-0.0902 290:-0.0992 291:0.1238 292:0.0068 293:0.023 294:0.1077 295:-0.2877 296:-0.3652 297:-0.0109 298:-0.0335 299:-0.0529 300:-5.0E-4 301:-0.2012 302:-0.0425 303:4.0 308:1.0 
0.008505179674128026 1:0.0158 2:0.0543 3:-0.0216 4:0.2094 5:-0.0075 6:0.077 7:0.1805 8:-0.1554 9:0.117 10:0.1315 11:-0.0958 12:-0.0579 13:0.1001 14:0.0686 15:-0.2539 16:0.037 17:-0.1044 18:0.1169 19:-0.0193 20:-0.1501 21:-0.1248 22:-0.0424 23:0.2209 24:0.1198 25:0.229 26:-0.176 27:-0.08 28:-0.0365 29:-0.106 30:-0.2071 31:0.0151 32:0.1827 33:0.1349 34:-0.0995 35:-0.0827 36:0.0955 37:-0.0305 38:0.0048 39:-0.0599 40:-0.2123 41:0.0804 42:0.0804 43:-0.1301 44:0.0696 45:-0.1076 46:-0.0295 47:0.0254 48:0.1206 49:0.059 50:-0.0585 51:0.2702 52:-0.0586 53:-0.1691 54:0.0469 55:0.2247 56:-0.0729 57:0.0846 58:0.0045 59:-0.2702 60:0.1283 61:0.1118 62:-0.2435 63:0.1658 64:-0.1227 65:0.1063 66:-0.0886 67:-0.2315 68:0.038 69:-0.032 70:-0.1003 71:-0.1877 72:0.1018 73:-0.0374 74:0.118 75:-0.1618 76:0.2509 77:0.2726 78:0.1081 79:-0.0399 80:0.0766 81:-0.1735 82:0.1137 83:-0.0414 84:-0.0016 85:-0.1606 86:-0.0082 87:-0.1609 88:-0.0854 89:0.2089 90:0.0682 91:-0.0359 92:-0.053 93:-0.2387 94:-0.3151 95:0.1787 96:0.0894 97:-0.2 98:-0.0763 99:-0.0399 100:0.0665 101:12.0 102:0.0282 103:0.2811 104:-0.1779 105:0.3425 106:0.0894 107:0.3265 108:-0.1778 109:0.1259 110:-0.0222 111:0.143 112:-0.19 113:-0.0532 114:-0.057 115:-0.2957 116:0.0515 117:0.0065 118:-0.2387 119:0.06 120:-0.343 121:0.049 122:0.3945 123:0.1362 124:0.3197 125:0.0225 126:0.1998 127:-0.4294 128:-0.0909 129:0.0457 130:-0.0819 131:-0.0098 132:0.3774 133:0.0304 134:0.3223 135:0.2033 136:-0.011 137:0.1356 138:0.0337 139:0.0946 140:-0.0716 141:-0.1079 142:0.472 143:-2.0E-4 144:0.0285 145:-0.2254 146:-0.3052 147:-0.2897 148:-0.0569 149:0.2245 150:0.0229 151:-0.0923 152:-0.2532 153:-0.1305 154:-0.3514 155:0.294 156:0.1745 157:0.0991 158:0.1255 159:0.2058 160:-0.1901 161:0.0982 162:0.0693 163:-0.4643 164:0.224 165:-0.0293 166:-0.2467 167:0.068 168:-0.3478 169:-0.246 170:0.0968 171:-0.2304 172:-0.1964 173:0.0338 174:0.1096 175:0.239 176:-0.3122 177:0.4319 178:0.0621 179:0.1246 180:0.2047 181:-0.1786 182:-0.2155 183:0.1573 184:-0.2426 185:0.042 186:-0.1351 187:-0.1912 188:0.0842 189:-0.1971 190:0.5165 191:-0.1535 192:-0.0752 193:-0.1203 194:0.0467 195:-0.2723 196:0.0348 197:0.2692 198:-0.1262 199:0.3285 200:-0.0298 201:-0.1791 202:1.0 203:-0.3119 204:-0.1495 205:-0.2316 206:0.3223 207:0.1172 208:-0.1009 209:0.2783 210:-0.3208 211:0.0306 212:0.0251 213:-0.032 214:-0.0918 215:-0.0464 216:-0.0218 217:-0.1962 218:0.2474 219:-0.3986 220:-0.1519 221:-0.0947 222:-0.3957 223:0.1294 224:-0.0343 225:0.3196 226:0.0346 227:0.099 228:-0.356 229:0.1172 230:0.0525 231:-0.137 232:-0.0657 233:-0.0698 234:0.126 235:0.0445 236:-0.0799 237:-0.273 238:0.0748 239:-0.0122 240:0.0196 241:-0.1807 242:-0.3361 243:0.1746 244:0.442 245:0.12 246:0.1225 247:-0.2857 248:-0.0327 249:-0.1023 250:0.2443 251:-0.0488 252:0.1961 253:0.2141 254:-0.1981 255:-0.1293 256:0.3913 257:0.0708 258:0.0213 259:-0.0809 260:0.045 261:-0.0668 262:0.2407 263:0.1461 264:-0.0142 265:0.1488 266:-0.0974 267:0.1133 268:-0.0333 269:-0.071 270:0.0343 271:0.0441 272:-0.2936 273:-0.0563 274:-0.1343 275:-0.0974 276:0.2746 277:0.0326 278:0.2122 279:0.1094 280:0.0664 281:-0.0346 282:0.2104 283:-0.1845 284:0.1972 285:0.0797 286:0.073 287:0.0188 288:0.074 289:-0.1222 290:-0.3404 291:0.3827 292:-0.0705 293:0.0463 294:0.0298 295:0.0214 296:-0.2716 297:0.0831 298:0.042 299:-0.1492 300:-0.0081 301:-0.3399 302:-0.0506 303:1.0 309:1.0 
0.01 1:-0.1396 2:0.0452 3:-0.0678 4:0.1709 5:-0.0285 6:-0.0723 7:0.2267 8:-0.0955 9:-0.0696 10:0.0411 11:-0.0558 12:-0.1699 13:0.1288 14:-0.0411 15:-0.2596 16:-0.1062 17:-0.216 18:0.0625 19:-0.1024 20:0.1053 21:-0.0546 22:0.1019 23:0.267 24:0.0168 25:0.0293 26:-0.4181 27:0.198 28:-0.1227 29:-0.1836 30:0.0065 31:0.2209 32:0.1472 33:0.2825 34:-0.0107 35:0.0857 36:0.1277 37:-0.1234 38:-0.038 39:0.0884 40:-0.1442 41:0.2663 42:-0.0654 43:0.0289 44:-0.0227 45:0.035 46:0.2009 47:0.1839 48:0.0817 49:0.0267 50:-0.0496 51:0.2966 52:-0.1526 53:-0.1723 54:0.0565 55:0.091 56:0.1819 57:0.3453 58:0.2208 59:-0.182 60:0.1237 61:0.0648 62:-0.0465 63:0.3589 64:-0.3627 65:0.0049 66:-0.1045 67:-0.1993 68:0.0088 69:-0.1352 70:-0.1305 71:-0.032 72:0.072 73:-0.129 74:0.146 75:-0.013 76:0.2237 77:0.0702 78:-0.032 79:-0.192 80:-0.0116 81:-0.1398 82:0.1937 83:-0.2171 84:0.0625 85:-0.0713 86:-0.1449 87:0.2108 88:-0.0774 89:0.2323 90:-0.0187 91:-0.136 92:-0.04 93:-0.0972 94:-0.3236 95:0.1132 96:0.1629 97:-0.2121 98:0.1893 99:-0.2673 100:-0.0096 101:2.0 102:0.0139 103:0.0023 104:-0.1405 105:0.1264 106:0.1885 107:0.0758 108:0.2046 109:-0.0733 110:-0.0039 111:0.0188 112:8.0E-4 113:-0.0225 114:0.0855 115:-0.0161 116:-0.145 117:0.0031 118:-0.1043 119:-0.1299 120:-0.0028 121:-0.1678 122:-0.1217 123:-0.0427 124:0.1211 125:0.2122 126:0.0244 127:-0.1935 128:-0.1373 129:0.0948 130:-0.1699 131:-0.0625 132:0.1378 133:0.0243 134:0.1048 135:-0.1813 136:-0.336 137:0.0439 138:0.1141 139:0.0849 140:-0.1142 141:-0.2543 142:0.2449 143:0.1104 144:-0.0627 145:0.0076 146:-0.1578 147:0.0769 148:-0.2145 149:0.0238 150:0.1215 151:0.0922 152:0.2059 153:-0.0544 154:-0.1494 155:0.1776 156:0.1684 157:-0.132 158:-0.0093 159:0.0085 160:-0.3195 161:0.0301 162:-0.0538 163:0.008 164:0.1731 165:-0.0945 166:-0.0548 167:0.0517 168:-0.2556 169:-0.1403 170:-0.056 171:-0.0491 172:-0.3305 173:0.0968 174:-0.0522 175:0.1175 176:-0.0818 177:0.1948 178:0.3054 179:0.1059 180:-0.2669 181:0.0275 182:0.0173 183:0.0884 184:-0.0484 185:0.0864 186:-0.1855 187:0.0371 188:-0.1331 189:-0.2116 190:0.1406 191:-0.1656 192:-0.0898 193:0.0497 194:-0.1023 195:-0.0462 196:0.2515 197:0.0887 198:-0.0696 199:-0.0115 200:-0.1363 201:0.0933 202:8.0 203:-0.0037 204:-0.0202 205:-0.1365 206:0.1354 207:0.1053 208:0.1283 209:0.1574 210:-0.0468 211:0.0358 212:0.097 213:-0.0405 214:-0.0193 215:0.0761 216:0.0031 217:-0.1928 218:-0.007 219:-0.1042 220:-0.0496 221:-0.0776 222:-0.1115 223:-0.0875 224:0.053 225:0.1266 226:0.1 227:0.1042 228:-0.1855 229:-0.047 230:7.0E-4 231:-0.1814 232:-0.0787 233:0.1227 234:0.0958 235:0.0724 236:-0.1312 237:-0.1559 238:0.0873 239:0.0108 240:0.0877 241:-0.1333 242:-0.2202 243:0.1387 244:0.088 245:-0.0135 246:-0.0044 247:-0.073 248:-0.0274 249:-0.1246 250:0.1141 251:0.0986 252:-0.051 253:0.1748 254:-0.0861 255:-0.1973 256:0.1028 257:0.1455 258:0.0282 259:0.1152 260:0.0211 261:-0.2689 262:0.0772 263:0.0597 264:-0.1869 265:0.1798 266:-0.0621 267:0.0871 268:-0.0432 269:-0.2688 270:0.0284 271:-0.095 272:-0.0721 273:-0.2286 274:0.1405 275:-0.0981 276:0.221 277:-0.0552 278:0.2481 279:0.2099 280:0.0905 281:-0.1478 282:0.0859 283:-0.1264 284:0.0893 285:-0.0291 286:0.072 287:-0.1521 288:-0.0528 289:-0.0669 290:-0.1348 291:0.2313 292:-0.0033 293:-0.0155 294:-0.0025 295:-0.1869 296:-0.2518 297:0.2035 298:0.1023 299:-0.1161 300:-0.0571 301:-0.1377 302:0.0379 303:41.0 313:1.0 
0.008221981321295462 1:-0.1396 2:0.0452 3:-0.0678 4:0.1709 5:-0.0285 6:-0.0723 7:0.2267 8:-0.0955 9:-0.0696 10:0.0411 11:-0.0558 12:-0.1699 13:0.1288 14:-0.0411 15:-0.2596 16:-0.1062 17:-0.216 18:0.0625 19:-0.1024 20:0.1053 21:-0.0546 22:0.1019 23:0.267 24:0.0168 25:0.0293 26:-0.4181 27:0.198 28:-0.1227 29:-0.1836 30:0.0065 31:0.2209 32:0.1472 33:0.2825 34:-0.0107 35:0.0857 36:0.1277 37:-0.1234 38:-0.038 39:0.0884 40:-0.1442 41:0.2663 42:-0.0654 43:0.0289 44:-0.0227 45:0.035 46:0.2009 47:0.1839 48:0.0817 49:0.0267 50:-0.0496 51:0.2966 52:-0.1526 53:-0.1723 54:0.0565 55:0.091 56:0.1819 57:0.3453 58:0.2208 59:-0.182 60:0.1237 61:0.0648 62:-0.0465 63:0.3589 64:-0.3627 65:0.0049 66:-0.1045 67:-0.1993 68:0.0088 69:-0.1352 70:-0.1305 71:-0.032 72:0.072 73:-0.129 74:0.146 75:-0.013 76:0.2237 77:0.0702 78:-0.032 79:-0.192 80:-0.0116 81:-0.1398 82:0.1937 83:-0.2171 84:0.0625 85:-0.0713 86:-0.1449 87:0.2108 88:-0.0774 89:0.2323 90:-0.0187 91:-0.136 92:-0.04 93:-0.0972 94:-0.3236 95:0.1132 96:0.1629 97:-0.2121 98:0.1893 99:-0.2673 100:-0.0096 101:2.0 102:0.0042 103:0.0107 104:-0.0873 105:0.1598 106:0.1952 107:0.1346 108:0.1386 109:-0.043 110:-0.0289 111:0.0671 112:4.0E-4 113:-0.0187 114:0.0697 115:-0.0226 116:-0.1674 117:0.0487 118:-0.0602 119:-0.0974 120:-0.0224 121:-0.0905 122:-0.0775 123:0.0408 124:0.1442 125:0.1738 126:0.0717 127:-0.1521 128:-0.1329 129:0.052 130:-0.1802 131:-0.1016 132:0.1608 133:0.0628 134:0.1172 135:-0.1619 136:-0.1842 137:0.0928 138:0.0374 139:0.0415 140:-0.1007 141:-0.3089 142:0.2007 143:0.015 144:-0.0375 145:-0.0788 146:-0.1329 147:0.0607 148:-0.1467 149:0.0651 150:0.1132 151:-0.0598 152:0.1453 153:-0.08 154:-0.2014 155:0.1867 156:0.2083 157:-0.0184 158:0.0733 159:0.015 160:-0.3088 161:0.0389 162:0.0636 163:-0.1309 164:0.2335 165:-0.0992 166:0.0068 167:0.0224 168:-0.2708 169:-0.0649 170:-0.1154 171:-0.0616 172:-0.2322 173:0.1789 174:-0.0131 175:0.2201 176:-0.0647 177:0.2707 178:0.2721 179:0.065 180:-0.1912 181:0.0329 182:-0.0141 183:0.0934 184:-0.0722 185:0.0834 186:-0.1584 187:-0.0059 188:-0.0706 189:-0.1529 190:0.2062 191:-0.1058 192:-0.0052 193:0.0199 194:-0.1761 195:-0.2073 196:0.288 197:0.1195 198:-0.0961 199:-0.0542 200:-0.1975 201:0.0955 202:25.0 203:-0.0121 204:-0.0236 205:-0.2084 206:0.1068 207:0.064 208:0.1345 209:0.2068 210:-0.0481 211:0.071 212:0.0768 213:-0.0706 214:-0.0494 215:0.0816 216:0.0031 217:-0.206 218:-0.0265 219:-0.1394 220:-0.0658 221:-0.1222 222:-0.1689 223:-0.1546 224:0.0279 225:0.1317 226:0.1144 227:0.0943 228:-0.1946 229:-0.0075 230:-0.0036 231:-0.1906 232:-0.0751 233:0.1106 234:0.0859 235:0.0369 236:-0.1422 237:-0.2193 238:0.0851 239:0.0049 240:0.1229 241:-0.1392 242:-0.1731 243:0.1303 244:0.1693 245:-0.0144 246:0.0597 247:-0.0197 248:-0.0394 249:-0.1649 250:0.1156 251:0.0922 252:0.0014 253:0.2349 254:-0.0911 255:-0.1643 256:0.0508 257:0.1058 258:-0.0058 259:0.1245 260:0.0264 261:-0.2441 262:0.0644 263:0.0539 264:-0.17 265:0.1187 266:-0.0612 267:0.1344 268:-0.0809 269:-0.2503 270:0.0751 271:-0.0978 272:-0.095 273:-0.2781 274:0.0937 275:-0.1832 276:0.2008 277:-0.0522 278:0.186 279:0.2486 280:0.125 281:-0.1836 282:0.1239 283:-0.1745 284:0.0874 285:-0.0052 286:0.077 287:-0.1714 288:-0.0395 289:-0.0741 290:-0.1472 291:0.2045 292:0.0138 293:-0.0683 294:0.0017 295:-0.1858 296:-0.2195 297:0.1668 298:0.0892 299:-0.1251 300:-0.0748 301:-0.1071 302:0.024 303:24.0 315:1.0 
0.002753700882893482 1:-0.1396 2:0.0452 3:-0.0678 4:0.1709 5:-0.0285 6:-0.0723 7:0.2267 8:-0.0955 9:-0.0696 10:0.0411 11:-0.0558 12:-0.1699 13:0.1288 14:-0.0411 15:-0.2596 16:-0.1062 17:-0.216 18:0.0625 19:-0.1024 20:0.1053 21:-0.0546 22:0.1019 23:0.267 24:0.0168 25:0.0293 26:-0.4181 27:0.198 28:-0.1227 29:-0.1836 30:0.0065 31:0.2209 32:0.1472 33:0.2825 34:-0.0107 35:0.0857 36:0.1277 37:-0.1234 38:-0.038 39:0.0884 40:-0.1442 41:0.2663 42:-0.0654 43:0.0289 44:-0.0227 45:0.035 46:0.2009 47:0.1839 48:0.0817 49:0.0267 50:-0.0496 51:0.2966 52:-0.1526 53:-0.1723 54:0.0565 55:0.091 56:0.1819 57:0.3453 58:0.2208 59:-0.182 60:0.1237 61:0.0648 62:-0.0465 63:0.3589 64:-0.3627 65:0.0049 66:-0.1045 67:-0.1993 68:0.0088 69:-0.1352 70:-0.1305 71:-0.032 72:0.072 73:-0.129 74:0.146 75:-0.013 76:0.2237 77:0.0702 78:-0.032 79:-0.192 80:-0.0116 81:-0.1398 82:0.1937 83:-0.2171 84:0.0625 85:-0.0713 86:-0.1449 87:0.2108 88:-0.0774 89:0.2323 90:-0.0187 91:-0.136 92:-0.04 93:-0.0972 94:-0.3236 95:0.1132 96:0.1629 97:-0.2121 98:0.1893 99:-0.2673 100:-0.0096 101:2.0 102:0.008 103:0.0256 104:-0.12 105:0.1684 106:0.1723 107:0.1445 108:0.164 109:-0.0414 110:-0.0099 111:0.0729 112:-0.0241 113:-0.0158 114:0.0902 115:0.0101 116:-0.1804 117:0.0097 118:-0.0806 119:-0.0608 120:-0.0542 121:-0.1184 122:-0.1083 123:0.0178 124:0.1505 125:0.1682 126:0.0833 127:-0.1608 128:-0.0853 129:0.031 130:-0.1764 131:-0.1132 132:0.1378 133:0.0562 134:0.0955 135:-0.1575 136:-0.1935 137:0.0815 138:0.0076 139:0.039 140:-0.1271 141:-0.2471 142:0.179 143:0.0599 144:-0.0449 145:-0.0316 146:-0.0985 147:0.0232 148:-0.1681 149:0.0852 150:0.1381 151:-0.03 152:0.1607 153:-0.0537 154:-0.214 155:0.1338 156:0.1775 157:-0.0161 158:0.0868 159:0.0052 160:-0.29 161:0.0542 162:0.0673 163:-0.1255 164:0.2068 165:-0.0686 166:0.0555 167:-0.0026 168:-0.2703 169:-0.0164 170:-0.0985 171:-0.0657 172:-0.253 173:0.177 174:-0.067 175:0.2036 176:-0.0828 177:0.2588 178:0.2754 179:0.0805 180:-0.1921 181:0.086 182:-0.0528 183:0.0933 184:-0.0512 185:0.0815 186:-0.1611 187:-0.0307 188:-0.0841 189:-0.1578 190:0.2212 191:-0.05 192:-0.0093 193:0.0258 194:-0.1761 195:-0.2045 196:0.2573 197:0.1003 198:-0.0891 199:-0.0471 200:-0.1522 201:0.0827 202:39.0 203:-0.0484 204:-0.1273 205:-0.2427 206:0.0027 207:-0.022 208:0.0957 209:0.1987 210:-0.0612 211:0.13 212:0.0671 213:-0.07 214:-0.1018 215:0.0175 216:-0.0898 217:-0.2068 218:0.0249 219:-0.1657 220:-0.1661 221:-0.1316 222:-0.165 223:-0.1376 224:0.1001 225:0.0905 226:0.0571 227:0.0793 228:-0.2175 229:-0.0255 230:0.0039 231:-0.2193 232:0.0052 233:0.133 234:0.1422 235:0.0143 236:-0.1331 237:-0.2299 238:0.1186 239:0.0776 240:0.2409 241:-0.0878 242:-0.2323 243:0.1207 244:0.2004 245:0.045 246:0.0611 247:-0.0026 248:-0.027 249:-0.1057 250:0.1048 251:-0.0327 252:-0.0332 253:0.2943 254:-0.2079 255:-0.066 256:0.0753 257:0.0888 258:0.0022 259:0.14 260:0.0798 261:-0.2313 262:0.0388 263:0.0268 264:-0.2432 265:0.0693 266:-0.1295 267:0.1151 268:-0.1215 269:-0.2247 270:0.073 271:-0.1401 272:-0.1235 273:-0.2583 274:-0.0125 275:-0.2002 276:0.2392 277:0.0352 278:0.1193 279:0.2046 280:0.1446 281:-0.17 282:0.0385 283:-0.238 284:0.0801 285:0.0025 286:0.0757 287:-0.1783 288:0.0123 289:-0.0264 290:-0.1206 291:0.144 292:-0.0436 293:-0.1367 294:-0.0454 295:-0.1986 296:-0.2467 297:0.1245 298:0.1236 299:-0.1911 300:-0.1298 301:-0.1624 302:-0.0218 303:10.0 316:1.0 
3.876033951066633E-4 1:0.0 2:0.0 3:0.0 4:0.0 5:0.0 6:0.0 7:0.0 8:0.0 9:0.0 10:0.0 11:0.0 12:0.0 13:0.0 14:0.0 15:0.0 16:0.0 17:0.0 18:0.0 19:0.0 20:0.0 21:0.0 22:0.0 23:0.0 24:0.0 25:0.0 26:0.0 27:0.0 28:0.0 29:0.0 30:0.0 31:0.0 32:0.0 33:0.0 34:0.0 35:0.0 36:0.0 37:0.0 38:0.0 39:0.0 40:0.0 41:0.0 42:0.0 43:0.0 44:0.0 45:0.0 46:0.0 47:0.0 48:0.0 49:0.0 50:0.0 51:0.0 52:0.0 53:0.0 54:0.0 55:0.0 56:0.0 57:0.0 58:0.0 59:0.0 60:0.0 61:0.0 62:0.0 63:0.0 64:0.0 65:0.0 66:0.0 67:0.0 68:0.0 69:0.0 70:0.0 71:0.0 72:0.0 73:0.0 74:0.0 75:0.0 76:0.0 77:0.0 78:0.0 79:0.0 80:0.0 81:0.0 82:0.0 83:0.0 84:0.0 85:0.0 86:0.0 87:0.0 88:0.0 89:0.0 90:0.0 91:0.0 92:0.0 93:0.0 94:0.0 95:0.0 96:0.0 97:0.0 98:0.0 99:0.0 100:0.0 101:0.0 102:-0.0551 103:0.0372 104:-0.1149 105:0.1078 106:0.1129 107:0.1143 108:0.1557 109:0.0089 110:0.0057 111:0.0505 112:0.0207 113:-0.0197 114:0.0997 115:0.0857 116:-0.115 117:0.0764 118:-0.0286 119:-0.0234 120:0.0643 121:-0.1416 122:-0.125 123:0.0251 124:0.2505 125:0.1142 126:0.1763 127:-0.1385 128:-0.0209 129:0.0068 130:-0.1955 131:-0.0865 132:0.0799 133:0.1329 134:0.0846 135:-0.1047 136:-0.2127 137:0.0642 138:-0.0509 139:0.0425 140:-0.1469 141:-0.2292 142:0.1139 143:0.0373 144:-0.0992 145:8.0E-4 146:-0.0365 147:-0.0116 148:-0.1111 149:0.1195 150:0.0751 151:-0.0587 152:0.2401 153:-0.0719 154:-0.1374 155:0.0391 156:0.147 157:-0.0099 158:0.1023 159:-0.0372 160:-0.3365 161:0.021 162:0.08 163:-0.1216 164:0.178 165:-0.1049 166:0.0621 167:-0.0715 168:-0.2743 169:0.002 170:-0.0609 171:-0.0472 172:-0.1642 173:0.1377 174:-0.0639 175:0.1667 176:-0.0743 177:0.2991 178:0.2957 179:0.0062 180:-0.2256 181:0.0901 182:-0.1179 183:0.0534 184:-0.0602 185:0.0908 186:-0.1849 187:-0.0648 188:-0.0634 189:-0.1022 190:0.3028 191:-0.1081 192:0.0265 193:0.0424 194:-0.2187 195:-0.1234 196:0.1652 197:0.1315 198:-0.1343 199:0.1119 200:-0.1887 201:0.0783 202:21.0 203:-0.1333 204:-0.1103 205:-0.3183 206:0.135 207:0.277 208:0.2047 209:0.0917 210:-0.0574 211:0.1297 212:-0.144 213:-0.0357 214:-0.2382 215:-0.059 216:-0.213 217:-0.1958 218:0.2061 219:-0.0337 220:-0.2798 221:-0.0722 222:-0.134 223:-0.045 224:-0.0263 225:0.1538 226:0.1286 227:0.0848 228:-0.1746 229:-0.1139 230:-0.0985 231:-0.1735 232:-0.2343 233:-0.1548 234:0.0911 235:0.147 236:-0.1271 237:-0.3198 238:0.1978 239:-0.0017 240:0.1258 241:-0.1449 242:-0.2969 243:0.3377 244:0.2651 245:0.0088 246:-0.0856 247:-0.0676 248:0.1768 249:-0.2008 250:0.0216 251:-0.051 252:0.188 253:0.0885 254:-0.247 255:-0.1314 256:0.25 257:0.1119 258:0.0011 259:0.1457 260:0.0253 261:-0.2105 262:-0.0291 263:0.2699 264:-0.2469 265:0.1431 266:-0.2023 267:0.1294 268:-0.0715 269:-0.0372 270:-0.074 271:0.039 272:-0.2445 273:-0.1365 274:-0.0028 275:-0.1257 276:0.0513 277:-0.0239 278:0.1137 279:0.1755 280:-0.0482 281:-0.2521 282:0.1243 283:-0.0423 284:0.1265 285:0.0101 286:0.0801 287:-0.1803 288:-0.0401 289:-0.0193 290:-0.2405 291:0.329 292:-0.027 293:-0.1218 294:0.0421 295:-0.2341 296:-0.0254 297:0.0615 298:-0.0219 299:-0.2061 300:-0.0703 301:-0.1198 302:0.028 303:4.0 319:1.0 
0.01 1:-0.0554 2:-0.0593 3:-0.005 4:0.1855 5:0.0889 6:0.0464 7:0.1989 8:-0.0935 9:0.0077 10:0.0871 11:0.0087 12:0.034 13:0.1044 14:-0.0491 15:-0.1704 16:-0.0382 17:-0.1712 18:-0.1568 19:-0.0585 20:-0.2222 21:-0.1084 22:-0.0636 23:0.1428 24:0.0877 25:0.2084 26:-0.1534 27:-0.0314 28:-0.1218 29:-0.1938 30:-0.2093 31:0.043 32:0.061 33:0.1476 34:-0.0196 35:-0.163 36:0.096 37:0.084 38:0.0014 39:-0.0611 40:-0.2421 41:0.1742 42:0.0919 43:0.0589 44:-0.2024 45:-0.126 46:-0.0467 47:0.0126 48:0.0744 49:0.0277 50:0.1018 51:0.1483 52:-0.1982 53:-0.0644 54:0.1492 55:0.1645 56:0.024 57:0.0535 58:-0.0707 59:-0.3265 60:0.0753 61:0.1066 62:-0.0674 63:0.2097 64:-0.2112 65:0.0495 66:-0.0022 67:-0.1819 68:-0.0998 69:-0.061 70:-0.1154 71:-0.0965 72:0.1094 73:-0.1315 74:0.1328 75:0.05 76:0.1457 77:0.1451 78:0.1607 79:-0.1831 80:0.1206 81:-0.116 82:0.0726 83:-0.0965 84:0.0511 85:-0.056 86:0.0141 87:0.0133 88:-0.191 89:0.3453 90:-0.1173 91:-0.1001 92:-0.1265 93:-0.008 94:-0.2154 95:0.2154 96:0.151 97:-0.0733 98:0.0552 99:-0.141 100:-0.136 101:24.0 102:0.0 103:0.0 104:0.0 105:0.0 106:0.0 107:0.0 108:0.0 109:0.0 110:0.0 111:0.0 112:0.0 113:0.0 114:0.0 115:0.0 116:0.0 117:0.0 118:0.0 119:0.0 120:0.0 121:0.0 122:0.0 123:0.0 124:0.0 125:0.0 126:0.0 127:0.0 128:0.0 129:0.0 130:0.0 131:0.0 132:0.0 133:0.0 134:0.0 135:0.0 136:0.0 137:0.0 138:0.0 139:0.0 140:0.0 141:0.0 142:0.0 143:0.0 144:0.0 145:0.0 146:0.0 147:0.0 148:0.0 149:0.0 150:0.0 151:0.0 152:0.0 153:0.0 154:0.0 155:0.0 156:0.0 157:0.0 158:0.0 159:0.0 160:0.0 161:0.0 162:0.0 163:0.0 164:0.0 165:0.0 166:0.0 167:0.0 168:0.0 169:0.0 170:0.0 171:0.0 172:0.0 173:0.0 174:0.0 175:0.0 176:0.0 177:0.0 178:0.0 179:0.0 180:0.0 181:0.0 182:0.0 183:0.0 184:0.0 185:0.0 186:0.0 187:0.0 188:0.0 189:0.0 190:0.0 191:0.0 192:0.0 193:0.0 194:0.0 195:0.0 196:0.0 197:0.0 198:0.0 199:0.0 200:0.0 201:0.0 202:0.0 203:-0.3119 204:-0.1495 205:-0.2316 206:0.3223 207:0.1172 208:-0.1009 209:0.2783 210:-0.3208 211:0.0306 212:0.0251 213:-0.032 214:-0.0918 215:-0.0464 216:-0.0218 217:-0.1962 218:0.2474 219:-0.3986 220:-0.1519 221:-0.0947 222:-0.3957 223:0.1294 224:-0.0343 225:0.3196 226:0.0346 227:0.099 228:-0.356 229:0.1172 230:0.0525 231:-0.137 232:-0.0657 233:-0.0698 234:0.126 235:0.0445 236:-0.0799 237:-0.273 238:0.0748 239:-0.0122 240:0.0196 241:-0.1807 242:-0.3361 243:0.1746 244:0.442 245:0.12 246:0.1225 247:-0.2857 248:-0.0327 249:-0.1023 250:0.2443 251:-0.0488 252:0.1961 253:0.2141 254:-0.1981 255:-0.1293 256:0.3913 257:0.0708 258:0.0213 259:-0.0809 260:0.045 261:-0.0668 262:0.2407 263:0.1461 264:-0.0142 265:0.1488 266:-0.0974 267:0.1133 268:-0.0333 269:-0.071 270:0.0343 271:0.0441 272:-0.2936 273:-0.0563 274:-0.1343 275:-0.0974 276:0.2746 277:0.0326 278:0.2122 279:0.1094 280:0.0664 281:-0.0346 282:0.2104 283:-0.1845 284:0.1972 285:0.0797 286:0.073 287:0.0188 288:0.074 289:-0.1222 290:-0.3404 291:0.3827 292:-0.0705 293:0.0463 294:0.0298 295:0.0214 296:-0.2716 297:0.0831 298:0.042 299:-0.1492 300:-0.0081 301:-0.3399 302:-0.0506 303:1.0 304:1.0 
0.007090013042927955 1:-0.0084 2:0.0703 3:-0.1353 4:0.1003 5:0.0339 6:0.0827 7:0.1736 8:-0.1426 9:0.0958 10:0.0868 11:-0.0771 12:0.0259 13:0.1018 14:-0.03 15:-0.2502 16:0.0603 17:-0.1569 18:-0.0056 19:-0.042 20:-0.1349 21:-0.0268 22:-0.0128 23:0.2057 24:0.0937 25:0.1458 26:-0.2323 27:-0.0721 28:-0.0388 29:-0.2368 30:-0.1251 31:0.0574 32:0.124 33:-0.0056 34:-0.1095 35:-0.214 36:0.0913 37:-0.018 38:0.0812 39:-0.0264 40:-0.1835 41:0.1418 42:0.1125 43:0.0158 44:-0.0566 45:-0.0737 46:0.0481 47:-0.0032 48:0.061 49:0.1197 50:-0.1048 51:0.1266 52:-0.1396 53:-0.0834 54:-0.0724 55:0.1697 56:-0.0612 57:0.1431 58:0.0583 59:-0.363 60:0.1211 61:0.1069 62:-0.2364 63:0.1171 64:-0.1613 65:0.107 66:0.0338 67:-0.339 68:0.0127 69:-0.0784 70:-0.0895 71:-0.2421 72:0.0927 73:-0.1665 74:0.2428 75:-0.1504 76:0.2032 77:0.2429 78:0.1157 79:-0.0876 80:0.0773 81:-0.1289 82:0.144 83:-0.034 84:-0.0096 85:-0.2431 86:-0.0717 87:-0.1192 88:-0.1009 89:0.2019 90:0.0397 91:-0.0231 92:-0.0562 93:-0.1853 94:-0.2257 95:0.1707 96:-0.027 97:-0.1582 98:0.0555 99:-0.0234 100:0.0381 101:23.0 102:0.0222 103:0.0323 104:-0.1021 105:0.1234 106:0.0659 107:0.1767 108:0.1649 109:-0.0946 110:0.0517 111:0.2245 112:0.0446 113:-0.053 114:0.1039 115:0.1932 116:-0.2161 117:-0.0474 118:-0.0424 119:-0.1619 120:-0.0707 121:-0.3131 122:-0.0742 123:-0.1465 124:0.1308 125:0.2328 126:0.1828 127:-0.1599 128:-0.0255 129:-0.0752 130:-0.0977 131:0.0677 132:0.0154 133:0.2197 134:0.056 135:-0.1835 136:-0.1389 137:0.0714 138:0.0492 139:0.0438 140:-0.1304 141:-0.1292 142:0.0853 143:0.1148 144:-0.0271 145:0.0166 146:0.031 147:0.0912 148:-0.1045 149:-0.0171 150:-0.0107 151:-0.1086 152:0.2759 153:0.0673 154:-0.1941 155:-0.0265 156:0.0541 157:-0.0395 158:0.1613 159:-0.0166 160:-0.3087 161:-0.0022 162:0.0806 163:-0.022 164:0.1429 165:-0.0602 166:0.0611 167:-0.0111 168:-0.1596 169:-0.018 170:-0.026 171:-0.1818 172:-0.1575 173:0.1069 174:-0.2334 175:0.1074 176:-0.1127 177:0.1369 178:0.391 179:0.1393 180:-0.1793 181:0.2505 182:-0.0859 183:0.1494 184:-0.1236 185:0.1799 186:-0.1508 187:-0.0635 188:-0.0721 189:-0.0884 190:0.3498 191:-0.0723 192:-0.3186 193:0.0786 194:-0.3013 195:-0.178 196:0.0899 197:0.1047 198:-0.0489 199:0.0482 200:-0.1046 201:0.0956 202:7.0 203:-0.0084 204:-0.0412 205:-0.2639 206:0.1104 207:0.1977 208:0.1984 209:0.1745 210:0.2312 211:0.0392 212:-0.0745 213:0.041 214:-0.1672 215:-0.0205 216:0.0019 217:-0.1009 218:0.0345 219:0.0572 220:-0.1723 221:8.0E-4 222:-0.1507 223:-0.0418 224:0.0924 225:0.182 226:0.163 227:0.0534 228:-0.1041 229:-0.159 230:-0.0829 231:-0.177 232:-0.1935 233:0.0418 234:0.1387 235:0.0805 236:-0.0848 237:-0.2338 238:0.1694 239:-0.0306 240:-0.0534 241:-0.1585 242:-0.2582 243:0.2331 244:0.155 245:-0.0085 246:-0.0954 247:0.005 248:0.142 249:-0.2791 250:-0.0625 251:0.0665 252:-0.0434 253:0.1352 254:-0.167 255:-0.1139 256:0.0816 257:0.0877 258:-0.0225 259:0.1459 260:0.0609 261:-0.2389 262:0.0131 263:0.1268 264:-0.1255 265:0.1362 266:-0.253 267:0.1731 268:-0.1108 269:-0.1615 270:-0.0475 271:0.0504 272:-0.2203 273:-0.1848 274:0.014 275:-0.2434 276:0.2019 277:-0.0287 278:0.2956 279:0.1696 280:0.0367 281:-0.2931 282:0.196 283:-0.0705 284:0.0179 285:-0.0043 286:0.1432 287:-0.1826 288:0.0238 289:0.0014 290:-0.2036 291:0.393 292:-0.0593 293:-0.1681 294:-0.0625 295:-0.1155 296:-0.0839 297:0.2245 298:0.0704 299:-0.1711 300:-0.0088 301:-0.1375 302:0.0426 303:24.0 321:1.0 
0.003270586141161282 1:0.1667 2:-0.1325 3:-0.2287 4:0.0322 5:0.0697 6:0.137 7:0.0723 8:-0.2054 9:-0.0585 10:0.129 11:-0.251 12:0.1038 13:0.0698 14:0.051 15:-0.4124 16:-0.0928 17:-0.0887 18:0.0266 19:0.034 20:0.0174 21:-0.1984 22:-0.0408 23:0.0977 24:0.0118 25:0.1614 26:-0.2485 27:-0.0272 28:0.1051 29:-0.2102 30:-0.1254 31:-0.0047 32:0.3261 33:0.1689 34:-0.1017 35:-0.1209 36:0.0517 37:-0.0391 38:0.2082 39:-0.1415 40:-0.2523 41:0.1978 42:0.1024 43:0.1147 44:-0.1218 45:0.0852 46:0.0918 47:-0.1387 48:0.119 49:0.2353 50:-0.055 51:0.3114 52:-0.1655 53:-0.1322 54:-0.1503 55:0.2792 56:-0.0735 57:0.211 58:-0.0481 59:-0.4963 60:0.0064 61:0.1016 62:-0.3533 63:0.132 64:-0.2049 65:0.1764 66:0.1232 67:-0.3887 68:0.1348 69:-0.0631 70:0.0028 71:-0.3159 72:0.1458 73:-0.2805 74:0.1676 75:-0.1697 76:0.1529 77:0.023 78:0.1911 79:-0.2142 80:0.0569 81:-0.2179 82:0.135 83:-0.0454 84:0.0753 85:-0.3552 86:-0.0426 87:-0.1081 88:-0.1184 89:0.1087 90:-5.0E-4 91:0.0942 92:-0.106 93:-0.2376 94:-0.1076 95:0.1794 96:-0.1516 97:-0.1255 98:-0.1645 99:0.0536 100:0.0988 101:8.0 102:-0.1296 103:0.162 104:0.0288 105:-0.0432 106:0.1044 107:0.0447 108:0.0025 109:-0.0982 110:0.1023 111:-0.004 112:-0.1065 113:-0.0363 114:0.0858 115:0.0543 116:-0.3629 117:-0.0314 118:-0.0968 119:0.1374 120:-0.2996 121:0.2282 122:-0.0426 123:0.1849 124:0.1166 125:-0.0145 126:0.0942 127:-0.2788 128:-0.1896 129:-0.1757 130:-0.1557 131:0.1963 132:0.0833 133:0.3211 134:0.223 135:-0.0815 136:-0.4153 137:0.1188 138:-0.0794 139:-0.0163 140:-0.053 141:-0.1068 142:0.1514 143:-0.101 144:0.1285 145:-0.144 146:-0.0142 147:0.1941 148:-0.2504 149:0.0988 150:0.0094 151:-0.3312 152:0.2428 153:0.0559 154:-0.2084 155:0.1571 156:-0.028 157:-0.158 158:0.41 159:0.1991 160:-0.1672 161:0.1648 162:0.2084 163:-0.1268 164:0.3147 165:-0.2755 166:-0.0732 167:-0.205 168:0.0087 169:0.0482 170:0.1212 171:-0.2966 172:-0.1778 173:0.0232 174:-0.2638 175:0.0822 176:-0.0417 177:0.1863 178:0.2596 179:-0.0932 180:-0.1478 181:-0.0126 182:-0.1549 183:0.2925 184:-0.0056 185:-0.1333 186:-0.1697 187:-0.1778 188:0.1139 189:-0.1774 190:0.2433 191:0.0726 192:-0.1377 193:-0.0384 194:-0.2241 195:-0.2782 196:0.0912 197:0.2244 198:-0.1038 199:0.2345 200:-0.1022 201:-0.1259 202:3.0 203:-0.044 204:-0.0658 205:-0.1398 206:0.1184 207:0.0764 208:0.0581 209:0.2186 210:-0.1687 211:0.0518 212:0.1108 213:-0.0765 214:0.0405 215:0.0728 216:0.0766 217:-0.2457 218:-0.1028 219:-0.1622 220:-0.008 221:-0.0784 222:-0.105 223:-0.1402 224:0.0284 225:0.1392 226:0.1215 227:0.0962 228:-0.2433 229:-0.0431 230:0.0052 231:-0.2008 232:-0.1116 233:-0.0019 234:0.1787 235:0.0566 236:-0.1443 237:-0.1891 238:0.0956 239:-0.059 240:0.0489 241:-0.1177 242:-0.2976 243:0.2065 244:0.0713 245:0.0458 246:-0.0151 247:-0.0405 248:0.0804 249:-0.1072 250:0.1215 251:0.1198 252:0.0398 253:0.2212 254:-0.1053 255:-0.0837 256:-0.0379 257:0.1695 258:-0.0041 259:0.1995 260:0.0053 261:-0.3277 262:0.0904 263:0.1212 264:-0.1592 265:0.1659 266:-0.1903 267:0.0942 268:-0.0168 269:-0.2673 270:0.0281 271:-0.0082 272:-0.0872 273:-0.2261 274:0.0924 275:-0.1387 276:0.1658 277:-0.1033 278:0.2256 279:0.17 280:0.0732 281:-0.1364 282:0.0843 283:-0.132 284:0.1159 285:-0.0335 286:0.0159 287:-0.1701 288:-0.0528 289:-0.0169 290:-0.0893 291:0.1718 292:0.0471 293:-0.0692 294:-0.0275 295:-0.215 296:-0.2023 297:0.0919 298:0.0151 299:-0.1246 300:-0.0253 301:-0.0432 302:0.029 303:45.0 324:1.0 
0.007115622359221135 1:-0.0325 2:0.2441 3:0.1134 4:0.2545 5:0.2135 6:0.0964 7:0.1277 8:-0.1176 9:-0.1611 10:0.0768 11:0.0097 12:0.0014 13:-0.0327 14:-0.0799 15:-0.1765 16:0.102 17:-0.0263 18:-0.096 19:0.2608 20:0.1657 21:-0.0946 22:0.0468 23:0.2326 24:0.0832 25:0.1155 26:-0.1997 27:0.1363 28:-0.1523 29:-0.3493 30:-0.2659 31:0.0445 32:-0.0283 33:0.3457 34:-0.1557 35:-0.0745 36:0.2123 37:-0.0318 38:-0.1239 39:0.0415 40:-0.2705 41:0.319 42:-0.0973 43:0.0224 44:-0.2894 45:-0.1172 46:0.0394 47:0.1008 48:0.1673 49:0.0328 50:-0.01 51:0.2354 52:-0.2073 53:-0.2614 54:0.2102 55:0.1587 56:0.0474 57:-0.016 58:-0.1443 59:-0.4429 60:0.243 61:-0.0456 62:-0.1096 63:0.4718 64:-0.2078 65:0.034 66:-0.0906 67:-0.308 68:-0.0784 69:-0.0787 70:0.035 71:-0.08 72:0.2299 73:-0.2696 74:0.2692 75:0.0934 76:0.2603 77:0.2543 78:-0.0226 79:-0.1973 80:-0.0021 81:-0.1188 82:0.0785 83:-0.0729 84:-0.0385 85:0.1088 86:-0.0522 87:-0.115 88:-0.1032 89:0.5156 90:-0.2917 91:0.0762 92:-0.0127 93:0.0105 94:-0.3055 95:0.4836 96:0.0619 97:-0.1103 98:0.1923 99:-0.3482 100:0.2225 101:14.0 102:0.0208 103:-0.0139 104:-0.1528 105:0.0639 106:0.0508 107:0.1245 108:0.1415 109:-0.0711 110:0.0303 111:0.1289 112:-0.0769 113:-0.1612 114:0.137 115:-0.0051 116:-0.1251 117:0.0653 118:-0.1176 119:-0.1478 120:-0.1749 121:-0.1329 122:-0.1135 123:-0.0241 124:0.1306 125:0.0794 126:0.2739 127:-0.1912 128:-0.0258 129:-0.0757 130:-0.1979 131:-0.1338 132:0.0877 133:0.0615 134:-0.0514 135:-0.0882 136:-0.1501 137:0.0958 138:-0.0106 139:0.1182 140:-0.0749 141:-0.2132 142:0.1259 143:0.0465 144:-0.0301 145:-0.0115 146:-0.1276 147:-0.0659 148:-0.1489 149:0.1895 150:0.1289 151:0.0376 152:0.139 153:-0.1575 154:-0.0704 155:0.0714 156:0.0893 157:0.0295 158:0.1421 159:0.0864 160:-0.3083 161:0.0648 162:0.0545 163:-0.2421 164:0.1438 165:-0.1193 166:0.0923 167:-0.0156 168:-0.2388 169:-0.0513 170:-0.1112 171:-0.0765 172:-0.1879 173:0.0824 174:-0.0332 175:0.1909 176:-0.0039 177:0.2041 178:0.2159 179:0.1403 180:-0.1202 181:0.114 182:-0.2482 183:0.0854 184:-0.043 185:0.0198 186:-0.2066 187:0.0068 188:-0.1328 189:-0.1429 190:0.2174 191:-0.0043 192:-0.1075 193:-0.1162 194:-0.1323 195:-0.1701 196:0.1286 197:0.1711 198:-0.1126 199:-0.075 200:-0.0609 201:0.0188 202:21.0 203:-0.209 204:-0.1945 205:-0.0234 206:0.2696 207:-0.0 208:0.0421 209:0.1038 210:-0.3188 211:-0.0191 212:0.1114 213:-0.0287 214:0.1432 215:0.1604 216:-0.0442 217:-0.2179 218:0.074 219:-0.1741 220:-0.2263 221:-0.0126 222:-0.2527 223:-0.0234 224:-0.1268 225:0.1688 226:0.0758 227:0.1431 228:-0.2711 229:0.1712 230:-0.057 231:-0.2553 232:-0.1465 233:0.0682 234:0.0601 235:-0.0034 236:-0.1436 237:-0.2071 238:0.0744 239:0.2125 240:-0.0491 241:-0.0284 242:-0.3057 243:0.2242 244:0.267 245:0.1555 246:-0.1661 247:-0.2423 248:-0.0267 249:-0.1453 250:0.0386 251:0.0582 252:0.106 253:0.1577 254:-0.1282 255:-0.128 256:0.3319 257:0.1293 258:0.1162 259:-0.0702 260:-0.1631 261:-0.1776 262:0.177 263:0.1809 264:-0.0377 265:0.0766 266:-0.2012 267:0.009 268:0.1142 269:-0.1418 270:-0.1763 271:0.0555 272:-0.1991 273:-0.1039 274:0.1531 275:-0.1111 276:0.1807 277:-0.0144 278:0.1385 279:0.1493 280:0.0593 281:0.0417 282:0.0919 283:-0.1711 284:0.1713 285:-0.0224 286:0.1227 287:-0.0197 288:0.1578 289:-0.0711 290:-0.3305 291:0.4658 292:-0.0404 293:0.0206 294:-0.1129 295:-0.0657 296:-0.2358 297:0.0778 298:0.1412 299:-0.1216 300:-0.0836 301:-0.1457 302:0.0241 303:2.0 325:1.0 
0.003578106058779433 1:-0.0416 2:0.0024 3:-0.1741 4:0.1318 5:0.0986 6:0.1595 7:0.0629 8:-0.0886 9:0.1507 10:-0.0325 11:-0.1001 12:-0.1846 13:0.1868 14:-0.025 15:-0.1094 16:-0.0384 17:-0.0749 18:-0.0927 19:-0.0164 20:-0.4058 21:-0.0109 22:-0.1486 23:0.3208 24:0.1642 25:0.1496 26:-0.1504 27:-0.015 28:0.0433 29:-0.1981 30:-0.237 31:0.0599 32:0.0601 33:-0.0037 34:-0.1071 35:-0.1604 36:0.088 37:0.05 38:-0.0374 39:-0.0554 40:-0.146 41:0.2699 42:0.0852 43:-0.0429 44:0.0057 45:-0.2277 46:-0.0559 47:-0.1061 48:0.1731 49:0.118 50:-0.1204 51:0.0684 52:-0.0455 53:-0.0996 54:0.138 55:0.1765 56:0.0044 57:0.0234 58:-0.0665 59:-0.1707 60:0.1105 61:0.072 62:-0.2174 63:0.1877 64:0.0731 65:0.068 66:0.0494 67:-0.2904 68:-0.1083 69:-0.0519 70:-0.0931 71:-0.1178 72:0.2711 73:0.0586 74:0.2086 75:-0.1754 76:0.1363 77:0.4563 78:0.1903 79:-0.1575 80:0.0233 81:1.0E-4 82:0.1361 83:-0.1197 84:0.0825 85:-0.1583 86:-0.0389 87:-0.2061 88:-0.2088 89:0.1048 90:0.0167 91:-0.1458 92:-0.0836 93:-0.1014 94:-0.2641 95:0.283 96:0.1654 97:-0.017 98:0.0837 99:-0.0872 100:0.0835 101:4.0 102:-0.1489 103:-0.0219 104:-0.2094 105:0.2071 106:0.0661 107:-0.0715 108:0.0767 109:0.0095 110:0.0851 111:-0.1209 112:0.1096 113:-0.1516 114:0.0859 115:0.1882 116:-0.1431 117:0.0629 118:0.0342 119:0.0242 120:-0.1324 121:-0.2207 122:-0.007 123:0.0182 124:0.2323 125:0.053 126:0.0617 127:-0.0616 128:-0.33 129:-0.0529 130:-0.3111 131:-0.1512 132:0.1153 133:0.2813 134:0.1905 135:-0.2257 136:-0.232 137:0.038 138:0.022 139:-0.0325 140:-0.1252 141:-0.2035 142:0.1231 143:0.0282 144:-0.1223 145:-0.1231 146:-0.1326 147:0.1836 148:-0.3719 149:0.0593 150:0.0115 151:0.019 152:-0.0066 153:0.0247 154:-0.243 155:0.0839 156:0.251 157:0.0593 158:0.2602 159:0.192 160:-0.2244 161:0.0426 162:0.0869 163:-0.0822 164:0.1627 165:-0.2334 166:0.1018 167:-0.0415 168:-0.2369 169:0.1538 170:-0.1044 171:-0.1919 172:-0.1567 173:-0.0589 174:-0.1538 175:0.2001 176:-0.0835 177:0.206 178:-0.0589 179:0.0136 180:-0.2487 181:0.1413 182:-0.0354 183:-3.0E-4 184:-0.098 185:-0.0235 186:-0.1064 187:-0.0754 188:0.0094 189:-0.226 190:0.3419 191:0.0603 192:-0.0744 193:0.1153 194:-0.1641 195:-0.1956 196:0.2991 197:0.1438 198:-0.005 199:0.097 200:-0.072 201:0.2005 202:5.0 203:-0.0342 204:-0.1138 205:-0.2255 206:0.0577 207:0.0258 208:0.0596 209:0.1041 210:-0.0498 211:0.0776 212:0.0663 213:0.0255 214:-0.1433 215:0.0361 216:-0.02 217:-0.1636 218:0.027 219:-0.0796 220:-0.0681 221:-0.0972 222:-0.0943 223:-0.0745 224:-0.0167 225:0.1933 226:0.0341 227:0.1619 228:-0.2349 229:-0.0879 230:-0.0654 231:-0.1659 232:-0.0959 233:0.0032 234:0.1344 235:0.0854 236:-0.1715 237:-0.2486 238:0.1603 239:0.0029 240:0.0713 241:-0.0651 242:-0.2944 243:0.1419 244:0.0787 245:-0.0299 246:-0.0645 247:-0.0072 248:-0.0113 249:-0.1271 250:0.159 251:0.02 252:-0.025 253:0.2171 254:-0.1587 255:-0.1576 256:0.0413 257:0.1297 258:-0.0547 259:0.1653 260:0.0901 261:-0.2135 262:0.0742 263:0.0543 264:-0.0357 265:0.1027 266:-0.2951 267:0.0529 268:-0.014 269:-0.2748 270:0.0133 271:-0.0205 272:-0.1141 273:-0.2066 274:-3.0E-4 275:-0.2063 276:0.1963 277:-0.0049 278:0.2422 279:0.1537 280:0.0512 281:-0.1548 282:0.1139 283:-0.1495 284:0.0835 285:-0.0732 286:0.0487 287:-0.1188 288:-0.0222 289:0.0274 290:-0.1618 291:0.2254 292:-0.0036 293:-0.1034 294:-0.0339 295:-0.0846 296:-0.2522 297:0.163 298:0.1224 299:-0.114 300:-0.0916 301:-0.1464 302:-0.0769 303:23.0 326:1.0 
0.0042106908015318335 1:-0.0416 2:0.0024 3:-0.1741 4:0.1318 5:0.0986 6:0.1595 7:0.0629 8:-0.0886 9:0.1507 10:-0.0325 11:-0.1001 12:-0.1846 13:0.1868 14:-0.025 15:-0.1094 16:-0.0384 17:-0.0749 18:-0.0927 19:-0.0164 20:-0.4058 21:-0.0109 22:-0.1486 23:0.3208 24:0.1642 25:0.1496 26:-0.1504 27:-0.015 28:0.0433 29:-0.1981 30:-0.237 31:0.0599 32:0.0601 33:-0.0037 34:-0.1071 35:-0.1604 36:0.088 37:0.05 38:-0.0374 39:-0.0554 40:-0.146 41:0.2699 42:0.0852 43:-0.0429 44:0.0057 45:-0.2277 46:-0.0559 47:-0.1061 48:0.1731 49:0.118 50:-0.1204 51:0.0684 52:-0.0455 53:-0.0996 54:0.138 55:0.1765 56:0.0044 57:0.0234 58:-0.0665 59:-0.1707 60:0.1105 61:0.072 62:-0.2174 63:0.1877 64:0.0731 65:0.068 66:0.0494 67:-0.2904 68:-0.1083 69:-0.0519 70:-0.0931 71:-0.1178 72:0.2711 73:0.0586 74:0.2086 75:-0.1754 76:0.1363 77:0.4563 78:0.1903 79:-0.1575 80:0.0233 81:1.0E-4 82:0.1361 83:-0.1197 84:0.0825 85:-0.1583 86:-0.0389 87:-0.2061 88:-0.2088 89:0.1048 90:0.0167 91:-0.1458 92:-0.0836 93:-0.1014 94:-0.2641 95:0.283 96:0.1654 97:-0.017 98:0.0837 99:-0.0872 100:0.0835 101:4.0 102:-0.0291 103:-0.0938 104:-0.2513 105:0.0637 106:0.1033 107:0.0023 108:0.0758 109:-0.0425 110:0.0538 111:-0.0113 112:0.0896 113:-0.1818 114:-0.0114 115:0.0448 116:-0.1674 117:0.0491 118:-0.0248 119:-0.0424 120:-0.0906 121:-0.1518 122:-0.0492 123:-0.0425 124:0.1769 125:0.0813 126:0.1 127:-0.1808 128:-0.196 129:-0.0679 130:-0.2148 131:-0.1474 132:0.0324 133:0.1765 134:0.1355 135:-0.2067 136:-0.2549 137:0.1266 138:0.032 139:0.0052 140:-0.0969 141:-0.2651 142:0.1121 143:0.0472 144:-0.068 145:-0.1129 146:-0.0527 147:0.0716 148:-0.2092 149:0.1283 150:0.0217 151:0.0289 152:0.1244 153:-0.1132 154:-0.181 155:0.0134 156:0.1978 157:-0.0198 158:0.179 159:0.1158 160:-0.2542 161:0.0191 162:0.0843 163:-0.0685 164:0.1197 165:-0.294 166:0.06 167:-0.0175 168:-0.3093 169:0.0469 170:-0.0395 171:-0.0883 172:-0.2488 173:-0.0089 174:-0.2094 175:0.2016 176:-0.0244 177:0.2444 178:0.0673 179:0.0552 180:-0.2029 181:0.1056 182:-0.0795 183:0.0749 184:-0.0747 185:0.0645 186:-0.1107 187:-0.034 188:-0.0111 189:-0.1703 190:0.2471 191:-0.0042 192:-0.0859 193:0.0282 194:-0.0807 195:-0.2191 196:0.2268 197:0.129 198:-0.0856 199:-0.0581 200:-0.0854 201:-0.0045 202:20.0 203:-0.1174 204:-0.1012 205:-0.1573 206:0.1375 207:-0.1235 208:0.1065 209:0.1506 210:-0.0291 211:0.1359 212:0.1239 213:-0.0661 214:-0.0617 215:0.174 216:-0.0359 217:-0.1422 218:-4.0E-4 219:-0.1318 220:-0.0681 221:-0.1342 222:-0.0439 223:-0.0891 224:0.0631 225:0.2545 226:-0.0603 227:0.2385 228:-0.2484 229:0.004 230:-0.0518 231:-0.1468 232:-0.0145 233:0.0074 234:0.1316 235:0.0384 236:-0.1263 237:-0.2241 238:0.1596 239:-0.0507 240:0.1552 241:-0.0311 242:-0.3036 243:0.1972 244:0.1179 245:-0.002 246:0.0079 247:0.0169 248:-0.076 249:-0.0955 250:0.1658 251:0.0109 252:-0.1187 253:0.2859 254:-0.1462 255:-0.1583 256:0.1308 257:0.0522 258:-0.0619 259:0.1936 260:0.0959 261:-0.1288 262:0.1784 263:0.0071 264:0.009 265:0.1021 266:-0.259 267:0.0673 268:-0.0234 269:-0.1735 270:0.0257 271:-0.0302 272:-0.2207 273:-0.0803 274:-0.0176 275:-0.1665 276:0.1868 277:-0.0102 278:0.2144 279:0.2151 280:0.0188 281:-0.1053 282:0.1496 283:-0.2356 284:0.0505 285:-0.0853 286:-0.0318 287:-0.1293 288:-0.0291 289:0.1027 290:-0.1829 291:0.2494 292:0.0377 293:-0.1247 294:-0.0805 295:-0.143 296:-0.2913 297:0.1044 298:0.121 299:-0.1098 300:-0.0493 301:-0.2371 302:-0.0664 303:8.0 327:1.0 
4.8539588728446813E-4 1:0.1943 2:-0.1567 3:-0.155 4:0.1381 5:0.0859 6:-0.0705 7:0.1197 8:-0.1659 9:0.0503 10:0.0424 11:-0.41 12:0.0535 13:0.2022 14:-0.0118 15:-0.2731 16:-0.0375 17:-0.1781 18:-0.1052 19:0.0874 20:0.0704 21:-0.2525 22:0.0779 23:0.0904 24:-0.0899 25:0.1211 26:-0.1902 27:0.0494 28:0.1676 29:-0.2131 30:-0.1251 31:0.0193 32:0.3125 33:0.0422 34:-0.0877 35:0.0486 36:0.0886 37:-0.0119 38:0.0559 39:-0.165 40:-0.1332 41:0.1807 42:0.2675 43:0.1407 44:-0.1329 45:0.1217 46:0.1273 47:0.0478 48:0.073 49:0.2829 50:-0.1359 51:0.242 52:-0.1733 53:-0.1146 54:-0.1808 55:0.1714 56:-0.1131 57:0.2166 58:-0.1293 59:-0.6255 60:0.0073 61:0.0941 62:-0.2581 63:0.2278 64:-0.1445 65:0.0249 66:0.0915 67:-0.4034 68:0.2505 69:8.0E-4 70:-0.1102 71:-0.4565 72:0.1721 73:-0.1945 74:0.2945 75:-0.4589 76:0.1626 77:0.1379 78:0.2282 79:-0.1751 80:0.0643 81:-0.1566 82:0.0878 83:-0.042 84:0.0645 85:-0.3111 86:-0.0369 87:-0.1233 88:0.0019 89:0.2767 90:-0.0261 91:0.014 92:-0.1566 93:-0.1761 94:0.0072 95:0.4153 96:-0.1375 97:-0.0011 98:0.0707 99:0.0823 100:0.1444 101:3.0 102:0.0282 103:0.2811 104:-0.1779 105:0.3425 106:0.0894 107:0.3265 108:-0.1778 109:0.1259 110:-0.0222 111:0.143 112:-0.19 113:-0.0532 114:-0.057 115:-0.2957 116:0.0515 117:0.0065 118:-0.2387 119:0.06 120:-0.343 121:0.049 122:0.3945 123:0.1362 124:0.3197 125:0.0225 126:0.1998 127:-0.4294 128:-0.0909 129:0.0457 130:-0.0819 131:-0.0098 132:0.3774 133:0.0304 134:0.3223 135:0.2033 136:-0.011 137:0.1356 138:0.0337 139:0.0946 140:-0.0716 141:-0.1079 142:0.472 143:-2.0E-4 144:0.0285 145:-0.2254 146:-0.3052 147:-0.2897 148:-0.0569 149:0.2245 150:0.0229 151:-0.0923 152:-0.2532 153:-0.1305 154:-0.3514 155:0.294 156:0.1745 157:0.0991 158:0.1255 159:0.2058 160:-0.1901 161:0.0982 162:0.0693 163:-0.4643 164:0.224 165:-0.0293 166:-0.2467 167:0.068 168:-0.3478 169:-0.246 170:0.0968 171:-0.2304 172:-0.1964 173:0.0338 174:0.1096 175:0.239 176:-0.3122 177:0.4319 178:0.0621 179:0.1246 180:0.2047 181:-0.1786 182:-0.2155 183:0.1573 184:-0.2426 185:0.042 186:-0.1351 187:-0.1912 188:0.0842 189:-0.1971 190:0.5165 191:-0.1535 192:-0.0752 193:-0.1203 194:0.0467 195:-0.2723 196:0.0348 197:0.2692 198:-0.1262 199:0.3285 200:-0.0298 201:-0.1791 202:1.0 203:-0.0944 204:0.0708 205:-0.1166 206:0.1901 207:0.2732 208:0.1677 209:0.2017 210:-0.0688 211:-0.0305 212:-0.0296 213:-0.0972 214:-0.0389 215:0.0155 216:0.0034 217:-0.0777 218:0.0795 219:-0.1101 220:-0.1576 221:0.1379 222:0.0222 223:-0.0989 224:0.0778 225:0.0924 226:0.1687 227:0.0389 228:-0.1084 229:-0.1159 230:-0.04 231:-0.1979 232:-0.2571 233:0.086 234:0.0557 235:0.0818 236:-0.2391 237:-0.1815 238:0.0883 239:-0.0175 240:0.0239 241:-0.0728 242:-0.2786 243:0.2801 244:0.2152 245:0.0077 246:-0.0397 247:-0.0364 248:-0.0286 249:-0.181 250:0.0828 251:0.0492 252:-0.153 253:0.2549 254:-0.2406 255:-0.1277 256:0.1491 257:0.2732 258:-0.0243 259:-0.0092 260:-0.1194 261:-0.2767 262:0.1001 263:0.0532 264:-0.0806 265:0.2165 266:-0.1893 267:0.1581 268:-0.0901 269:-0.1826 270:0.0779 271:-0.087 272:0.0478 273:-0.0946 274:0.1423 275:-0.1595 276:0.2192 277:-0.0315 278:0.1941 279:0.1416 280:0.127 281:-0.2242 282:0.1537 283:-0.0996 284:0.091 285:0.0964 286:0.0057 287:-0.0641 288:-0.1176 289:-0.0445 290:-0.1568 291:0.3504 292:-0.1708 293:0.147 294:-0.0533 295:-0.1159 296:-0.292 297:0.4411 298:0.2147 299:-0.0317 300:-0.0514 301:-0.3228 302:0.1385 303:16.0 309:1.0 
0.004578565268535134 1:-0.0918 2:0.0502 3:-0.1898 4:0.0721 5:0.1432 6:0.196 7:0.1611 8:-0.0338 9:0.054 10:-0.1873 11:0.0134 12:-0.155 13:0.0362 14:-0.0799 15:-0.0785 16:0.0652 17:-0.0546 18:-0.1281 19:-0.074 20:-0.1386 21:-0.042 22:0.0532 23:0.1567 24:0.0887 25:0.0934 26:-0.0562 27:-0.2388 28:-0.049 29:-0.2428 30:-0.2519 31:-0.0378 32:0.0294 33:0.0357 34:-0.1168 35:-0.2884 36:0.1424 37:0.0944 38:-0.0169 39:-0.0383 40:-0.2476 41:0.3188 42:0.1251 43:-0.0121 44:-0.0714 45:-0.0734 46:0.1336 47:-0.0902 48:0.001 49:6.0E-4 50:-0.0448 51:0.1377 52:-0.1192 53:-0.1171 54:0.0066 55:0.1122 56:-0.1337 57:0.1445 58:-0.0136 59:-0.3291 60:0.0525 61:0.0672 62:-0.2271 63:0.1154 64:-0.1673 65:0.0438 66:-0.0173 67:-0.1998 68:0.0329 69:0.015 70:-0.1323 71:-0.2504 72:0.1428 73:-0.192 74:0.0898 75:-0.0639 76:0.1155 77:0.2572 78:0.0977 79:-0.2253 80:0.0751 81:-0.1075 82:-0.001 83:-0.0042 84:0.1062 85:-0.0972 86:-0.0656 87:-0.033 88:-0.1168 89:0.2764 90:-0.06 91:-0.2303 92:-0.0679 93:-0.2359 94:-0.0854 95:0.2374 96:0.0584 97:-0.0823 98:0.1063 99:-0.0618 100:0.0035 101:16.0 102:0.0427 103:0.0047 104:-0.2774 105:-9.0E-4 106:0.2934 107:0.1847 108:0.0145 109:1.0E-4 110:0.0507 111:-0.021 112:4.0E-4 113:-0.0296 114:-0.0418 115:-0.0323 116:-0.2241 117:0.0402 118:-0.1192 119:-0.0752 120:-0.0246 121:-0.1466 122:-0.0134 123:0.0869 124:0.1371 125:0.1643 126:0.1054 127:-0.1817 128:-0.2023 129:-0.0028 130:-0.1459 131:-0.2923 132:0.1009 133:0.0918 134:0.0984 135:-0.093 136:-0.1646 137:0.0958 138:-0.0083 139:0.0226 140:-0.021 141:-0.2422 142:0.2027 143:0.0494 144:-0.0926 145:-0.0981 146:0.0189 147:0.1806 148:-0.2483 149:-0.0096 150:0.0422 151:-0.1496 152:0.0856 153:-0.1743 154:-0.2044 155:-0.0111 156:0.2596 157:0.0227 158:0.0868 159:0.0368 160:-0.3163 161:-0.0375 162:0.1347 163:-0.1266 164:0.1579 165:-0.1276 166:0.0861 167:0.0163 168:-0.3399 169:-0.0107 170:-0.0141 171:-0.0688 172:-0.1723 173:0.1464 174:-0.2758 175:0.0335 176:-0.1249 177:0.3451 178:0.1749 179:0.0624 180:-0.2386 181:0.0662 182:-0.0787 183:0.0626 184:-0.0779 185:0.0285 186:-0.1323 187:-0.0841 188:-0.0601 189:-0.1588 190:0.1966 191:-0.118 192:0.0265 193:-0.1376 194:-0.2158 195:-0.0816 196:0.2709 197:0.1523 198:-0.206 199:-0.0246 200:-0.1889 201:0.0858 202:13.0 203:-0.1247 204:-0.0178 205:-0.3138 206:0.1614 207:0.2271 208:0.1269 209:0.0914 210:0.0315 211:0.0355 212:-0.0272 213:-0.069 214:-0.0337 215:0.0024 216:0.0241 217:-0.3335 218:-0.0106 219:-0.1226 220:-0.0652 221:-0.0563 222:-0.2788 223:-0.0128 224:0.0338 225:0.1385 226:0.1428 227:0.0348 228:-0.0668 229:-0.1361 230:-4.0E-4 231:-0.1356 232:-0.2117 233:0.0088 234:0.0376 235:0.0156 236:-0.1524 237:-0.3049 238:0.0269 239:0.0594 240:-0.046 241:-0.0582 242:-0.2727 243:0.1633 244:0.1279 245:-0.1307 246:-0.0208 247:-0.1375 248:0.152 249:-0.2453 250:0.0239 251:0.0018 252:0.097 253:0.1747 254:-0.0962 255:-0.119 256:0.0575 257:0.2229 258:0.0185 259:0.0614 260:0.0316 261:-0.3399 262:0.0198 263:0.1053 264:-0.0783 265:0.1051 266:-0.2113 267:0.1894 268:-0.0262 269:-0.2052 270:-0.033 271:0.0145 272:-0.0246 273:-0.1221 274:0.0613 275:-0.2326 276:0.0762 277:-0.022 278:0.375 279:0.2954 280:0.0916 281:-0.2447 282:0.1415 283:-7.0E-4 284:0.0171 285:-0.0902 286:0.1731 287:-0.0873 288:-0.0083 289:-0.1102 290:-0.2203 291:0.2416 292:-0.072 293:-0.0446 294:-0.0095 295:-0.1205 296:-0.1699 297:0.1125 298:0.1303 299:-0.1421 300:-0.0032 301:-0.1675 302:0.0348 303:11.0 331:1.0 
0.0053147941162318465 1:0.0 2:0.0 3:0.0 4:0.0 5:0.0 6:0.0 7:0.0 8:0.0 9:0.0 10:0.0 11:0.0 12:0.0 13:0.0 14:0.0 15:0.0 16:0.0 17:0.0 18:0.0 19:0.0 20:0.0 21:0.0 22:0.0 23:0.0 24:0.0 25:0.0 26:0.0 27:0.0 28:0.0 29:0.0 30:0.0 31:0.0 32:0.0 33:0.0 34:0.0 35:0.0 36:0.0 37:0.0 38:0.0 39:0.0 40:0.0 41:0.0 42:0.0 43:0.0 44:0.0 45:0.0 46:0.0 47:0.0 48:0.0 49:0.0 50:0.0 51:0.0 52:0.0 53:0.0 54:0.0 55:0.0 56:0.0 57:0.0 58:0.0 59:0.0 60:0.0 61:0.0 62:0.0 63:0.0 64:0.0 65:0.0 66:0.0 67:0.0 68:0.0 69:0.0 70:0.0 71:0.0 72:0.0 73:0.0 74:0.0 75:0.0 76:0.0 77:0.0 78:0.0 79:0.0 80:0.0 81:0.0 82:0.0 83:0.0 84:0.0 85:0.0 86:0.0 87:0.0 88:0.0 89:0.0 90:0.0 91:0.0 92:0.0 93:0.0 94:0.0 95:0.0 96:0.0 97:0.0 98:0.0 99:0.0 100:0.0 101:0.0 102:-0.0023 103:-0.0263 104:-0.2141 105:0.1898 106:0.2047 107:0.1301 108:0.1021 109:0.0799 110:-0.0327 111:-0.019 112:0.0461 113:0.0039 114:0.0174 115:-0.0302 116:-0.0827 117:0.0172 118:-0.0507 119:-0.2582 120:-0.0602 121:-0.1093 122:-0.1556 123:-0.0488 124:0.0786 125:0.2053 126:0.1561 127:-0.1077 128:-0.0998 129:0.0892 130:-0.143 131:-0.1585 132:0.208 133:-0.0697 134:0.0288 135:-0.1141 136:-0.1752 137:0.1091 138:0.0922 139:0.0509 140:-0.1784 141:-0.2738 142:0.2165 143:0.1327 144:-0.0247 145:-0.1147 146:-0.1774 147:4.0E-4 148:-0.1738 149:-0.0164 150:0.1087 151:-0.0254 152:0.13 153:-0.1688 154:-0.0644 155:0.2727 156:0.1447 157:-0.0142 158:0.0749 159:0.0552 160:-0.2794 161:-0.0226 162:0.0437 163:-0.0381 164:0.2099 165:0.0601 166:0.0906 167:-0.0982 168:-0.3544 169:-0.1352 170:-0.0873 171:0.0281 172:-0.1619 173:0.1544 174:-0.0529 175:0.0535 176:-0.0521 177:0.2872 178:0.3446 179:0.0178 180:-0.0892 181:0.1355 182:-0.0782 183:0.1394 184:-0.0427 185:0.1301 186:-0.1874 187:-0.0782 188:-0.0562 189:-0.1778 190:0.1789 191:-0.0584 192:0.0496 193:0.0266 194:-0.1816 195:-0.1728 196:0.4061 197:0.1325 198:-0.1132 199:0.0954 200:-0.1606 201:0.1156 202:9.0 203:0.0188 204:-0.0284 205:-0.2528 206:-0.0092 207:0.1017 208:0.2141 209:0.1744 210:0.0076 211:0.1358 212:-0.0143 213:-0.0399 214:-0.2111 215:0.0232 216:-0.0325 217:-0.108 218:0.1061 219:-0.1498 220:-0.0746 221:-0.0507 222:-0.1906 223:-0.113 224:0.0726 225:0.1979 226:0.1163 227:0.1882 228:-0.0641 229:-0.0655 230:-0.0609 231:-0.1816 232:-0.208 233:0.1138 234:0.0862 235:0.0196 236:-0.1231 237:-0.2098 238:0.1703 239:-0.0071 240:0.0696 241:-0.1032 242:-0.2724 243:0.1581 244:0.1593 245:0.0047 246:0.0114 247:-0.0087 248:0.0794 249:-0.1622 250:-0.006 251:0.0318 252:-0.0475 253:0.1444 254:-0.1452 255:-0.0633 256:0.0432 257:0.1648 258:-0.0486 259:0.1172 260:0.0148 261:-0.2956 262:0.0249 263:0.0471 264:-0.2033 265:0.1404 266:-0.2111 267:0.0978 268:-0.0817 269:-0.1885 270:-0.0136 271:-0.0285 272:-0.142 273:-0.212 274:0.082 275:-0.1512 276:0.1375 277:-0.0596 278:0.2026 279:0.3489 280:0.1135 281:-0.2505 282:0.1111 283:-0.1049 284:0.0907 285:-0.0621 286:0.0627 287:-0.151 288:0.0329 289:-0.0494 290:-0.1015 291:0.2206 292:-0.0898 293:-0.1392 294:-0.1214 295:-0.2023 296:-0.1464 297:0.161 298:0.1318 299:-0.1572 300:-0.0708 301:-0.0833 302:0.0316 303:29.0 305:1.0 
0.002882605680169651 1:-0.1227 2:0.1429 3:-0.1462 4:0.2409 5:0.1322 6:0.2052 7:0.1408 8:0.0215 9:-0.0711 10:-0.0053 11:-0.0569 12:-0.1094 13:0.0274 14:-0.0157 15:-0.1198 16:0.0776 17:-0.0397 18:-0.1654 19:0.0373 20:-0.0622 21:-0.0411 22:0.0459 23:0.1703 24:0.1579 25:0.2109 26:-0.1587 27:-0.0155 28:-8.0E-4 29:-0.217 30:-0.2047 31:0.0852 32:0.0753 33:0.1238 34:-0.198 35:-0.1384 36:0.083 37:-0.1037 38:0.151 39:-0.0146 40:-0.2082 41:0.3414 42:0.0803 43:0.0246 44:-0.0841 45:-0.192 46:-0.0088 47:-0.1275 48:0.1448 49:-0.0098 50:-0.0647 51:0.1649 52:-0.2547 53:-0.1686 54:0.2073 55:0.1749 56:0.0031 57:-0.0133 58:-0.035 59:-0.2295 60:0.0804 61:0.0679 62:-0.1062 63:0.296 64:-0.1418 65:0.0526 66:-0.1295 67:-0.2306 68:0.135 69:-0.136 70:0.0602 71:-0.0668 72:0.1922 73:-0.0572 74:0.1667 75:0.0517 76:0.2519 77:0.1015 78:0.0674 79:-0.1854 80:0.0218 81:-0.0918 82:0.1196 83:-0.0263 84:-0.0242 85:-0.0435 86:-0.1077 87:0.0227 88:-0.1589 89:0.34 90:-0.1051 91:0.0186 92:-0.034 93:-0.1432 94:-0.3294 95:0.2448 96:0.1855 97:-0.0432 98:0.0729 99:-0.1651 100:0.0984 101:14.0 102:-0.2959 103:-0.2104 104:-0.0425 105:0.0253 106:0.04 107:0.1698 108:0.2412 109:-0.2386 110:0.0373 111:-0.1504 112:-0.0388 113:-0.0074 114:0.1318 115:0.0564 116:-0.1359 117:-0.0587 118:-0.0897 119:-0.1556 120:-0.0048 121:-0.0352 122:-0.3106 123:0.0618 124:-0.0025 125:0.207 126:0.0053 127:-0.1781 128:-0.1755 129:0.1303 130:-0.2425 131:-0.0827 132:0.0425 133:-0.0523 134:0.1608 135:-0.1806 136:-0.2158 137:0.1299 138:-0.0103 139:0.198 140:-0.0599 141:-0.2148 142:0.1723 143:-0.0286 144:-0.106 145:-0.1829 146:-0.0442 147:0.2163 148:-0.1554 149:0.0739 150:0.0427 151:-0.1715 152:0.031 153:-0.095 154:-0.1922 155:0.1899 156:0.2436 157:-0.0019 158:0.1211 159:0.0679 160:-0.1622 161:0.0738 162:0.1799 163:-0.081 164:0.1865 165:-0.1835 166:0.0767 167:-0.0444 168:-0.2139 169:0.0524 170:-0.1162 171:-0.0628 172:-0.0931 173:0.1537 174:-0.1616 175:0.3602 176:-0.1602 177:0.1272 178:0.3157 179:0.1458 180:-0.3064 181:0.1879 182:-0.1963 183:-0.028 184:0.1459 185:-0.1361 186:-0.3063 187:-0.2208 188:0.1528 189:-0.0521 190:0.3317 191:-0.0067 192:-0.1458 193:0.0096 194:-0.1113 195:-0.1416 196:0.2245 197:0.1448 198:0.029 199:-0.0529 200:-0.2753 201:0.0927 202:6.0 203:-0.1923 204:0.0104 205:-0.3731 206:0.3208 207:0.6065 208:0.2427 209:0.319 210:0.1664 211:0.0029 212:-0.0124 213:-0.1752 214:-0.0566 215:-0.1188 216:-0.1414 217:0.0335 218:0.2991 219:-0.0989 220:-0.1743 221:0.1474 222:-0.1202 223:0.1188 224:0.092 225:0.1254 226:0.14 227:-0.0819 228:0.2075 229:-0.2031 230:0.2232 231:-0.1719 232:-0.201 233:0.0266 234:0.0755 235:-0.1991 236:-0.4046 237:-0.1737 238:0.1326 239:-0.0736 240:-0.126 241:0.1228 242:-0.3802 243:0.4266 244:0.3429 245:-0.0563 246:0.1658 247:-0.1741 248:-0.0507 249:-0.3415 250:0.0894 251:-0.0454 252:-0.3569 253:0.4719 254:-0.0588 255:-0.2087 256:0.1522 257:0.3569 258:-0.1926 259:-0.0076 260:-0.0062 261:-0.2893 262:0.0302 263:0.3076 264:-0.0409 265:0.2476 266:-0.2152 267:0.0545 268:0.0237 269:-0.1376 270:0.0963 271:0.0347 272:-0.1099 273:-0.2076 274:0.1243 275:-0.2241 276:0.2155 277:-0.3335 278:0.0067 279:0.2933 280:0.0448 281:-0.2329 282:0.2229 283:0.2897 284:0.2907 285:-0.0408 286:0.02 287:-0.2783 288:0.0628 289:-0.286 290:-0.6165 291:0.3093 292:-0.2286 293:0.0261 294:-0.0901 295:-0.1049 296:-0.0383 297:0.6268 298:0.2803 299:-0.0894 300:0.0309 301:-0.273 302:-0.1407 303:2.0 307:1.0 
-0.01 1:-0.0198 2:0.0439 3:0.0268 4:0.1758 5:0.186 6:0.0369 7:0.1692 8:-0.0078 9:-0.0222 10:-0.1274 11:-0.1862 12:0.0954 13:-0.0706 14:-0.083 15:-0.229 16:0.0572 17:-0.1494 18:-0.1617 19:0.1501 20:-0.0619 21:-0.0921 22:0.077 23:0.1258 24:0.0404 25:0.141 26:-0.2291 27:-0.0815 28:-0.026 29:-0.1997 30:-0.1624 31:-0.0508 32:0.0723 33:0.1271 34:-0.1425 35:-0.1134 36:0.0267 37:-0.0397 38:0.03 39:-0.0332 40:-0.1828 41:0.2565 42:0.1427 43:-0.0156 44:-0.0399 45:-0.081 46:0.0742 47:-0.0147 48:0.1715 49:0.0708 50:-0.079 51:0.2447 52:-0.2907 53:-0.104 54:0.0132 55:0.1341 56:-0.0717 57:0.1668 58:-0.0189 59:-0.3646 60:0.0709 61:0.1897 62:-0.1836 63:0.2103 64:-0.1502 65:0.1154 66:-0.1422 67:-0.3107 68:0.0733 69:0.015 70:0.0237 71:-0.2486 72:0.0547 73:-0.1664 74:0.1198 75:-0.0659 76:0.3057 77:0.1618 78:0.1699 79:-0.2252 80:0.0936 81:-0.117 82:0.1803 83:-0.0418 84:-0.0082 85:-0.1315 86:-0.0749 87:-0.0983 88:-0.0959 89:0.3581 90:-0.1935 91:-0.0522 92:-0.0886 93:-0.1266 94:-0.0862 95:0.2795 96:0.0382 97:-0.1607 98:0.0654 99:-0.1026 100:0.0354 101:13.0 102:0.0973 103:0.3785 104:0.4014 105:0.3706 106:0.0726 107:-0.0704 108:0.251 109:0.0038 110:-0.081 111:-0.2118 112:0.2258 113:0.2778 114:0.1187 115:0.0474 116:-0.1691 117:-0.0947 118:-0.1889 119:-0.1107 120:0.531 121:-0.0905 122:-0.1082 123:0.0905 124:0.0684 125:-0.3147 126:0.2327 127:-0.6834 128:0.0463 129:0.2676 130:-0.5281 131:-0.0328 132:-0.4304 133:0.1941 134:0.2183 135:-0.0627 136:-0.5518 137:0.0032 138:0.206 139:-0.1584 140:-0.3397 141:-0.5426 142:-0.0549 143:0.2422 144:-0.0235 145:0.19 146:-0.0359 147:0.1353 148:-0.0514 149:0.4026 150:-0.0247 151:0.123 152:0.4516 153:-0.2729 154:0.0759 155:0.1824 156:-0.1253 157:0.0705 158:-0.036 159:-0.222 160:-0.4509 161:-0.0444 162:-0.2119 163:-0.1867 164:0.3743 165:0.0982 166:-0.0309 167:0.02 168:-0.0559 169:0.2126 170:0.1733 171:0.006 172:-0.2316 173:0.0223 174:0.1545 175:0.0875 176:0.4329 177:0.06 178:0.0288 179:0.3494 180:-0.2483 181:-0.2861 182:-0.1114 183:0.095 184:0.2441 185:0.1382 186:0.0429 187:-0.0634 188:-0.1914 189:-0.3035 190:0.6704 191:-0.7252 192:-0.0826 193:-0.1095 194:0.3323 195:-0.2856 196:0.3448 197:0.0304 198:-0.1579 199:0.2745 200:-0.5137 201:0.066 202:1.0 203:-0.0312 204:-0.1187 205:-0.2188 206:0.1136 207:-0.0119 208:-0.0226 209:0.1865 210:-0.1742 211:0.0826 212:0.1594 213:-0.0727 214:-0.05 215:0.1387 216:0.0854 217:-0.2499 218:0.0093 219:-0.2256 220:-0.2061 221:-0.0305 222:-0.1857 223:0.0181 224:-0.0087 225:0.1101 226:-0.0382 227:0.1931 228:-0.2459 229:-0.0835 230:-0.0079 231:-0.0499 232:-0.1492 233:0.0307 234:0.2411 235:0.1904 236:-0.1166 237:-0.1521 238:0.0234 239:-0.0828 240:0.0873 241:-0.134 242:-0.2761 243:0.145 244:0.202 245:0.0161 246:-0.1074 247:-0.1399 248:-0.046 249:-0.057 250:0.2139 251:0.1834 252:0.0433 253:0.1288 254:-0.1558 255:-0.1096 256:0.1189 257:0.2024 258:-0.0083 259:0.1392 260:0.01 261:-0.2977 262:0.0531 263:0.1308 264:-0.279 265:0.0604 266:-0.2707 267:0.0989 268:0.0686 269:-0.2479 270:0.021 271:-0.1022 272:-0.0635 273:-0.2306 274:-0.01 275:-0.2074 276:0.1778 277:-0.0238 278:0.1029 279:0.2015 280:0.0772 281:-0.1573 282:0.0206 283:-0.2036 284:0.183 285:0.0049 286:0.0013 287:-0.2976 288:0.0451 289:-0.1827 290:-0.2222 291:0.1426 292:-0.0151 293:0.0089 294:-0.0369 295:-0.2114 296:-0.1744 297:0.0608 298:0.0422 299:-0.2053 300:-0.0541 301:-0.0119 302:0.0526 303:6.0 310:1.0 
-0.01 1:-0.2048 2:0.1846 3:-0.0765 4:0.2839 5:-0.0239 6:0.123 7:0.1742 8:-0.0528 9:-0.005 10:0.0108 11:-9.0E-4 12:-0.0168 13:0.1451 14:0.0907 15:-0.1923 16:0.0519 17:-0.0769 18:-0.039 19:-0.0709 20:-0.0243 21:-0.0858 22:0.0762 23:0.1769 24:0.0874 25:0.2071 26:-0.1289 27:0.1501 28:0.0211 29:-0.3074 30:-0.2934 31:0.05 32:0.088 33:0.0727 34:-0.1698 35:-0.1894 36:0.0415 37:-0.1007 38:0.0945 39:-0.036 40:-0.2488 41:0.1733 42:-0.0271 43:-0.0345 44:-0.0073 45:-0.1467 46:-0.0339 47:-0.1161 48:0.0713 49:-0.0619 50:-0.0205 51:0.2654 52:-0.2277 53:0.0106 54:0.2824 55:0.193 56:0.1271 57:0.0901 58:-0.0953 59:-0.2712 60:0.1475 61:-0.0031 62:-0.2266 63:0.3442 64:-0.1202 65:0.1092 66:-0.0552 67:-0.0834 68:0.0334 69:-0.1794 70:0.0459 71:-0.0357 72:0.2295 73:-0.0472 74:0.1385 75:0.0368 76:0.2247 77:0.1769 78:0.0495 79:-0.0716 80:0.0872 81:-0.2277 82:-0.0167 83:0.0794 84:0.078 85:-0.1185 86:-0.1904 87:-0.1055 88:-0.0956 89:0.4142 90:-0.058 91:0.1252 92:-0.012 93:-0.2093 94:-0.402 95:0.2746 96:0.1241 97:0.0494 98:0.1532 99:-0.2131 100:0.0755 101:7.0 102:0.0 103:0.0 104:0.0 105:0.0 106:0.0 107:0.0 108:0.0 109:0.0 110:0.0 111:0.0 112:0.0 113:0.0 114:0.0 115:0.0 116:0.0 117:0.0 118:0.0 119:0.0 120:0.0 121:0.0 122:0.0 123:0.0 124:0.0 125:0.0 126:0.0 127:0.0 128:0.0 129:0.0 130:0.0 131:0.0 132:0.0 133:0.0 134:0.0 135:0.0 136:0.0 137:0.0 138:0.0 139:0.0 140:0.0 141:0.0 142:0.0 143:0.0 144:0.0 145:0.0 146:0.0 147:0.0 148:0.0 149:0.0 150:0.0 151:0.0 152:0.0 153:0.0 154:0.0 155:0.0 156:0.0 157:0.0 158:0.0 159:0.0 160:0.0 161:0.0 162:0.0 163:0.0 164:0.0 165:0.0 166:0.0 167:0.0 168:0.0 169:0.0 170:0.0 171:0.0 172:0.0 173:0.0 174:0.0 175:0.0 176:0.0 177:0.0 178:0.0 179:0.0 180:0.0 181:0.0 182:0.0 183:0.0 184:0.0 185:0.0 186:0.0 187:0.0 188:0.0 189:0.0 190:0.0 191:0.0 192:0.0 193:0.0 194:0.0 195:0.0 196:0.0 197:0.0 198:0.0 199:0.0 200:0.0 201:0.0 202:0.0 203:-0.0586 204:0.0827 205:-0.1839 206:0.1976 207:0.0189 208:0.1113 209:0.14 210:-0.0284 211:-0.038 212:0.0185 213:0.0202 214:-0.1093 215:0.1064 216:0.0268 217:-0.1498 218:0.0669 219:-0.0681 220:-0.0823 221:-0.0225 222:-0.0279 223:-0.0905 224:0.0434 225:0.1979 226:0.0318 227:0.2167 228:-0.1304 229:0.0255 230:-0.1138 231:-0.232 232:-0.024 233:0.1284 234:0.0939 235:0.1363 236:-0.0438 237:-0.1915 238:0.1557 239:-0.1163 240:0.0812 241:-0.0201 242:-0.2201 243:0.1687 244:0.0884 245:0.0213 246:0.0402 247:-0.1114 248:-0.072 249:-0.0882 250:0.1757 251:0.0587 252:-0.0756 253:0.1979 254:-0.1756 255:-0.1012 256:0.2194 257:0.1443 258:0.0364 259:0.0895 260:0.0691 261:-0.2051 262:0.1287 263:0.0622 264:-0.0858 265:0.2085 266:-0.3168 267:0.0741 268:-0.1861 269:-0.2432 270:0.0974 271:-0.1469 272:-0.0759 273:-0.0885 274:0.1574 275:-0.0087 276:0.1855 277:0.0206 278:0.2366 279:0.2517 280:0.0858 281:-0.2767 282:0.0934 283:-0.2115 284:0.0959 285:0.0698 286:-0.0221 287:-0.1134 288:-0.1611 289:-0.032 290:-0.1205 291:0.3044 292:-0.0331 293:0.0398 294:-0.0267 295:-0.0312 296:-0.4159 297:0.2043 298:0.1268 299:-0.0778 300:0.064 301:-0.2501 302:0.0651 303:28.0 304:1.0 
-0.01 1:-0.1396 2:0.0452 3:-0.0678 4:0.1709 5:-0.0285 6:-0.0723 7:0.2267 8:-0.0955 9:-0.0696 10:0.0411 11:-0.0558 12:-0.1699 13:0.1288 14:-0.0411 15:-0.2596 16:-0.1062 17:-0.216 18:0.0625 19:-0.1024 20:0.1053 21:-0.0546 22:0.1019 23:0.267 24:0.0168 25:0.0293 26:-0.4181 27:0.198 28:-0.1227 29:-0.1836 30:0.0065 31:0.2209 32:0.1472 33:0.2825 34:-0.0107 35:0.0857 36:0.1277 37:-0.1234 38:-0.038 39:0.0884 40:-0.1442 41:0.2663 42:-0.0654 43:0.0289 44:-0.0227 45:0.035 46:0.2009 47:0.1839 48:0.0817 49:0.0267 50:-0.0496 51:0.2966 52:-0.1526 53:-0.1723 54:0.0565 55:0.091 56:0.1819 57:0.3453 58:0.2208 59:-0.182 60:0.1237 61:0.0648 62:-0.0465 63:0.3589 64:-0.3627 65:0.0049 66:-0.1045 67:-0.1993 68:0.0088 69:-0.1352 70:-0.1305 71:-0.032 72:0.072 73:-0.129 74:0.146 75:-0.013 76:0.2237 77:0.0702 78:-0.032 79:-0.192 80:-0.0116 81:-0.1398 82:0.1937 83:-0.2171 84:0.0625 85:-0.0713 86:-0.1449 87:0.2108 88:-0.0774 89:0.2323 90:-0.0187 91:-0.136 92:-0.04 93:-0.0972 94:-0.3236 95:0.1132 96:0.1629 97:-0.2121 98:0.1893 99:-0.2673 100:-0.0096 101:2.0 102:-0.0433 103:0.0193 104:-0.1426 105:0.1293 106:0.2054 107:0.1686 108:0.1693 109:0.0048 110:-0.0546 111:-0.0456 112:0.0084 113:-0.0985 114:0.0415 115:-0.0647 116:-0.1693 117:0.1062 118:-0.0624 119:-0.1826 120:-0.0418 121:-0.1624 122:-0.1393 123:0.0215 124:0.1534 125:0.278 126:0.0274 127:-0.1451 128:-0.1663 129:0.0508 130:-0.1597 131:-0.1224 132:0.2216 133:-0.026 134:0.1047 135:-0.1823 136:-0.2399 137:0.1301 138:0.0868 139:0.0463 140:-0.0561 141:-0.3183 142:0.2689 143:0.0286 144:-0.065 145:-0.0709 146:-0.1442 147:0.0817 148:-0.1967 149:-0.0506 150:0.0933 151:0.0029 152:0.1851 153:-0.1166 154:-0.156 155:0.2457 156:0.1991 157:-0.1223 158:0.0486 159:0.0047 160:-0.2847 161:-0.0014 162:0.0929 163:-0.1016 164:0.2159 165:-0.1171 166:-0.0336 167:0.0549 168:-0.243 169:-0.1255 170:-0.1719 171:-0.1014 172:-0.2921 173:0.1626 174:-0.0371 175:0.1826 176:-0.0799 177:0.1973 178:0.407 179:0.0585 180:-0.2515 181:0.0317 182:0.051 183:0.1279 184:-0.1297 185:0.1143 186:-0.1939 187:0.0487 188:-0.0589 189:-0.2219 190:0.1708 191:-0.1503 192:-0.0541 193:0.0637 194:-0.1446 195:-0.119 196:0.305 197:0.169 198:-0.1413 199:-0.0546 200:-0.2468 201:0.1008 202:13.0 203:0.0113 204:-0.015 205:-0.146 206:0.1364 207:0.1053 208:0.1218 209:0.1718 210:-0.0643 211:0.0462 212:0.1157 213:-0.0492 214:-0.0089 215:0.0881 216:0.01 217:-0.1921 218:-0.0222 219:-0.1114 220:-0.0447 221:-0.0806 222:-0.115 223:-0.1049 224:0.0395 225:0.1325 226:0.0957 227:0.1032 228:-0.1826 229:-0.0381 230:0.016 231:-0.1947 232:-0.0764 233:0.105 234:0.1112 235:0.0692 236:-0.1414 237:-0.1864 238:0.0738 239:-0.0024 240:0.0931 241:-0.1427 242:-0.2162 243:0.1289 244:0.1112 245:-0.0121 246:0.0092 247:-0.0544 248:-0.0129 249:-0.1399 250:0.1416 251:0.1069 252:-0.0432 253:0.1891 254:-0.0735 255:-0.1941 256:0.0754 257:0.1445 258:0.0289 259:0.1161 260:0.0263 261:-0.2754 262:0.0707 263:0.0463 264:-0.1676 265:0.1647 266:-0.0675 267:0.1057 268:-0.0576 269:-0.2678 270:0.0497 271:-0.0826 272:-0.0686 273:-0.2398 274:0.1291 275:-0.1157 276:0.2215 277:-0.0507 278:0.2427 279:0.2061 280:0.1068 281:-0.1636 282:0.0931 283:-0.1438 284:0.0766 285:-0.0066 286:0.0676 287:-0.1536 288:-0.0484 289:-0.0773 290:-0.1233 291:0.2183 292:-0.0106 293:-0.0283 294:-0.0084 295:-0.1943 296:-0.2484 297:0.2021 298:0.0811 299:-0.0982 300:-0.0675 301:-0.1197 302:0.0466 303:36.0 314:1.0 
-0.01 1:-0.0429 2:0.0381 3:-0.1447 4:0.1153 5:0.1843 6:0.0911 7:0.2219 8:-0.064 9:-0.0404 10:-0.0476 11:0.0136 12:-0.1153 13:0.0577 14:-0.059 15:-0.1898 16:0.0452 17:-0.1152 18:-0.1597 19:-0.0427 20:-0.1328 21:-0.1442 22:0.0197 23:0.188 24:0.2605 25:0.0072 26:-0.1861 27:-0.1037 28:0.0374 29:-0.1701 30:-0.0976 31:0.2044 32:0.0088 33:0.1398 34:-0.1651 35:-0.2415 36:0.1028 37:0.0423 38:0.0465 39:-0.026 40:-0.3 41:0.2702 42:0.0321 43:-0.0502 44:-0.0439 45:-0.0681 46:0.1581 47:-0.1723 48:0.0181 49:0.1115 50:0.0052 51:0.2372 52:-0.1034 53:-0.1318 54:0.1756 55:0.1983 56:-0.075 57:0.1079 58:0.0486 59:-0.2898 60:0.0025 61:0.0673 62:-0.033 63:0.2222 64:-0.1974 65:-0.0266 66:0.0025 67:-0.2044 68:-0.0877 69:-0.143 70:-0.1109 71:-0.2662 72:0.1403 73:-0.0726 74:0.184 75:-0.0779 76:0.1766 77:0.4041 78:0.0704 79:-0.3195 80:0.0305 81:0.0176 82:0.1398 83:-0.118 84:0.1169 85:-0.1839 86:0.0401 87:0.0015 88:-0.165 89:0.1259 90:-0.1889 91:-0.0785 92:0.0434 93:-0.1475 94:-0.1174 95:0.2724 96:0.1518 97:-0.1231 98:-0.0502 99:-0.2346 100:0.1127 101:13.0 102:-0.1421 103:-0.0674 104:-0.0556 105:0.2549 106:0.0981 107:0.3923 108:-0.0891 109:0.3175 110:-0.1548 111:0.0532 112:-0.0871 113:-0.0693 114:0.0316 115:-0.0752 116:-0.1364 117:0.2601 118:0.1014 119:-0.0754 120:-0.0972 121:-0.072 122:-0.0251 123:0.1129 124:0.0595 125:0.1221 126:0.1508 127:-0.1719 128:-0.1774 129:-0.0427 130:-0.1214 131:-0.1424 132:0.3237 133:-0.0612 134:0.0717 135:-0.1141 136:0.0956 137:0.2915 138:0.1441 139:-0.0393 140:-0.0922 141:-0.2545 142:0.2587 143:-0.0865 144:-0.0599 145:-0.1845 146:-0.4217 147:-0.2572 148:0.0375 149:-0.3307 150:-0.0823 151:-0.0637 152:-0.016 153:-0.2321 154:-0.3175 155:0.4774 156:0.0959 157:-0.1025 158:-0.0109 159:-0.0426 160:-0.1513 161:0.0998 162:0.2186 163:-0.4583 164:0.3211 165:0.1194 166:-0.037 167:0.2095 168:-0.4307 169:-0.2178 170:-0.3086 171:-0.0732 172:-0.1877 173:0.2055 174:0.084 175:0.1373 176:-0.0248 177:0.348 178:0.0878 179:-0.1033 180:0.2158 181:-0.0046 182:0.0608 183:0.1223 184:-0.2875 185:0.0468 186:-0.1314 187:-0.0935 188:-0.1517 189:-0.4186 190:0.5018 191:0.2128 192:0.0107 193:0.082 194:-0.0799 195:-0.3333 196:0.3086 197:0.2659 198:-0.3217 199:0.1625 200:-0.3406 201:-0.0813 202:2.0 203:0.0113 204:-0.015 205:-0.146 206:0.1364 207:0.1053 208:0.1218 209:0.1718 210:-0.0643 211:0.0462 212:0.1157 213:-0.0492 214:-0.0089 215:0.0881 216:0.01 217:-0.1921 218:-0.0222 219:-0.1114 220:-0.0447 221:-0.0806 222:-0.115 223:-0.1049 224:0.0395 225:0.1325 226:0.0957 227:0.1032 228:-0.1826 229:-0.0381 230:0.016 231:-0.1947 232:-0.0764 233:0.105 234:0.1112 235:0.0692 236:-0.1414 237:-0.1864 238:0.0738 239:-0.0024 240:0.0931 241:-0.1427 242:-0.2162 243:0.1289 244:0.1112 245:-0.0121 246:0.0092 247:-0.0544 248:-0.0129 249:-0.1399 250:0.1416 251:0.1069 252:-0.0432 253:0.1891 254:-0.0735 255:-0.1941 256:0.0754 257:0.1445 258:0.0289 259:0.1161 260:0.0263 261:-0.2754 262:0.0707 263:0.0463 264:-0.1676 265:0.1647 266:-0.0675 267:0.1057 268:-0.0576 269:-0.2678 270:0.0497 271:-0.0826 272:-0.0686 273:-0.2398 274:0.1291 275:-0.1157 276:0.2215 277:-0.0507 278:0.2427 279:0.2061 280:0.1068 281:-0.1636 282:0.0931 283:-0.1438 284:0.0766 285:-0.0066 286:0.0676 287:-0.1536 288:-0.0484 289:-0.0773 290:-0.1233 291:0.2183 292:-0.0106 293:-0.0283 294:-0.0084 295:-0.1943 296:-0.2484 297:0.2021 298:0.0811 299:-0.0982 300:-0.0675 301:-0.1197 302:0.0466 303:36.0 309:1.0 
-0.01 1:-0.0429 2:0.0381 3:-0.1447 4:0.1153 5:0.1843 6:0.0911 7:0.2219 8:-0.064 9:-0.0404 10:-0.0476 11:0.0136 12:-0.1153 13:0.0577 14:-0.059 15:-0.1898 16:0.0452 17:-0.1152 18:-0.1597 19:-0.0427 20:-0.1328 21:-0.1442 22:0.0197 23:0.188 24:0.2605 25:0.0072 26:-0.1861 27:-0.1037 28:0.0374 29:-0.1701 30:-0.0976 31:0.2044 32:0.0088 33:0.1398 34:-0.1651 35:-0.2415 36:0.1028 37:0.0423 38:0.0465 39:-0.026 40:-0.3 41:0.2702 42:0.0321 43:-0.0502 44:-0.0439 45:-0.0681 46:0.1581 47:-0.1723 48:0.0181 49:0.1115 50:0.0052 51:0.2372 52:-0.1034 53:-0.1318 54:0.1756 55:0.1983 56:-0.075 57:0.1079 58:0.0486 59:-0.2898 60:0.0025 61:0.0673 62:-0.033 63:0.2222 64:-0.1974 65:-0.0266 66:0.0025 67:-0.2044 68:-0.0877 69:-0.143 70:-0.1109 71:-0.2662 72:0.1403 73:-0.0726 74:0.184 75:-0.0779 76:0.1766 77:0.4041 78:0.0704 79:-0.3195 80:0.0305 81:0.0176 82:0.1398 83:-0.118 84:0.1169 85:-0.1839 86:0.0401 87:0.0015 88:-0.165 89:0.1259 90:-0.1889 91:-0.0785 92:0.0434 93:-0.1475 94:-0.1174 95:0.2724 96:0.1518 97:-0.1231 98:-0.0502 99:-0.2346 100:0.1127 101:13.0 102:0.0256 103:-0.0093 104:-0.0314 105:0.2026 106:0.1709 107:0.1429 108:0.0753 109:-0.0317 110:-0.0246 111:0.169 112:-0.0204 113:0.0473 114:0.0898 115:0.0082 116:-0.1609 117:0.0281 118:-0.0333 119:-0.0153 120:-0.0159 121:-0.0213 122:-0.0125 123:0.0696 124:0.1227 125:0.0697 126:0.1248 127:-0.1617 128:-0.1088 129:0.0386 130:-0.19 131:-0.0886 132:0.1297 133:0.1256 134:0.1219 135:-0.1358 136:-0.0898 137:0.089 138:0.0083 139:0.0246 140:-0.1406 141:-0.2917 142:0.1467 143:-0.0131 144:-0.0157 145:-0.1023 146:-0.1668 147:-0.0076 148:-0.0722 149:0.111 150:0.1015 151:-0.1183 152:0.0837 153:-0.0695 154:-0.2613 155:0.1769 156:0.1995 157:0.0646 158:0.0832 159:0.0157 160:-0.3069 161:0.0854 162:0.0604 163:-0.2083 164:0.2632 165:-0.0491 166:0.0374 167:0.0211 168:-0.3211 169:-0.0326 170:-0.093 171:-0.0266 172:-0.17 173:0.1981 174:0.024 175:0.242 176:-0.0445 177:0.3504 178:0.1193 179:0.0451 180:-0.0729 181:0.0283 182:-0.0627 183:0.0661 184:-0.0522 185:0.0493 186:-0.1216 187:-0.0697 188:-0.0938 189:-0.1301 190:0.2844 191:-0.0157 192:0.0423 193:-0.0109 194:-0.1903 195:-0.3083 196:0.2755 197:0.0964 198:-0.089 199:-0.0204 200:-0.174 201:0.0635 202:14.0 203:-0.0121 204:-0.0236 205:-0.2084 206:0.1068 207:0.064 208:0.1345 209:0.2068 210:-0.0481 211:0.071 212:0.0768 213:-0.0706 214:-0.0494 215:0.0816 216:0.0031 217:-0.206 218:-0.0265 219:-0.1394 220:-0.0658 221:-0.1222 222:-0.1689 223:-0.1546 224:0.0279 225:0.1317 226:0.1144 227:0.0943 228:-0.1946 229:-0.0075 230:-0.0036 231:-0.1906 232:-0.0751 233:0.1106 234:0.0859 235:0.0369 236:-0.1422 237:-0.2193 238:0.0851 239:0.0049 240:0.1229 241:-0.1392 242:-0.1731 243:0.1303 244:0.1693 245:-0.0144 246:0.0597 247:-0.0197 248:-0.0394 249:-0.1649 250:0.1156 251:0.0922 252:0.0014 253:0.2349 254:-0.0911 255:-0.1643 256:0.0508 257:0.1058 258:-0.0058 259:0.1245 260:0.0264 261:-0.2441 262:0.0644 263:0.0539 264:-0.17 265:0.1187 266:-0.0612 267:0.1344 268:-0.0809 269:-0.2503 270:0.0751 271:-0.0978 272:-0.095 273:-0.2781 274:0.0937 275:-0.1832 276:0.2008 277:-0.0522 278:0.186 279:0.2486 280:0.125 281:-0.1836 282:0.1239 283:-0.1745 284:0.0874 285:-0.0052 286:0.077 287:-0.1714 288:-0.0395 289:-0.0741 290:-0.1472 291:0.2045 292:0.0138 293:-0.0683 294:0.0017 295:-0.1858 296:-0.2195 297:0.1668 298:0.0892 299:-0.1251 300:-0.0748 301:-0.1071 302:0.024 303:24.0 317:1.0 
-0.01 1:-0.0429 2:0.0381 3:-0.1447 4:0.1153 5:0.1843 6:0.0911 7:0.2219 8:-0.064 9:-0.0404 10:-0.0476 11:0.0136 12:-0.1153 13:0.0577 14:-0.059 15:-0.1898 16:0.0452 17:-0.1152 18:-0.1597 19:-0.0427 20:-0.1328 21:-0.1442 22:0.0197 23:0.188 24:0.2605 25:0.0072 26:-0.1861 27:-0.1037 28:0.0374 29:-0.1701 30:-0.0976 31:0.2044 32:0.0088 33:0.1398 34:-0.1651 35:-0.2415 36:0.1028 37:0.0423 38:0.0465 39:-0.026 40:-0.3 41:0.2702 42:0.0321 43:-0.0502 44:-0.0439 45:-0.0681 46:0.1581 47:-0.1723 48:0.0181 49:0.1115 50:0.0052 51:0.2372 52:-0.1034 53:-0.1318 54:0.1756 55:0.1983 56:-0.075 57:0.1079 58:0.0486 59:-0.2898 60:0.0025 61:0.0673 62:-0.033 63:0.2222 64:-0.1974 65:-0.0266 66:0.0025 67:-0.2044 68:-0.0877 69:-0.143 70:-0.1109 71:-0.2662 72:0.1403 73:-0.0726 74:0.184 75:-0.0779 76:0.1766 77:0.4041 78:0.0704 79:-0.3195 80:0.0305 81:0.0176 82:0.1398 83:-0.118 84:0.1169 85:-0.1839 86:0.0401 87:0.0015 88:-0.165 89:0.1259 90:-0.1889 91:-0.0785 92:0.0434 93:-0.1475 94:-0.1174 95:0.2724 96:0.1518 97:-0.1231 98:-0.0502 99:-0.2346 100:0.1127 101:13.0 102:0.0206 103:0.0212 104:-0.104 105:0.1941 106:0.1505 107:0.1528 108:0.1413 109:-0.0349 110:-0.0 111:0.1283 112:-0.0447 113:0.0197 114:0.109 115:0.0391 116:-0.1823 117:-0.0166 118:-0.0748 119:-0.0035 120:-0.0636 121:-0.0935 122:-0.0868 123:0.0236 124:0.1418 125:0.1118 126:0.1156 127:-0.1692 128:-0.0537 129:0.0157 130:-0.18 131:-0.1111 132:0.1124 133:0.0863 134:0.0892 135:-0.1422 136:-0.1481 137:0.075 138:-0.0195 139:0.0293 140:-0.1584 141:-0.2135 142:0.1423 143:0.0633 144:-0.0365 145:-0.025 146:-0.1024 147:-0.0274 148:-0.138 149:0.1171 150:0.142 151:-0.0484 152:0.1349 153:-0.0378 154:-0.2501 155:0.1076 156:0.1606 157:0.0279 158:0.0974 159:0.0016 160:-0.2814 161:0.0846 162:0.0671 163:-0.1636 164:0.2116 165:-0.0303 166:0.0909 167:-0.0132 168:-0.2963 169:0.0198 170:-0.08 171:-0.0492 172:-0.229 173:0.1862 174:-0.0693 175:0.2084 176:-0.0796 177:0.2955 178:0.1972 179:0.0764 180:-0.1309 181:0.1049 182:-0.0935 183:0.079 184:-0.0324 185:0.0631 186:-0.143 187:-0.0738 188:-0.1015 189:-0.1479 190:0.2678 191:0.0191 192:0.0138 193:0.0121 194:-0.1835 195:-0.2558 196:0.2385 197:0.0806 198:-0.0826 199:-0.0267 200:-0.1219 201:0.061 202:28.0 203:-0.0484 204:-0.1273 205:-0.2427 206:0.0027 207:-0.022 208:0.0957 209:0.1987 210:-0.0612 211:0.13 212:0.0671 213:-0.07 214:-0.1018 215:0.0175 216:-0.0898 217:-0.2068 218:0.0249 219:-0.1657 220:-0.1661 221:-0.1316 222:-0.165 223:-0.1376 224:0.1001 225:0.0905 226:0.0571 227:0.0793 228:-0.2175 229:-0.0255 230:0.0039 231:-0.2193 232:0.0052 233:0.133 234:0.1422 235:0.0143 236:-0.1331 237:-0.2299 238:0.1186 239:0.0776 240:0.2409 241:-0.0878 242:-0.2323 243:0.1207 244:0.2004 245:0.045 246:0.0611 247:-0.0026 248:-0.027 249:-0.1057 250:0.1048 251:-0.0327 252:-0.0332 253:0.2943 254:-0.2079 255:-0.066 256:0.0753 257:0.0888 258:0.0022 259:0.14 260:0.0798 261:-0.2313 262:0.0388 263:0.0268 264:-0.2432 265:0.0693 266:-0.1295 267:0.1151 268:-0.1215 269:-0.2247 270:0.073 271:-0.1401 272:-0.1235 273:-0.2583 274:-0.0125 275:-0.2002 276:0.2392 277:0.0352 278:0.1193 279:0.2046 280:0.1446 281:-0.17 282:0.0385 283:-0.238 284:0.0801 285:0.0025 286:0.0757 287:-0.1783 288:0.0123 289:-0.0264 290:-0.1206 291:0.144 292:-0.0436 293:-0.1367 294:-0.0454 295:-0.1986 296:-0.2467 297:0.1245 298:0.1236 299:-0.1911 300:-0.1298 301:-0.1624 302:-0.0218 303:10.0 318:1.0 
-0.01 1:0.0128 2:0.284 3:0.0438 4:0.1626 5:0.0636 6:0.0526 7:0.0304 8:-0.171 9:0.0484 10:0.067 11:0.0177 12:-0.2128 13:0.0137 14:0.0686 15:-0.1854 16:0.0018 17:0.0579 18:-0.2997 19:-0.4278 20:0.0423 21:-0.0526 22:0.0536 23:0.1915 24:-0.1293 25:0.1096 26:-0.3022 27:0.0551 28:0.0127 29:-0.2559 30:-0.1703 31:-0.0594 32:0.1661 33:0.2026 34:0.0939 35:0.167 36:0.1364 37:-0.1166 38:0.1121 39:0.0256 40:-0.2603 41:0.2239 42:-0.0427 43:0.0099 44:-0.2449 45:-0.1079 46:-0.0912 47:-0.0277 48:0.0285 49:-0.0744 50:0.0614 51:0.1502 52:-0.1855 53:-0.0933 54:0.1941 55:0.0817 56:0.0833 57:0.2068 58:0.0805 59:-0.1767 60:0.1757 61:0.1065 62:-0.2725 63:0.1832 64:-0.2936 65:-0.0596 66:-0.0468 67:-0.0984 68:-0.0436 69:-0.1663 70:0.1452 71:-0.1782 72:0.1487 73:-0.1978 74:0.1847 75:-0.0103 76:0.1637 77:0.2314 78:0.1178 79:-0.2795 80:-0.0349 81:-0.2356 82:0.092 83:-0.1355 84:-0.0557 85:-0.0389 86:-0.1387 87:-0.1654 88:-0.2241 89:0.4025 90:0.0752 91:-0.2409 92:-0.2242 93:-0.0632 94:-0.1764 95:0.1555 96:0.1073 97:-0.2308 98:2.0E-4 99:-0.2554 100:0.1039 101:7.0 102:-0.017 103:-0.0607 104:-0.1221 105:0.1243 106:-0.0099 107:0.1348 108:0.1623 109:-0.1234 110:0.0099 111:0.1198 112:-0.0042 113:-0.0548 114:0.0897 115:-0.0585 116:-0.1646 117:0.01 118:-0.08 119:-0.104 120:-0.1826 121:-0.2277 122:-0.1332 123:-0.0121 124:0.1607 125:0.0679 126:0.1383 127:-0.1372 128:0.0191 129:-0.0859 130:-0.1697 131:-0.1423 132:0.0799 133:0.0933 134:0.0761 135:-0.1175 136:-0.2146 137:0.0664 138:0.0374 139:0.0348 140:-0.0353 141:-0.2149 142:0.205 143:0.0716 144:0.053 145:-0.0688 146:-0.0876 147:-0.0097 148:-0.1144 149:0.0528 150:0.0344 151:0.0632 152:0.1826 153:-0.0863 154:-0.1445 155:0.0474 156:0.075 157:0.074 158:0.1904 159:0.0184 160:-0.2913 161:0.1203 162:0.0269 163:-0.1582 164:0.0948 165:-0.2361 166:0.0575 167:-0.0166 168:-0.2142 169:-0.0551 170:-0.0243 171:-0.1452 172:-0.2053 173:0.1151 174:-0.2156 175:0.1266 176:-0.0538 177:0.2435 178:0.2443 179:0.1447 180:-0.1766 181:0.1092 182:-0.1421 183:0.0752 184:-0.1719 185:0.0427 186:-0.096 187:0.0425 188:-0.0267 189:-0.1401 190:0.2414 191:-0.049 192:-0.1247 193:-0.0861 194:-0.1101 195:-0.1853 196:0.0881 197:0.1621 198:-0.1356 199:-0.0326 200:-0.1482 201:-0.0457 202:27.0 203:-0.3119 204:-0.1495 205:-0.2316 206:0.3223 207:0.1172 208:-0.1009 209:0.2783 210:-0.3208 211:0.0306 212:0.0251 213:-0.032 214:-0.0918 215:-0.0464 216:-0.0218 217:-0.1962 218:0.2474 219:-0.3986 220:-0.1519 221:-0.0947 222:-0.3957 223:0.1294 224:-0.0343 225:0.3196 226:0.0346 227:0.099 228:-0.356 229:0.1172 230:0.0525 231:-0.137 232:-0.0657 233:-0.0698 234:0.126 235:0.0445 236:-0.0799 237:-0.273 238:0.0748 239:-0.0122 240:0.0196 241:-0.1807 242:-0.3361 243:0.1746 244:0.442 245:0.12 246:0.1225 247:-0.2857 248:-0.0327 249:-0.1023 250:0.2443 251:-0.0488 252:0.1961 253:0.2141 254:-0.1981 255:-0.1293 256:0.3913 257:0.0708 258:0.0213 259:-0.0809 260:0.045 261:-0.0668 262:0.2407 263:0.1461 264:-0.0142 265:0.1488 266:-0.0974 267:0.1133 268:-0.0333 269:-0.071 270:0.0343 271:0.0441 272:-0.2936 273:-0.0563 274:-0.1343 275:-0.0974 276:0.2746 277:0.0326 278:0.2122 279:0.1094 280:0.0664 281:-0.0346 282:0.2104 283:-0.1845 284:0.1972 285:0.0797 286:0.073 287:0.0188 288:0.074 289:-0.1222 290:-0.3404 291:0.3827 292:-0.0705 293:0.0463 294:0.0298 295:0.0214 296:-0.2716 297:0.0831 298:0.042 299:-0.1492 300:-0.0081 301:-0.3399 302:-0.0506 303:1.0 328:1.0 
-0.01 1:0.0 2:0.0 3:0.0 4:0.0 5:0.0 6:0.0 7:0.0 8:0.0 9:0.0 10:0.0 11:0.0 12:0.0 13:0.0 14:0.0 15:0.0 16:0.0 17:0.0 18:0.0 19:0.0 20:0.0 21:0.0 22:0.0 23:0.0 24:0.0 25:0.0 26:0.0 27:0.0 28:0.0 29:0.0 30:0.0 31:0.0 32:0.0 33:0.0 34:0.0 35:0.0 36:0.0 37:0.0 38:0.0 39:0.0 40:0.0 41:0.0 42:0.0 43:0.0 44:0.0 45:0.0 46:0.0 47:0.0 48:0.0 49:0.0 50:0.0 51:0.0 52:0.0 53:0.0 54:0.0 55:0.0 56:0.0 57:0.0 58:0.0 59:0.0 60:0.0 61:0.0 62:0.0 63:0.0 64:0.0 65:0.0 66:0.0 67:0.0 68:0.0 69:0.0 70:0.0 71:0.0 72:0.0 73:0.0 74:0.0 75:0.0 76:0.0 77:0.0 78:0.0 79:0.0 80:0.0 81:0.0 82:0.0 83:0.0 84:0.0 85:0.0 86:0.0 87:0.0 88:0.0 89:0.0 90:0.0 91:0.0 92:0.0 93:0.0 94:0.0 95:0.0 96:0.0 97:0.0 98:0.0 99:0.0 100:0.0 101:0.0 102:0.0257 103:-0.0329 104:-0.2437 105:0.1588 106:0.0438 107:0.0663 108:0.2527 109:0.0285 110:0.0338 111:0.1241 112:-0.1331 113:-0.0935 114:-0.0367 115:0.0 116:-0.1124 117:0.0138 118:-0.0627 119:-0.1809 120:-0.0838 121:-0.1269 122:-0.0748 123:-0.0511 124:0.1598 125:0.305 126:0.1902 127:-0.1561 128:-0.1242 129:0.0358 130:-0.1992 131:-0.1859 132:0.1119 133:0.0788 134:0.0058 135:-0.165 136:-0.3084 137:0.0277 138:-0.0669 139:0.0343 140:-0.1707 141:-0.1718 142:0.0972 143:0.1298 144:0.0377 145:-0.087 146:-0.2209 147:0.0217 148:-0.2564 149:0.0284 150:0.1379 151:0.189 152:0.1935 153:-0.158 154:-0.0717 155:0.1153 156:0.2087 157:-0.0997 158:0.1632 159:-0.02 160:-0.1954 161:0.1059 162:0.0327 163:-0.1354 164:0.0885 165:-0.0184 166:0.14 167:0.0915 168:-0.3909 169:-0.0597 170:-0.0618 171:0.0614 172:-0.2353 173:0.0877 174:-0.0618 175:0.0379 176:0.0084 177:0.2339 178:0.2454 179:0.0219 180:-0.1309 181:0.1111 182:-0.1732 183:0.014 184:-0.0192 185:0.0668 186:-0.076 187:-0.0624 188:-0.0535 189:-0.1488 190:0.2679 191:0.0512 192:0.0511 193:-0.0522 194:-0.189 195:-0.1911 196:0.2138 197:0.0691 198:-0.1408 199:0.0045 200:-0.1004 201:0.053 202:6.0 203:0.0035 204:0.0453 205:-0.1852 206:0.1613 207:0.3078 208:0.1295 209:0.1122 210:-0.0333 211:0.0423 212:0.0241 213:0.0693 214:-0.0979 215:0.1298 216:-0.0085 217:-0.1038 218:-0.0429 219:0.012 220:-0.2201 221:0.0884 222:-0.2505 223:0.0049 224:-0.0148 225:0.2263 226:0.0598 227:0.1656 228:-0.0943 229:0.008 230:0.1207 231:-0.1864 232:-0.1966 233:-0.0136 234:-0.066 235:0.0957 236:-0.2231 237:-0.1947 238:0.0333 239:-0.0751 240:-0.0186 241:-0.1168 242:-0.253 243:0.2353 244:0.1798 245:0.1487 246:-0.0789 247:-0.2252 248:0.0102 249:-0.1691 250:0.0048 251:0.116 252:-0.0974 253:0.1142 254:-0.2146 255:-0.1886 256:0.3172 257:0.335 258:-0.0416 259:-0.0861 260:-0.104 261:-0.2515 262:0.1065 263:-0.014 264:-0.1797 265:0.2453 266:0.0946 267:0.2043 268:-0.0751 269:-0.2737 270:-0.0264 271:-0.114 272:-0.0658 273:0.0244 274:0.2222 275:-0.0425 276:0.3265 277:-0.1333 278:0.3692 279:0.2144 280:0.1303 281:-0.0903 282:0.246 283:-0.0784 284:0.0246 285:0.0482 286:0.0378 287:0.0043 288:-0.2403 289:-0.0842 290:-0.2468 291:0.2305 292:0.0536 293:0.0392 294:-0.1103 295:-0.1559 296:-0.2902 297:0.5116 298:0.1018 299:-0.0573 300:0.1259 301:-0.2642 302:-0.0065 303:5.0 329:1.0 
-0.01 1:0.0169 2:-0.0797 3:-0.0498 4:0.2485 5:-0.0939 6:0.2843 7:0.1438 8:0.0573 9:-0.1357 10:0.0392 11:-0.0385 12:-0.3013 13:0.0515 14:0.046 15:-0.1053 16:0.0537 17:0.0361 18:-0.2413 19:-0.0513 20:-0.1111 21:-0.1376 22:0.038 23:0.2505 24:0.0716 25:0.1609 26:-0.0022 27:-0.0445 28:-0.1274 29:-0.1797 30:-0.1033 31:0.0536 32:0.0821 33:0.0256 34:-0.1076 35:-0.1628 36:0.1502 37:-0.0266 38:-3.0E-4 39:-0.0177 40:-0.2849 41:0.2126 42:0.148 43:0.0111 44:-0.0601 45:-0.0661 46:0.0116 47:-0.0949 48:0.1629 49:0.0218 50:-0.0017 51:0.2053 52:-0.2273 53:-0.1101 54:0.2496 55:0.1611 56:-0.0919 57:0.0414 58:0.0226 59:-0.33 60:0.1253 61:-0.0094 62:-0.174 63:0.1719 64:-0.1593 65:0.1504 66:-0.111 67:-0.2367 68:-0.0534 69:-0.1379 70:-0.0045 71:-0.1612 72:0.0936 73:-0.043 74:0.124 75:0.1561 76:0.2114 77:0.0993 78:0.0832 79:-0.1732 80:0.1467 81:-0.2041 82:0.1074 83:0.0681 84:-0.0069 85:-0.1275 86:-0.0235 87:0.0714 88:-0.1904 89:0.3246 90:-0.0646 91:-0.128 92:-0.1066 93:-0.0923 94:-0.2902 95:0.3652 96:0.1339 97:0.0206 98:0.0456 99:-0.235 100:-0.1196 101:19.0 102:0.0 103:0.0 104:0.0 105:0.0 106:0.0 107:0.0 108:0.0 109:0.0 110:0.0 111:0.0 112:0.0 113:0.0 114:0.0 115:0.0 116:0.0 117:0.0 118:0.0 119:0.0 120:0.0 121:0.0 122:0.0 123:0.0 124:0.0 125:0.0 126:0.0 127:0.0 128:0.0 129:0.0 130:0.0 131:0.0 132:0.0 133:0.0 134:0.0 135:0.0 136:0.0 137:0.0 138:0.0 139:0.0 140:0.0 141:0.0 142:0.0 143:0.0 144:0.0 145:0.0 146:0.0 147:0.0 148:0.0 149:0.0 150:0.0 151:0.0 152:0.0 153:0.0 154:0.0 155:0.0 156:0.0 157:0.0 158:0.0 159:0.0 160:0.0 161:0.0 162:0.0 163:0.0 164:0.0 165:0.0 166:0.0 167:0.0 168:0.0 169:0.0 170:0.0 171:0.0 172:0.0 173:0.0 174:0.0 175:0.0 176:0.0 177:0.0 178:0.0 179:0.0 180:0.0 181:0.0 182:0.0 183:0.0 184:0.0 185:0.0 186:0.0 187:0.0 188:0.0 189:0.0 190:0.0 191:0.0 192:0.0 193:0.0 194:0.0 195:0.0 196:0.0 197:0.0 198:0.0 199:0.0 200:0.0 201:0.0 202:0.0 203:-0.0861 204:-0.0347 205:-0.1826 206:0.0962 207:0.0198 208:0.1057 209:0.1035 210:0.0081 211:0.02 212:0.1276 213:-0.1166 214:-0.1363 215:0.0888 216:-0.0575 217:-0.1844 218:0.0234 219:-0.0501 220:-0.1813 221:-0.1726 222:-0.1681 223:-0.0784 224:-0.0354 225:0.2113 226:0.0252 227:0.2016 228:-0.1657 229:-0.0131 230:-0.1005 231:-0.118 232:-0.0846 233:-0.0231 234:0.1348 235:0.0081 236:-0.1041 237:-0.257 238:0.1073 239:-0.0095 240:0.1033 241:-0.07 242:-0.2288 243:0.1858 244:0.1334 245:0.0282 246:0.0052 247:-0.1621 248:-0.0571 249:-0.0212 250:0.1862 251:0.0031 252:0.0321 253:0.191 254:-0.2332 255:-0.1336 256:0.1337 257:0.0691 258:-0.1142 259:0.1094 260:0.0567 261:-0.1656 262:0.1358 263:0.0884 264:-0.1401 265:0.0524 266:-0.2072 267:0.0468 268:-0.1074 269:-0.2238 270:-0.0548 271:-0.0848 272:-0.1013 273:-0.1939 274:0.0959 275:-0.1383 276:0.2022 277:-0.0066 278:0.2242 279:0.2529 280:0.0576 281:-0.1427 282:0.1901 283:-0.2304 284:0.0612 285:0.0872 286:0.0048 287:-0.1365 288:-0.0445 289:-0.0167 290:-0.1295 291:0.2304 292:0.0536 293:-0.1488 294:-0.085 295:-0.0495 296:-0.2071 297:0.1628 298:0.0967 299:-0.1356 300:-0.0328 301:-0.159 302:-0.0527 303:17.0 304:1.0 
