svm_type c_svc
kernel_type linear
nr_class 2
total_sv 28
rho -0.9715851671645703
label 1 -1
nr_sv 19 9
SV
0.0030850435500969775 1:0.0 2:0.0 3:0.0 4:0.0 5:0.0 6:0.0 7:0.0 8:0.0 9:0.0 10:0.0 11:0.0 12:0.0 13:0.0 14:0.0 15:0.0 16:0.0 17:0.0 18:0.0 19:0.0 20:0.0 21:0.0 22:0.0 23:0.0 24:0.0 25:0.0 26:0.0 27:0.0 28:0.0 29:0.0 30:0.0 31:0.0 32:0.0 33:0.0 34:0.0 35:0.0 36:0.0 37:0.0 38:0.0 39:0.0 40:0.0 41:0.0 42:0.0 43:0.0 44:0.0 45:0.0 46:0.0 47:0.0 48:0.0 49:0.0 50:0.0 51:0.0 52:0.0 53:0.0 54:0.0 55:0.0 56:0.0 57:0.0 58:0.0 59:0.0 60:0.0 61:0.0 62:0.0 63:0.0 64:0.0 65:0.0 66:0.0 67:0.0 68:0.0 69:0.0 70:0.0 71:0.0 72:0.0 73:0.0 74:0.0 75:0.0 76:0.0 77:0.0 78:0.0 79:0.0 80:0.0 81:0.0 82:0.0 83:0.0 84:0.0 85:0.0 86:0.0 87:0.0 88:0.0 89:0.0 90:0.0 91:0.0 92:0.0 93:0.0 94:0.0 95:0.0 96:0.0 97:0.0 98:0.0 99:0.0 100:0.0 101:0.0 102:0.0647 103:0.7206 104:-0.3554 105:-0.2097 106:0.4826 107:0.3636 108:0.6393 109:-0.1308 110:0.2659 111:-0.0363 112:-0.2039 113:0.0704 114:-0.1972 115:0.0375 116:-0.3207 117:0.5642 118:-0.2519 119:-0.3246 120:0.5483 121:-0.4365 122:0.5885 123:0.4973 124:0.2485 125:0.4984 126:-0.5829 127:0.2045 128:-0.818 129:0.1298 130:-0.28 131:0.4604 132:-0.126 133:0.1127 134:0.1807 135:-0.0059 136:-0.343 137:-0.3389 138:0.3748 139:-0.2168 140:-0.4825 141:-0.0248 142:-0.0067 143:-0.3108 144:-0.6795 145:-0.611 146:0.1719 147:0.658 148:-0.062 149:-0.2903 150:0.246 151:0.7963 152:-0.0071 153:-0.0219 154:-0.1672 155:0.044 156:0.2968 157:-0.2036 158:0.0411 159:-0.6856 160:-0.4808 161:-0.2816 162:0.1647 163:0.4131 164:0.2377 165:-0.0516 166:0.0564 167:-0.1223 168:-0.0857 169:0.7653 170:0.0128 171:-0.1926 172:0.4321 173:0.0736 174:0.2033 175:-0.5098 176:-0.09 177:0.3684 178:0.053 179:0.1233 180:0.0588 181:-0.1541 182:0.2007 183:-0.0642 184:0.0425 185:-0.253 186:-0.041 187:-0.2457 188:0.3931 189:0.255 190:-0.6774 191:-0.0927 192:-0.383 193:-0.3863 194:-0.317 195:0.2475 196:0.1254 197:-0.0161 198:-0.1901 199:0.3927 200:0.1267 201:0.2834 202:2.0 203:0.1678 204:0.2181 205:-0.2541 206:0.0183 207:0.1601 208:0.3126 209:0.0499 210:-0.1751 211:0.0092 212:0.2105 213:0.0957 214:-0.0934 215:0.0643 216:0.0308 217:0.0782 218:0.2091 219:-0.1665 220:0.0956 221:-0.1088 222:-0.2087 223:-0.131 224:0.0344 225:0.1179 226:0.2054 227:0.1085 228:-0.0232 229:-0.0841 230:-0.0311 231:-0.2792 232:-0.1047 233:0.0279 234:0.2491 235:-0.1296 236:-0.0467 237:-0.0702 238:0.2104 239:-0.1386 240:0.0788 241:-0.008 242:-0.0227 243:0.0984 244:-0.1138 245:-0.2185 246:-0.183 247:0.0336 248:0.1189 249:0.0349 250:0.1488 251:0.1666 252:-0.0482 253:0.1811 254:-0.1366 255:0.068 256:0.223 257:0.0957 258:0.1005 259:0.0321 260:-0.1452 261:-0.2422 262:-0.026 263:0.1692 264:0.1791 265:0.1063 266:0.0835 267:0.0864 268:-0.1792 269:-0.0914 270:0.078 271:0.2025 272:-0.0104 273:-0.0148 274:0.1415 275:-0.0568 276:-0.0398 277:-0.1374 278:0.2265 279:0.0852 280:0.1581 281:0.1094 282:-0.1591 283:-0.2661 284:-0.1172 285:-0.0265 286:-0.072 287:0.041 288:-0.0084 289:-0.0149 290:-0.2451 291:-0.0381 292:-0.0291 293:-0.1823 294:-0.0161 295:-0.5473 296:-0.0817 297:-0.0298 298:-0.0063 299:-0.0168 300:0.0391 301:-0.1527 302:0.154 303:41.0 304:1.0 
0.005606280139824625 1:0.5237 2:0.3815 3:-0.1421 4:0.3088 5:0.6345 6:0.5296 7:0.14 8:-0.2529 9:-0.2731 10:0.5417 11:0.0446 12:-0.0911 13:0.1259 14:0.261 15:-0.1013 16:0.881 17:-0.333 18:0.0337 19:0.0168 20:-0.416 21:-0.196 22:0.2693 23:0.5449 24:0.8795 25:-0.1156 26:0.0974 27:-0.4923 28:0.313 29:-0.5596 30:-0.4421 31:0.0529 32:0.2503 33:0.0897 34:-0.3818 35:-0.5121 36:0.4417 37:-0.1849 38:-0.1139 39:-0.2303 40:-0.0183 41:-0.2912 42:-0.359 43:-0.6212 44:-0.6278 45:0.3705 46:0.3216 47:-0.2415 48:0.104 49:0.1583 50:-0.0051 51:0.5209 52:-0.7488 53:-0.0921 54:0.3873 55:0.6492 56:0.2693 57:-0.0803 58:-0.3661 59:-0.5298 60:-0.3419 61:0.4253 62:0.5926 63:-0.2701 64:0.0112 65:-0.0395 66:-0.3698 67:0.1316 68:0.8389 69:-0.0429 70:-0.2186 71:-0.0096 72:0.6736 73:0.0064 74:-0.24 75:-0.3426 76:0.4144 77:0.2691 78:0.3709 79:0.409 80:-0.6806 81:-0.1475 82:-0.1937 83:-0.3151 84:-0.0645 85:0.4389 86:0.1648 87:-0.0278 88:-0.3551 89:-0.1375 90:-0.3494 91:-0.5102 92:0.142 93:-1.3279 94:-0.1397 95:-0.0337 96:-0.1356 97:0.0122 98:0.1394 99:-0.3254 100:0.4562 101:5.0 102:0.1847 103:0.2146 104:-0.2457 105:0.1068 106:0.2268 107:0.3016 108:0.0538 109:-0.0107 110:-0.0343 111:0.2574 112:0.0889 113:0.1093 114:0.0394 115:-0.0669 116:0.1484 117:0.1332 118:-0.1194 119:0.0442 120:-0.1812 121:-0.1979 122:0.0045 123:0.0635 124:0.0578 125:0.0739 126:0.11 127:-0.0084 128:-0.0881 129:-0.0674 130:-0.1693 131:-0.0861 132:-0.0036 133:0.3168 134:-0.2158 135:-0.0575 136:-0.094 137:0.26 138:-0.0888 139:-0.023 140:-0.0862 141:-0.1192 142:0.108 143:-0.1235 144:-0.2555 145:-0.1662 146:-0.0748 147:0.074 148:0.133 149:0.1803 150:0.1488 151:-0.025 152:0.1453 153:-0.1103 154:0.259 155:0.3081 156:0.0358 157:-0.0126 158:0.015 159:-0.1274 160:-0.1676 161:-0.0082 162:0.1072 163:0.2349 164:0.091 165:0.2386 166:0.0854 167:-0.0775 168:-0.0842 169:-0.1103 170:0.1633 171:0.0111 172:0.0045 173:0.0702 174:0.0511 175:-0.0942 176:-0.2096 177:0.1388 178:0.1123 179:0.1945 180:0.1525 181:0.0192 182:-0.2689 183:0.0238 184:-0.0336 185:-0.0799 186:-0.025 187:-0.0063 188:-0.0761 189:-0.1904 190:-0.0373 191:0.1127 192:-0.1725 193:0.0138 194:-0.3628 195:-0.1916 196:0.1522 197:0.1446 198:-0.0052 199:0.0161 200:-0.0942 201:0.0542 202:9.0 203:0.1078 204:0.2138 205:-0.2764 206:-0.0598 207:0.0824 208:0.287 209:0.0569 210:-0.2153 211:0.0727 212:0.1393 213:0.0945 214:-0.153 215:0.0541 216:0.0295 217:0.0671 218:0.1501 219:-0.161 220:0.1059 221:-0.08 222:-0.1907 223:-0.1395 224:0.008 225:0.0808 226:0.1618 227:0.1153 228:-0.0371 229:-0.0508 230:-0.0628 231:-0.2745 232:-0.0423 233:0.029 234:0.2223 235:-0.1221 236:0.0062 237:-0.0092 238:0.1418 239:-0.1297 240:0.1284 241:0.032 242:0.0076 243:0.1472 244:-0.0827 245:-0.1655 246:-0.1402 247:0.0253 248:0.1237 249:0.0394 250:0.1294 251:0.1763 252:-0.0317 253:0.1373 254:-0.0535 255:0.021 256:0.1658 257:0.043 258:0.1019 259:0.054 260:-0.1387 261:-0.2337 262:0.0042 263:0.1524 264:0.1104 265:0.1697 266:0.0391 267:0.1036 268:-0.1826 269:-0.1253 270:0.0544 271:0.2433 272:0.006 273:-0.0058 274:0.086 275:-0.0913 276:-0.0106 277:-0.0832 278:0.2329 279:0.0491 280:0.1148 281:0.051 282:-0.1417 283:-0.2654 284:-0.1497 285:0.0194 286:-0.0769 287:0.0025 288:-0.0422 289:0.0211 290:-0.2291 291:-0.047 292:-0.0311 293:-0.1458 294:-0.0616 295:-0.4868 296:-0.0263 297:-0.0821 298:-0.0366 299:-0.0309 300:0.0447 301:-0.1368 302:0.1476 303:29.0 305:1.0 
0.0024207300112441426 1:0.1162 2:-0.0179 3:-0.3699 4:-0.1903 5:0.1584 6:0.2509 7:0.0308 8:-0.091 9:-0.2402 10:0.2654 11:-0.0215 12:-0.0193 13:0.0799 14:0.0258 15:0.026 16:0.2072 17:-0.2476 18:0.0737 19:-0.0152 20:-0.1103 21:0.0634 22:-0.0787 23:0.0811 24:0.0307 25:-0.0995 26:0.0164 27:-0.0438 28:-0.1621 29:-0.1839 30:0.0143 31:-0.1822 32:0.2405 33:-0.2787 34:0.0193 35:-0.1821 36:0.2647 37:-0.2516 38:0.054 39:-0.0843 40:0.076 41:0.1642 42:0.0042 43:-0.0331 44:-0.1116 45:0.0246 46:0.0891 47:0.0377 48:0.0294 49:-0.0636 50:-0.0996 51:0.054 52:-0.1534 53:0.0819 54:0.2784 55:0.0494 56:0.2612 57:0.122 58:-0.1019 59:-0.1835 60:-0.0086 61:0.1586 62:0.1561 63:0.2321 64:0.1048 65:0.0221 66:-0.0874 67:-0.0599 68:0.0877 69:0.2584 70:0.1236 71:-0.2733 72:-0.0362 73:0.1208 74:-0.0184 75:-0.1001 76:0.2128 77:-0.1266 78:0.0209 79:0.039 80:0.0367 81:-0.0746 82:-0.0722 83:0.0928 84:-0.1107 85:-0.0944 86:-0.1301 87:0.0242 88:-0.3926 89:-0.0588 90:0.1497 91:-0.3278 92:0.0114 93:-0.3755 94:-0.0587 95:0.134 96:0.0954 97:0.0724 98:0.0869 99:-0.2225 100:0.1689 101:8.0 102:0.0362 103:0.0227 104:-0.1835 105:0.1382 106:-0.1924 107:0.0569 108:0.1429 109:-0.1085 110:-0.1418 111:0.2726 112:0.2109 113:-0.1353 114:0.1028 115:-0.0313 116:0.0245 117:-2.0E-4 118:-0.0833 119:0.0047 120:0.0261 121:-0.4582 122:-0.127 123:-0.0415 124:0.1329 125:0.1119 126:0.2232 127:-0.0798 128:-0.0238 129:-0.1681 130:0.0504 131:-0.3199 132:0.0072 133:0.3814 134:-0.0045 135:0.3895 136:-0.0851 137:0.0989 138:0.0243 139:0.1897 140:-0.0533 141:0.1477 142:0.1356 143:-0.2848 144:-0.012 145:-0.3702 146:-0.3472 147:-0.1233 148:0.2157 149:0.2111 150:0.0974 151:-0.0622 152:-0.0227 153:-0.3134 154:0.0655 155:0.288 156:0.0586 157:-0.2345 158:0.2232 159:-0.0075 160:-0.2621 161:-0.1855 162:0.3097 163:-0.1719 164:-0.0459 165:-0.062 166:-0.0195 167:-0.2502 168:0.047 169:-0.1731 170:0.1465 171:-0.0612 172:-0.0285 173:-0.0332 174:-3.0E-4 175:0.1511 176:-0.0342 177:0.2302 178:-0.0936 179:0.2312 180:0.0815 181:0.2863 182:-0.2464 183:-0.1401 184:0.0377 185:0.0011 186:0.0951 187:0.321 188:-0.0234 189:-0.1153 190:-0.2969 191:0.1861 192:-0.3118 193:-0.0096 194:-0.4791 195:-0.0907 196:0.0313 197:0.0129 198:-0.0681 199:0.367 200:0.0351 201:-0.2827 202:2.0 203:0.1781 204:0.0848 205:-0.3777 206:-0.0553 207:0.1805 208:0.1176 209:0.0086 210:-0.3443 211:0.0289 212:0.1616 213:0.1591 214:0.1424 215:-0.0871 216:0.1295 217:-0.0266 218:0.1388 219:-0.1485 220:-0.1113 221:0.0449 222:-0.1131 223:-0.1174 224:0.0532 225:-0.0828 226:0.1534 227:0.0326 228:-0.1849 229:0.011 230:-0.1103 231:-0.2689 232:0.1014 233:0.0325 234:0.2758 235:-0.1129 236:-0.1385 237:-0.0697 238:0.1343 239:-0.1082 240:0.2288 241:0.0065 242:0.004 243:0.0444 244:-0.0783 245:-0.1201 246:-0.1723 247:-0.0107 248:0.1468 249:-0.0743 250:-0.0642 251:0.0782 252:-0.0587 253:0.128 254:-0.1655 255:-0.0873 256:0.3268 257:0.0558 258:0.1062 259:-0.0324 260:-0.1842 261:-0.0679 262:-0.2243 263:0.0854 264:0.0216 265:0.2428 266:0.0719 267:0.1271 268:-0.1029 269:-0.1188 270:0.0792 271:0.2222 272:-0.0478 273:0.0594 274:-0.0771 275:-0.0417 276:0.0753 277:0.1856 278:0.1614 279:0.0512 280:0.0719 281:0.1339 282:-0.0128 283:-0.1758 284:-0.2178 285:0.0796 286:0.0357 287:0.2162 288:-0.1889 289:0.0354 290:-0.3528 291:-0.1465 292:0.0631 293:-0.0732 294:-0.0195 295:-0.4968 296:-0.0591 297:-0.0724 298:-0.0367 299:0.1029 300:0.1857 301:-0.106 302:-0.0704 303:4.0 308:1.0 
0.007918247849379757 1:0.0074 2:0.1052 3:-0.2162 4:-0.1624 5:0.0324 6:0.3115 7:-0.0119 8:-0.0911 9:-0.0507 10:0.1524 11:0.0716 12:-0.0041 13:0.0894 14:-0.0183 15:-0.1263 16:0.1651 17:-0.0478 18:0.0294 19:-0.0667 20:-0.157 21:-0.0569 22:-0.0058 23:0.0762 24:0.1527 25:0.0455 26:-0.0719 27:0.0718 28:-0.1861 29:-0.2761 30:0.0442 31:-0.0175 32:0.2691 33:-0.1871 34:0.0617 35:-0.024 36:0.0936 37:-0.1984 38:0.151 39:0.1508 40:0.0863 41:0.213 42:-0.012 43:-0.1256 44:-0.0596 45:-0.1531 46:0.0332 47:0.135 48:-0.0242 49:0.0473 50:0.0065 51:0.147 52:-0.0807 53:-0.0509 54:0.2191 55:0.0415 56:0.2185 57:0.0872 58:-0.0813 59:-0.1487 60:0.0117 61:0.2177 62:0.0535 63:0.2129 64:0.1054 65:0.1807 66:-0.0665 67:-0.0549 68:-0.0438 69:0.2743 70:0.002 71:-0.0993 72:-0.0721 73:0.0639 74:0.0883 75:0.0258 76:0.2813 77:-0.0654 78:0.0536 79:0.0483 80:-0.0528 81:-0.2465 82:-0.1386 83:0.0665 84:-0.065 85:0.025 86:-0.0575 87:-0.0068 88:-0.3741 89:-0.1362 90:0.1809 91:-0.1652 92:-0.0479 93:-0.3133 94:-0.0335 95:0.05 96:0.1307 97:-0.0306 98:0.1694 99:-0.1818 100:0.0092 101:12.0 102:-0.2127 103:0.4242 104:-0.3445 105:0.0721 106:0.094 107:0.1941 108:-0.2311 109:0.0059 110:0.2441 111:-0.1502 112:-0.4538 113:0.1586 114:-0.1459 115:-0.1512 116:0.1569 117:-0.2106 118:-0.1334 119:0.0979 120:-0.225 121:-0.0117 122:0.0741 123:-0.0162 124:0.0111 125:0.1232 126:0.0019 127:-0.4095 128:-0.0936 129:0.1409 130:-0.1157 131:0.058 132:0.1872 133:0.3156 134:-0.1923 135:0.2727 136:-0.0922 137:0.0417 138:-0.115 139:-0.0902 140:-0.2116 141:-0.2687 142:0.1813 143:0.2376 144:-0.1979 145:-0.1455 146:-0.1951 147:-0.1151 148:0.3887 149:0.4392 150:-0.1883 151:0.1067 152:-0.0803 153:-0.1108 154:0.0723 155:0.4422 156:0.1069 157:0.0426 158:0.0117 159:-0.0059 160:-0.2275 161:-0.1286 162:0.079 163:-0.2036 164:0.3343 165:0.0137 166:0.0024 167:0.2691 168:0.0841 169:-0.2214 170:0.2553 171:0.0395 172:0.174 173:-0.1112 174:0.23 175:0.023 176:-0.1104 177:-0.0021 178:0.1316 179:-0.1797 180:0.0342 181:-0.1089 182:-0.5323 183:-0.2161 184:0.1627 185:0.0143 186:-0.1947 187:0.2592 188:-0.0169 189:-0.1528 190:-0.0311 191:0.1649 192:-0.3696 193:-0.1628 194:-0.5522 195:-0.1008 196:0.1902 197:0.4253 198:-0.0352 199:0.2988 200:0.1137 201:0.3541 202:1.0 203:-0.0253 204:0.1884 205:-0.3442 206:0.0725 207:-0.0212 208:0.2606 209:0.146 210:-0.3079 211:0.1442 212:0.0305 213:-0.0715 214:0.1304 215:0.2416 216:-0.1087 217:0.0982 218:0.0659 219:-0.1865 220:-0.1861 221:-0.0248 222:-0.1462 223:-0.0554 224:-0.1818 225:0.1807 226:-0.0145 227:0.0455 228:-0.277 229:0.1711 230:-0.0264 231:-0.2543 232:-0.1738 233:-0.0145 234:0.5808 235:-0.2351 236:-0.0508 237:0.0539 238:0.1846 239:-0.2333 240:0.0475 241:0.2488 242:-0.0534 243:0.2071 244:0.1466 245:0.0084 246:-0.1378 247:-0.055 248:0.0151 249:0.1255 250:0.1003 251:0.0868 252:-0.0664 253:0.0661 254:0.0715 255:0.0049 256:0.5046 257:-0.1262 258:0.099 259:-0.0316 260:-0.2677 261:0.1479 262:-0.1078 263:0.1759 264:0.2724 265:0.2204 266:-0.1928 267:0.2557 268:-0.1613 269:-0.0858 270:0.0791 271:0.1736 272:-0.2708 273:0.1756 274:-0.3309 275:-0.1021 276:0.0349 277:-0.0055 278:0.0639 279:-0.0541 280:0.0741 281:0.0603 282:0.3283 283:-0.3162 284:0.0059 285:-0.082 286:0.0624 287:0.2462 288:-0.1242 289:-0.1247 290:-0.2171 291:-0.0918 292:0.0169 293:-0.0947 294:-0.2483 295:-0.4772 296:-0.0422 297:-0.1026 298:0.0317 299:0.1897 300:0.1211 301:0.0224 302:-0.0576 303:1.0 309:1.0 
8.03479821680506E-4 1:0.0899 2:0.3062 3:-0.3229 4:-0.0433 5:0.2764 6:0.3649 7:-0.0695 8:-0.1126 9:0.0801 10:0.1781 11:0.1111 12:0.0354 13:0.258 14:-0.1179 15:-0.0333 16:0.3479 17:0.0025 18:-0.083 19:-0.0507 20:-0.3241 21:-0.1685 22:0.0295 23:0.2311 24:0.357 25:0.2285 26:-0.0837 27:-0.1747 28:0.0219 29:-0.2144 30:0.0082 31:0.1123 32:0.3009 33:-0.1526 34:-0.1102 35:-0.1248 36:0.3918 37:-0.2283 38:0.1231 39:0.14 40:0.0811 41:0.0086 42:-0.2102 43:0.0058 44:-0.2058 45:0.1109 46:0.0975 47:0.0116 48:0.1494 49:0.2503 50:0.0406 51:0.2491 52:-0.2871 53:0.1 54:0.3028 55:0.4428 56:0.0901 57:-0.0659 58:-0.0643 59:-0.3773 60:0.0401 61:0.186 62:0.2334 63:0.0371 64:-0.1062 65:0.1393 66:-0.1437 67:0.1124 68:0.2168 69:0.13 70:-0.2772 71:-0.138 72:0.3763 73:-0.0583 74:-0.1307 75:0.0702 76:0.2137 77:0.387 78:0.1585 79:0.1347 80:-0.2526 81:-0.3366 82:-0.0967 83:-0.1007 84:-0.1363 85:0.0716 86:-0.0242 87:-0.0062 88:-0.3433 89:-0.029 90:-0.1143 91:-0.1002 92:0.0465 93:-0.6945 94:0.0498 95:0.156 96:0.1369 97:0.1244 98:0.0395 99:-0.1342 100:-0.0398 101:6.0 102:0.0621 103:0.2285 104:-0.2073 105:-0.0473 106:0.103 107:0.2517 108:0.0702 109:-0.0926 110:0.0671 111:0.1493 112:0.1411 113:-0.0177 114:0.1334 115:-0.1533 116:-0.0062 117:0.1829 118:0.0152 119:0.0289 120:-0.1152 121:-0.176 122:-0.0511 123:0.0192 124:0.144 125:0.199 126:0.165 127:-0.1223 128:-0.0487 129:-0.0634 130:-0.2425 131:-0.0262 132:0.1174 133:0.2405 134:-0.1888 135:-0.0113 136:0.0113 137:0.1975 138:-0.1891 139:0.1965 140:-0.0483 141:0.0144 142:0.1508 143:-0.1234 144:-0.1431 145:-0.0933 146:-0.0142 147:0.1163 148:0.0645 149:0.116 150:0.112 151:-0.0587 152:0.1833 153:-0.0509 154:-0.0019 155:0.1824 156:0.1538 157:0.0599 158:0.1578 159:-0.1021 160:-0.2284 161:-0.0266 162:0.0441 163:0.1416 164:0.1605 165:0.2086 166:0.1712 167:-0.0367 168:-0.0516 169:0.0267 170:0.2781 171:-0.0236 172:-0.0109 173:0.1712 174:-0.01 175:0.0282 176:-0.1385 177:0.2739 178:0.063 179:0.1014 180:0.0538 181:0.0092 182:-0.165 183:-0.0584 184:-0.0059 185:-0.0716 186:-0.0359 187:-0.0474 188:0.0075 189:-0.3113 190:-0.0343 191:0.1645 192:-0.1969 193:-0.1113 194:-0.4227 195:-0.0903 196:0.0949 197:0.0306 198:-0.0384 199:0.0884 200:-0.1502 201:0.0387 202:12.0 203:0.0892 204:0.2593 205:-0.2838 206:0.0705 207:0.1185 208:0.2904 209:0.0771 210:-0.3112 211:0.1175 212:0.0911 213:0.0702 214:-0.0279 215:0.0561 216:0.0245 217:0.196 218:0.1092 219:-0.1533 220:-0.0846 221:-0.1734 222:-0.2075 223:-0.0463 224:-0.0823 225:0.0715 226:0.0094 227:0.0475 228:-0.2149 229:-0.1028 230:0.0426 231:-0.2219 232:-0.2286 233:0.0295 234:0.36 235:0.0314 236:0.1783 237:-0.0051 238:0.1695 239:0.0952 240:0.015 241:0.114 242:0.0989 243:0.127 244:-0.0757 245:-0.189 246:-0.2861 247:0.1314 248:-0.0477 249:-0.0445 250:0.0532 251:0.1375 252:0.008 253:0.0469 254:-0.0712 255:0.0488 256:0.2439 257:-0.1176 258:0.0952 259:0.1955 260:-0.1087 261:-0.0307 262:-0.2081 263:0.2571 264:0.1677 265:0.1798 266:0.0095 267:0.1116 268:-0.147 269:-0.2707 270:0.1675 271:0.2195 272:-0.2509 273:0.1267 274:0.0849 275:-0.1479 276:-0.0845 277:-0.1542 278:0.26 279:0.0266 280:0.1276 281:0.1217 282:-0.0608 283:-0.3304 284:-0.0505 285:-0.1066 286:-0.0176 287:-0.0013 288:-0.0556 289:-0.0584 290:-0.2467 291:0.1193 292:0.005 293:-0.2275 294:0.0073 295:-0.6019 296:-0.0248 297:-0.131 298:-0.0804 299:0.0101 300:0.0911 301:-0.0021 302:-0.0154 303:4.0 312:1.0 
0.01 1:0.1814 2:0.2505 3:-0.1528 4:-0.0296 5:0.206 6:0.0998 7:0.0116 8:-0.1403 9:0.0287 10:0.066 11:-0.137 12:-0.0045 13:0.0429 14:0.0856 15:-0.054 16:-0.1079 17:-0.0327 18:0.0055 19:0.0871 20:0.1428 21:-0.0436 22:-0.2343 23:0.0452 24:0.2977 25:-0.1782 26:-0.2065 27:0.1522 28:-0.114 29:-0.3216 30:-0.1453 31:0.0551 32:0.2252 33:-0.21 34:0.1007 35:0.0577 36:0.1926 37:0.0059 38:-0.0775 39:-0.1554 40:-0.0807 41:0.356 42:0.0447 43:0.1369 44:0.0066 45:-0.1786 46:-0.0278 47:0.125 48:0.1144 49:0.1949 50:0.0052 51:0.0455 52:-0.1907 53:-0.0604 54:0.399 55:0.0175 56:0.2848 57:0.225 58:-0.2056 59:-0.1012 60:0.0256 61:0.057 62:0.1189 63:0.4419 64:-0.0244 65:0.0814 66:-0.0051 67:0.1048 68:-0.1155 69:0.1091 70:-0.0345 71:0.1489 72:-0.0141 73:-0.0676 74:0.2467 75:0.052 76:0.1128 77:0.0578 78:-0.0633 79:0.0593 80:-0.1814 81:0.0409 82:-0.0062 83:-0.0586 84:-0.0479 85:0.1233 86:-0.0481 87:0.1722 88:-0.2482 89:0.1111 90:0.0574 91:-0.1418 92:0.0941 93:-0.4825 94:0.0607 95:0.1737 96:0.2793 97:-0.0452 98:0.2674 99:-0.2453 100:0.0841 101:2.0 102:0.162 103:0.1951 104:-0.3196 105:-0.0708 106:0.0379 107:0.2535 108:0.1561 109:-0.0725 110:-0.1038 111:0.1339 112:-0.0148 113:0.0645 114:0.0503 115:-0.0348 116:-0.0719 117:0.1606 118:-0.1782 119:0.0341 120:-0.1731 121:-0.2435 122:-0.0836 123:0.088 124:0.0995 125:0.0582 126:0.0538 127:-0.089 128:-0.0309 129:-0.0694 130:-0.1739 131:-0.0167 132:-0.0629 133:0.2967 134:-0.1745 135:-0.1468 136:-0.257 137:0.2204 138:-0.0754 139:0.0602 140:0.0441 141:-0.0511 142:0.1143 143:-0.0422 144:-0.2629 145:-0.0334 146:-0.0042 147:0.1099 148:0.0313 149:0.1963 150:0.1135 151:-0.0168 152:0.1509 153:-0.0543 154:0.0524 155:0.3244 156:0.0383 157:-0.036 158:0.0575 159:-0.1807 160:-0.207 161:-0.0484 162:-0.0195 163:0.2219 164:0.203 165:0.1196 166:0.0335 167:-0.0385 168:-0.1975 169:0.0543 170:0.1696 171:-0.0647 172:-0.0178 173:0.0518 174:-0.0323 175:-0.0373 176:-0.0836 177:0.1845 178:0.0304 179:0.23 180:0.0816 181:-0.0117 182:-0.184 183:-0.0077 184:-0.0573 185:-0.0104 186:-0.0076 187:0.0505 188:-0.0994 189:-0.1666 190:-0.084 191:-0.0764 192:-0.2705 193:0.0792 194:-0.3632 195:-0.0985 196:0.0814 197:0.0101 198:-0.0218 199:0.1114 200:-0.0433 201:0.0097 202:8.0 203:0.2204 204:0.1829 205:-0.2475 206:0.0329 207:0.1788 208:0.2634 209:0.0491 210:-0.1495 211:-0.1467 212:0.2281 213:0.0276 214:-0.0335 215:0.0749 216:0.0584 217:0.0052 218:0.2211 219:-0.1622 220:0.0432 221:-0.095 222:-0.2382 223:-0.1272 224:0.0043 225:0.0542 226:0.268 227:-0.0542 228:-0.0263 229:-0.0374 230:-0.0458 231:-0.2632 232:-0.127 233:-0.0029 234:0.3103 235:-0.1043 236:-0.1025 237:-0.1301 238:0.2189 239:-0.1921 240:0.0654 241:-0.0039 242:-0.0294 243:0.0328 244:-0.1263 245:-0.1864 246:-0.1685 247:-0.0444 248:0.074 249:0.0115 250:0.1125 251:0.0869 252:-0.0224 253:0.1692 254:-0.1857 255:0.0078 256:0.3113 257:0.1377 258:0.159 259:0.0981 260:-0.1871 261:-0.2132 262:-0.0785 263:0.1789 264:0.1538 265:0.1644 266:0.0901 267:0.0531 268:-0.0821 269:0.0097 270:0.0693 271:0.163 272:0.0234 273:-0.0667 274:0.0649 275:0.0324 276:0.0436 277:-0.0643 278:0.2229 279:0.037 280:0.1453 281:0.1672 282:-0.1136 283:-0.2795 284:-0.0645 285:0.0032 286:-0.0582 287:0.0897 288:-0.0178 289:-0.024 290:-0.3411 291:-0.0406 292:0.0651 293:-0.2263 294:0.0124 295:-0.5846 296:-0.1579 297:0.0519 298:0.1009 299:0.0493 300:0.1323 301:-0.1421 302:0.1114 303:41.0 313:1.0 
0.00673765371764609 1:0.1814 2:0.2505 3:-0.1528 4:-0.0296 5:0.206 6:0.0998 7:0.0116 8:-0.1403 9:0.0287 10:0.066 11:-0.137 12:-0.0045 13:0.0429 14:0.0856 15:-0.054 16:-0.1079 17:-0.0327 18:0.0055 19:0.0871 20:0.1428 21:-0.0436 22:-0.2343 23:0.0452 24:0.2977 25:-0.1782 26:-0.2065 27:0.1522 28:-0.114 29:-0.3216 30:-0.1453 31:0.0551 32:0.2252 33:-0.21 34:0.1007 35:0.0577 36:0.1926 37:0.0059 38:-0.0775 39:-0.1554 40:-0.0807 41:0.356 42:0.0447 43:0.1369 44:0.0066 45:-0.1786 46:-0.0278 47:0.125 48:0.1144 49:0.1949 50:0.0052 51:0.0455 52:-0.1907 53:-0.0604 54:0.399 55:0.0175 56:0.2848 57:0.225 58:-0.2056 59:-0.1012 60:0.0256 61:0.057 62:0.1189 63:0.4419 64:-0.0244 65:0.0814 66:-0.0051 67:0.1048 68:-0.1155 69:0.1091 70:-0.0345 71:0.1489 72:-0.0141 73:-0.0676 74:0.2467 75:0.052 76:0.1128 77:0.0578 78:-0.0633 79:0.0593 80:-0.1814 81:0.0409 82:-0.0062 83:-0.0586 84:-0.0479 85:0.1233 86:-0.0481 87:0.1722 88:-0.2482 89:0.1111 90:0.0574 91:-0.1418 92:0.0941 93:-0.4825 94:0.0607 95:0.1737 96:0.2793 97:-0.0452 98:0.2674 99:-0.2453 100:0.0841 101:2.0 102:0.2355 103:0.1919 104:-0.245 105:0.0465 106:0.1695 107:0.2509 108:0.0328 109:-0.1174 110:-0.1464 111:0.1701 112:-0.0096 113:0.0363 114:0.0825 115:0.0804 116:-0.0422 117:0.2825 118:-0.1348 119:0.008 120:-0.1089 121:-0.2312 122:-0.116 123:0.0989 124:0.0753 125:0.2386 126:-0.052 127:-0.0499 128:-0.0856 129:-0.0539 130:-0.2472 131:-0.1079 132:-0.0084 133:0.3 134:-0.1249 135:-0.1055 136:-0.2433 137:0.2784 138:-0.142 139:0.0296 140:-0.0273 141:-0.0701 142:0.0076 143:-0.0804 144:-0.2559 145:-0.1979 146:-0.0435 147:0.1077 148:0.0459 149:0.1366 150:0.0676 151:-0.0212 152:0.2272 153:-0.2219 154:0.0345 155:0.3811 156:0.1883 157:0.1359 158:0.0824 159:-0.1674 160:-0.2753 161:-0.1358 162:0.1274 163:0.2029 164:0.1837 165:0.1376 166:0.0498 167:-0.0315 168:0.0275 169:0.0832 170:0.1625 171:-0.0147 172:-0.0217 173:0.1493 174:0.0779 175:0.0321 176:-0.1123 177:0.2316 178:0.0734 179:0.1831 180:0.1861 181:-0.092 182:-0.2461 183:-0.0257 184:-0.0684 185:-0.0537 186:0.0913 187:0.0499 188:-0.0659 189:-0.3032 190:-0.0206 191:0.026 192:-0.2298 193:0.0329 194:-0.5878 195:-0.1796 196:0.0965 197:0.1094 198:0.0218 199:0.1511 200:-0.1113 201:0.091 202:25.0 203:0.1821 204:0.1772 205:-0.2767 206:-0.0203 207:0.1382 208:0.274 209:0.1066 210:-0.158 211:-0.1315 212:0.2597 213:0.0545 214:-0.0772 215:0.0574 216:-5.0E-4 217:0.0309 218:0.1293 219:-0.1992 220:0.0798 221:-0.1077 222:-0.2481 223:-0.124 224:-0.0727 225:0.0468 226:0.2251 227:-0.0174 228:-0.0223 229:0.0197 230:-0.0453 231:-0.2489 232:-0.1086 233:-0.0184 234:0.317 235:-0.1064 236:-0.1152 237:-0.0475 238:0.1519 239:-0.2067 240:0.1043 241:0.0401 242:0.0091 243:0.0911 244:-0.1479 245:-0.1352 246:-0.086 247:-0.0308 248:0.0487 249:-0.0204 250:0.1157 251:0.1185 252:-0.0217 253:0.0966 254:-0.0967 255:-0.0064 256:0.2368 257:0.044 258:0.1142 259:0.1013 260:-0.2071 261:-0.1404 262:-0.0024 263:0.1653 264:0.1228 265:0.1565 266:0.0467 267:0.0497 268:-0.1238 269:-0.0859 270:0.0481 271:0.166 272:0.0347 273:-0.1001 274:-0.0358 275:-0.0428 276:0.0271 277:-0.0167 278:0.199 279:-0.0067 280:0.1332 281:0.1146 282:-0.1011 283:-0.2827 284:-0.088 285:0.0625 286:-0.0459 287:0.0526 288:-0.07 289:-0.0038 290:-0.3207 291:-0.0791 292:0.0582 293:-0.2384 294:0.0135 295:-0.5004 296:-0.1116 297:0.012 298:0.0582 299:0.0546 300:0.1034 301:-0.1411 302:0.0976 303:24.0 315:1.0 
0.0031757826943723828 1:0.1814 2:0.2505 3:-0.1528 4:-0.0296 5:0.206 6:0.0998 7:0.0116 8:-0.1403 9:0.0287 10:0.066 11:-0.137 12:-0.0045 13:0.0429 14:0.0856 15:-0.054 16:-0.1079 17:-0.0327 18:0.0055 19:0.0871 20:0.1428 21:-0.0436 22:-0.2343 23:0.0452 24:0.2977 25:-0.1782 26:-0.2065 27:0.1522 28:-0.114 29:-0.3216 30:-0.1453 31:0.0551 32:0.2252 33:-0.21 34:0.1007 35:0.0577 36:0.1926 37:0.0059 38:-0.0775 39:-0.1554 40:-0.0807 41:0.356 42:0.0447 43:0.1369 44:0.0066 45:-0.1786 46:-0.0278 47:0.125 48:0.1144 49:0.1949 50:0.0052 51:0.0455 52:-0.1907 53:-0.0604 54:0.399 55:0.0175 56:0.2848 57:0.225 58:-0.2056 59:-0.1012 60:0.0256 61:0.057 62:0.1189 63:0.4419 64:-0.0244 65:0.0814 66:-0.0051 67:0.1048 68:-0.1155 69:0.1091 70:-0.0345 71:0.1489 72:-0.0141 73:-0.0676 74:0.2467 75:0.052 76:0.1128 77:0.0578 78:-0.0633 79:0.0593 80:-0.1814 81:0.0409 82:-0.0062 83:-0.0586 84:-0.0479 85:0.1233 86:-0.0481 87:0.1722 88:-0.2482 89:0.1111 90:0.0574 91:-0.1418 92:0.0941 93:-0.4825 94:0.0607 95:0.1737 96:0.2793 97:-0.0452 98:0.2674 99:-0.2453 100:0.0841 101:2.0 102:0.2073 103:0.1801 104:-0.2567 105:0.0386 106:0.1789 107:0.2808 108:0.046 109:-0.1168 110:-0.1651 111:0.2001 112:0.0169 113:-0.0114 114:0.0745 115:0.0633 116:-0.0187 117:0.2476 118:-0.1596 119:0.0386 120:-0.1203 121:-0.2562 122:-0.121 123:0.0663 124:0.0716 125:0.2457 126:-0.0677 127:-0.0373 128:-0.0609 129:-0.0614 130:-0.237 131:-0.1251 132:-0.0182 133:0.3011 134:-0.1248 135:-0.1287 136:-0.2101 137:0.2364 138:-0.18 139:0.0469 140:-0.0136 141:-0.0487 142:0.0033 143:-0.1048 144:-0.2345 145:-0.1534 146:-0.0423 147:0.1091 148:-0.0026 149:0.118 150:0.0826 151:-0.0101 152:0.2061 153:-0.2015 154:0.0194 155:0.334 156:0.1514 157:0.1411 158:0.0962 159:-0.1677 160:-0.2422 161:-0.0921 162:0.1398 163:0.1994 164:0.1703 165:0.1134 166:0.0711 167:-0.0563 168:-0.0129 169:0.0593 170:0.1709 171:-0.013 172:-0.0711 173:0.106 174:0.0525 175:0.0265 176:-0.083 177:0.2258 178:0.0584 179:0.1475 180:0.1705 181:-0.0789 182:-0.2576 183:-0.0349 184:-0.0325 185:-0.0593 186:0.0848 187:0.0133 188:-0.0507 189:-0.3284 190:-0.0372 191:0.0647 192:-0.2594 193:0.0475 194:-0.5721 195:-0.1556 196:0.0679 197:0.1124 198:0.0132 199:0.147 200:-0.1166 201:0.0893 202:39.0 203:0.2241 204:0.2058 205:-0.2729 206:-0.0834 207:0.0535 208:0.1811 209:0.1574 210:-0.2192 211:-0.0312 212:0.2624 213:0.0354 214:-0.0397 215:0.055 216:-0.0453 217:0.0374 218:0.0554 219:-0.1875 220:0.0542 221:-0.0576 222:-0.1668 223:-0.1145 224:-0.1832 225:0.0211 226:0.1759 227:0.0987 228:-0.0353 229:0.0677 230:-0.001 231:-0.2944 232:-0.0372 233:0.0084 234:0.3369 235:-0.0803 236:-0.0311 237:0.0951 238:0.1464 239:-0.1396 240:0.1389 241:0.0799 242:0.0328 243:0.2296 244:-0.1423 245:-0.0511 246:-0.1121 247:-0.0176 248:-0.0425 249:0.0887 250:0.164 251:0.1284 252:-0.0693 253:-0.0029 254:-0.0023 255:-0.002 256:0.227 257:-0.0086 258:0.0609 259:0.0702 260:-0.2631 261:-0.0852 262:0.0056 263:0.1677 264:0.0215 265:0.1742 266:0.0178 267:-0.0407 268:-0.1522 269:-0.079 270:0.0982 271:0.1357 272:0.0989 273:-0.0049 274:-0.1204 275:-0.1101 276:0.0435 277:-0.0026 278:0.1766 279:-0.0593 280:0.2113 281:0.0771 282:-0.1696 283:-0.2871 284:-0.1388 285:0.0999 286:-0.0109 287:0.024 288:-0.0885 289:0.0215 290:-0.2396 291:-0.0934 292:-0.0586 293:-0.1257 294:-0.0765 295:-0.4402 296:-0.1149 297:0.0108 298:-0.0285 299:0.1385 300:0.0516 301:-0.1618 302:0.1143 303:10.0 316:1.0 
2.172077218056097E-4 1:0.0 2:0.0 3:0.0 4:0.0 5:0.0 6:0.0 7:0.0 8:0.0 9:0.0 10:0.0 11:0.0 12:0.0 13:0.0 14:0.0 15:0.0 16:0.0 17:0.0 18:0.0 19:0.0 20:0.0 21:0.0 22:0.0 23:0.0 24:0.0 25:0.0 26:0.0 27:0.0 28:0.0 29:0.0 30:0.0 31:0.0 32:0.0 33:0.0 34:0.0 35:0.0 36:0.0 37:0.0 38:0.0 39:0.0 40:0.0 41:0.0 42:0.0 43:0.0 44:0.0 45:0.0 46:0.0 47:0.0 48:0.0 49:0.0 50:0.0 51:0.0 52:0.0 53:0.0 54:0.0 55:0.0 56:0.0 57:0.0 58:0.0 59:0.0 60:0.0 61:0.0 62:0.0 63:0.0 64:0.0 65:0.0 66:0.0 67:0.0 68:0.0 69:0.0 70:0.0 71:0.0 72:0.0 73:0.0 74:0.0 75:0.0 76:0.0 77:0.0 78:0.0 79:0.0 80:0.0 81:0.0 82:0.0 83:0.0 84:0.0 85:0.0 86:0.0 87:0.0 88:0.0 89:0.0 90:0.0 91:0.0 92:0.0 93:0.0 94:0.0 95:0.0 96:0.0 97:0.0 98:0.0 99:0.0 100:0.0 101:0.0 102:0.0795 103:0.1119 104:-0.3314 105:-0.0212 106:0.1002 107:0.2603 108:0.0352 109:-0.0878 110:-0.1216 111:0.1347 112:0.1067 113:-0.0831 114:0.0818 115:-0.0293 116:0.0129 117:0.156 118:-0.1177 119:0.0128 120:-0.0435 121:-0.2451 122:-0.0447 123:0.0381 124:0.0558 125:0.1987 126:0.1106 127:-0.092 128:0.0083 129:-0.1337 130:-0.1862 131:-0.0435 132:-0.112 133:0.2436 134:-0.1933 135:0.012 136:-0.1334 137:0.2069 138:-0.1497 139:0.0686 140:-0.0454 141:-0.0637 142:0.1528 143:-0.1649 144:-0.0832 145:-0.1486 146:-0.0396 147:0.0906 148:0.0543 149:0.0937 150:0.1012 151:-2.0E-4 152:0.1283 153:-0.0864 154:0.1341 155:0.3247 156:0.0915 157:0.1337 158:0.0782 159:-0.1126 160:-0.1896 161:-0.0241 162:0.1026 163:0.1335 164:0.1669 165:0.1019 166:0.048 167:-0.0855 168:0.0285 169:-0.0591 170:0.1789 171:-0.011 172:-0.0157 173:0.0447 174:-0.0109 175:0.0356 176:-0.0099 177:0.2553 178:-0.0478 179:0.0147 180:0.0094 181:0.0049 182:-0.2574 183:-0.0833 184:0.0471 185:-0.0493 186:0.0606 187:-0.0989 188:0.0116 189:-0.2921 190:-0.0266 191:0.007 192:-0.1813 193:0.0102 194:-0.3459 195:0.0641 196:0.1189 197:0.0705 198:-0.0572 199:0.1374 200:-0.1224 201:0.0879 202:21.0 203:0.0892 204:0.2593 205:-0.2838 206:0.0705 207:0.1185 208:0.2904 209:0.0771 210:-0.3112 211:0.1175 212:0.0911 213:0.0702 214:-0.0279 215:0.0561 216:0.0245 217:0.196 218:0.1092 219:-0.1533 220:-0.0846 221:-0.1734 222:-0.2075 223:-0.0463 224:-0.0823 225:0.0715 226:0.0094 227:0.0475 228:-0.2149 229:-0.1028 230:0.0426 231:-0.2219 232:-0.2286 233:0.0295 234:0.36 235:0.0314 236:0.1783 237:-0.0051 238:0.1695 239:0.0952 240:0.015 241:0.114 242:0.0989 243:0.127 244:-0.0757 245:-0.189 246:-0.2861 247:0.1314 248:-0.0477 249:-0.0445 250:0.0532 251:0.1375 252:0.008 253:0.0469 254:-0.0712 255:0.0488 256:0.2439 257:-0.1176 258:0.0952 259:0.1955 260:-0.1087 261:-0.0307 262:-0.2081 263:0.2571 264:0.1677 265:0.1798 266:0.0095 267:0.1116 268:-0.147 269:-0.2707 270:0.1675 271:0.2195 272:-0.2509 273:0.1267 274:0.0849 275:-0.1479 276:-0.0845 277:-0.1542 278:0.26 279:0.0266 280:0.1276 281:0.1217 282:-0.0608 283:-0.3304 284:-0.0505 285:-0.1066 286:-0.0176 287:-0.0013 288:-0.0556 289:-0.0584 290:-0.2467 291:0.1193 292:0.005 293:-0.2275 294:0.0073 295:-0.6019 296:-0.0248 297:-0.131 298:-0.0804 299:0.0101 300:0.0911 301:-0.0021 302:-0.0154 303:4.0 319:1.0 
0.01 1:0.2646 2:0.198 3:-0.1992 4:0.0945 5:0.2109 6:0.261 7:0.193 8:-0.2237 9:-0.1376 10:0.1901 11:0.0724 12:0.0102 13:0.1189 14:0.0398 15:0.0719 16:0.1505 17:-0.147 18:-0.071 19:0.0886 20:-0.1145 21:-0.1134 22:-0.0844 23:0.0819 24:0.1752 25:-0.0728 26:-0.0033 27:-0.0486 28:-0.0297 29:-0.3446 30:-0.2488 31:0.0111 32:0.3044 33:-0.0882 34:-0.0232 35:-0.1533 36:0.1864 37:-0.1849 38:0.0318 39:-0.0161 40:-0.0933 41:0.0764 42:0.1105 43:-0.2614 44:-0.2791 45:0.0419 46:0.0665 47:0.0626 48:0.054 49:0.1129 50:0.0886 51:0.2038 52:-0.2441 53:0.0173 54:0.3799 55:0.2328 56:0.0518 57:0.1119 58:-0.2742 59:-0.3514 60:-0.1483 61:0.1211 62:0.2178 63:0.2367 64:-0.0297 65:0.1523 66:-0.1167 67:-0.0026 68:0.1652 69:0.254 70:2.0E-4 71:-0.1123 72:0.0916 73:-0.0889 74:0.0013 75:-0.1502 76:0.2414 77:0.096 78:0.0593 79:0.208 80:-0.0979 81:-0.2398 82:-0.0178 83:-0.2242 84:-0.0839 85:0.1389 86:0.04 87:0.0791 88:-0.193 89:-0.0476 90:0.093 91:-0.3261 92:0.074 93:-0.5575 94:-0.1223 95:-0.0238 96:0.1349 97:-0.0431 98:0.0345 99:-0.139 100:0.0539 101:24.0 102:0.0 103:0.0 104:0.0 105:0.0 106:0.0 107:0.0 108:0.0 109:0.0 110:0.0 111:0.0 112:0.0 113:0.0 114:0.0 115:0.0 116:0.0 117:0.0 118:0.0 119:0.0 120:0.0 121:0.0 122:0.0 123:0.0 124:0.0 125:0.0 126:0.0 127:0.0 128:0.0 129:0.0 130:0.0 131:0.0 132:0.0 133:0.0 134:0.0 135:0.0 136:0.0 137:0.0 138:0.0 139:0.0 140:0.0 141:0.0 142:0.0 143:0.0 144:0.0 145:0.0 146:0.0 147:0.0 148:0.0 149:0.0 150:0.0 151:0.0 152:0.0 153:0.0 154:0.0 155:0.0 156:0.0 157:0.0 158:0.0 159:0.0 160:0.0 161:0.0 162:0.0 163:0.0 164:0.0 165:0.0 166:0.0 167:0.0 168:0.0 169:0.0 170:0.0 171:0.0 172:0.0 173:0.0 174:0.0 175:0.0 176:0.0 177:0.0 178:0.0 179:0.0 180:0.0 181:0.0 182:0.0 183:0.0 184:0.0 185:0.0 186:0.0 187:0.0 188:0.0 189:0.0 190:0.0 191:0.0 192:0.0 193:0.0 194:0.0 195:0.0 196:0.0 197:0.0 198:0.0 199:0.0 200:0.0 201:0.0 202:0.0 203:-0.0253 204:0.1884 205:-0.3442 206:0.0725 207:-0.0212 208:0.2606 209:0.146 210:-0.3079 211:0.1442 212:0.0305 213:-0.0715 214:0.1304 215:0.2416 216:-0.1087 217:0.0982 218:0.0659 219:-0.1865 220:-0.1861 221:-0.0248 222:-0.1462 223:-0.0554 224:-0.1818 225:0.1807 226:-0.0145 227:0.0455 228:-0.277 229:0.1711 230:-0.0264 231:-0.2543 232:-0.1738 233:-0.0145 234:0.5808 235:-0.2351 236:-0.0508 237:0.0539 238:0.1846 239:-0.2333 240:0.0475 241:0.2488 242:-0.0534 243:0.2071 244:0.1466 245:0.0084 246:-0.1378 247:-0.055 248:0.0151 249:0.1255 250:0.1003 251:0.0868 252:-0.0664 253:0.0661 254:0.0715 255:0.0049 256:0.5046 257:-0.1262 258:0.099 259:-0.0316 260:-0.2677 261:0.1479 262:-0.1078 263:0.1759 264:0.2724 265:0.2204 266:-0.1928 267:0.2557 268:-0.1613 269:-0.0858 270:0.0791 271:0.1736 272:-0.2708 273:0.1756 274:-0.3309 275:-0.1021 276:0.0349 277:-0.0055 278:0.0639 279:-0.0541 280:0.0741 281:0.0603 282:0.3283 283:-0.3162 284:0.0059 285:-0.082 286:0.0624 287:0.2462 288:-0.1242 289:-0.1247 290:-0.2171 291:-0.0918 292:0.0169 293:-0.0947 294:-0.2483 295:-0.4772 296:-0.0422 297:-0.1026 298:0.0317 299:0.1897 300:0.1211 301:0.0224 302:-0.0576 303:1.0 304:1.0 
0.005948723458273207 1:0.1827 2:0.1315 3:-0.2686 4:-0.1528 5:0.0827 6:0.1675 7:0.0238 8:-0.1369 9:-0.0612 10:0.2432 11:0.0553 12:-0.0099 13:3.0E-4 14:0.0586 15:-0.015 16:0.198 17:-0.2003 18:-0.043 19:-0.1135 20:-0.1966 21:-0.0663 22:-0.021 23:-0.0304 24:0.2448 25:0.0271 26:-0.1025 27:0.0495 28:-0.1399 29:-0.2503 30:-0.0336 31:-0.0405 32:0.2899 33:-0.159 34:0.0134 35:-0.0013 36:0.1014 37:-0.2124 38:0.1012 39:-0.0493 40:0.0802 41:0.1405 42:0.0078 43:-0.1214 44:-0.1817 45:-0.0555 46:0.1485 47:0.0513 48:0.0787 49:0.0692 50:0.0254 51:0.0919 52:-0.2126 53:-0.0268 54:0.2398 55:0.0202 56:0.1309 57:0.0388 58:-0.0969 59:-0.1948 60:-0.0089 61:0.0941 62:0.098 63:0.1886 64:-0.0204 65:0.0311 66:-0.0552 67:-0.0662 68:0.0017 69:0.3066 70:0.0295 71:-0.1352 72:0.0135 73:0.0029 74:0.0821 75:-0.0357 76:0.2185 77:0.0359 78:0.0781 79:0.2155 80:-0.1254 81:-0.2603 82:-0.1451 83:0.0436 84:-0.0279 85:0.0326 86:-0.0417 87:-0.0181 88:-0.349 89:-0.081 90:0.0836 91:-0.2801 92:-0.0276 93:-0.4746 94:-0.1208 95:-0.0314 96:0.0545 97:-0.0403 98:0.2048 99:-0.1961 100:0.0759 101:23.0 102:0.1826 103:0.1185 104:-0.2725 105:0.0149 106:0.0438 107:0.2338 108:0.0981 109:-0.1685 110:-0.2096 111:0.2022 112:0.2532 113:0.0134 114:0.021 115:-0.1118 116:-0.0495 117:-0.0415 118:-0.2014 119:0.0164 120:0.0176 121:-0.29 122:-0.1478 123:-0.0134 124:0.2663 125:0.4057 126:0.0103 127:-0.0511 128:-0.1032 129:-0.1385 130:-0.1099 131:0.0034 132:-0.0267 133:0.299 134:-0.0655 135:-0.0376 136:-0.079 137:-0.0237 138:-0.1629 139:0.1735 140:0.0512 141:0.013 142:0.0882 143:-0.1478 144:-0.1196 145:-0.1264 146:-0.1001 147:0.0652 148:0.0408 149:0.0319 150:0.1703 151:-1.0E-4 152:0.2485 153:0.0123 154:0.0042 155:0.2196 156:0.068 157:0.1258 158:-0.006 159:-0.096 160:-0.1458 161:0.0432 162:0.1047 163:0.1021 164:0.2372 165:-0.0503 166:0.1283 167:-0.0848 168:-0.1443 169:0.0106 170:0.1358 171:-0.0326 172:-0.2038 173:0.0534 174:-0.0509 175:0.0497 176:0.031 177:0.249 178:-0.0247 179:-0.0436 180:0.1276 181:-0.041 182:-0.2106 183:-0.0974 184:-0.0481 185:-0.0865 186:-0.11 187:-0.1575 188:-0.0387 189:-0.1421 190:-0.055 191:0.0672 192:-0.2058 193:0.1517 194:-0.4446 195:0.0457 196:0.1006 197:0.0472 198:0.1452 199:0.2102 200:-0.1292 201:0.0794 202:7.0 203:0.2552 204:0.3625 205:-0.3574 206:0.0742 207:0.178 208:0.3652 209:0.0134 210:-0.2323 211:0.0086 212:0.179 213:0.0624 214:0.0282 215:0.1441 216:0.0526 217:0.0696 218:0.2187 219:-0.1451 220:0.0244 221:-0.0437 222:-0.2414 223:-0.1661 224:0.0678 225:0.2016 226:0.2594 227:0.0397 228:-0.0902 229:-0.1645 230:0.0168 231:-0.3108 232:-0.2355 233:0.0059 234:0.2224 235:-0.0266 236:-0.022 237:-0.0786 238:0.2754 239:-0.0986 240:0.0863 241:-0.0923 242:0.0334 243:-0.009 244:-0.2315 245:-0.1958 246:-0.2822 247:0.0796 248:0.0807 249:-0.0744 250:0.1569 251:0.0882 252:0.0695 253:0.1557 254:-0.2569 255:0.0508 256:0.247 257:0.0854 258:0.1475 259:0.0696 260:-0.1313 261:-0.1943 262:-0.0573 263:0.214 264:0.2123 265:0.1643 266:0.0287 267:0.0285 268:-0.2391 269:-0.1119 270:0.1646 271:0.0764 272:-0.088 273:0.0484 274:0.2706 275:-0.1749 276:-0.0569 277:-0.0714 278:0.195 279:0.0592 280:0.0898 281:0.0762 282:-0.0801 283:-0.1864 284:-0.1195 285:-0.0357 286:-0.1132 287:0.0729 288:0.0119 289:-0.0772 290:-0.2793 291:0.0411 292:0.0582 293:-0.2701 294:-0.0519 295:-0.6501 296:-0.0146 297:-0.0711 298:-0.0401 299:-0.0832 300:0.0419 301:-0.0694 302:0.1691 303:24.0 321:1.0 
2.210749245193787E-4 1:0.0795 2:0.1094 3:-0.2924 4:-0.1228 5:0.2345 6:0.2708 7:0.0163 8:-0.0951 9:-0.067 10:0.2537 11:-0.0543 12:0.0838 13:-0.0295 14:0.1458 15:-0.0386 16:0.1464 17:-0.1053 18:0.0798 19:-0.1337 20:-0.2118 21:-0.0297 22:0.0818 23:-0.0294 24:0.1809 25:-0.1098 26:0.1319 27:-0.0066 28:-0.2008 29:-0.28 30:0.0779 31:-0.1127 32:0.1915 33:-0.237 34:-0.0847 35:-0.0928 36:0.1888 37:-0.2568 38:0.04 39:-0.1001 40:-0.0156 41:0.1272 42:-0.08 43:-0.057 44:-0.1089 45:-0.1921 46:0.1418 47:-0.0048 48:0.0605 49:-0.1694 50:0.0936 51:0.1445 52:-0.1275 53:0.0174 54:0.1036 55:0.0497 56:0.2769 57:0.1795 58:-0.0668 59:-0.1447 60:0.0929 61:0.0885 62:0.0936 63:0.2896 64:0.0935 65:0.0537 66:-0.0172 67:-0.0189 68:0.0199 69:0.3002 70:-0.0393 71:-0.2137 72:0.0231 73:0.0876 74:0.1818 75:0.0403 76:0.3585 77:-0.0456 78:-0.08 79:0.1538 80:-0.0837 81:-0.2506 82:-0.0045 83:0.0348 84:-0.1004 85:-0.0012 86:-0.1093 87:-0.0753 88:-0.4515 89:-0.0666 90:0.1475 91:-0.2424 92:-0.0327 93:-0.3565 94:-0.0672 95:0.0179 96:0.2113 97:-0.0038 98:0.2374 99:-0.223 100:-0.0339 101:10.0 102:0.0565 103:0.2958 104:0.0089 105:-0.0167 106:0.0544 107:0.3254 108:0.206 109:0.0726 110:-0.0825 111:0.0582 112:-0.2643 113:-0.0255 114:0.1385 115:-0.0905 116:-0.0081 117:0.0091 118:-0.1308 119:0.0372 120:-0.236 121:-0.3231 122:0.1424 123:0.0059 124:0.0587 125:0.1083 126:0.1556 127:-0.105 128:-0.0714 129:-0.0183 130:-0.0718 131:-0.2197 132:0.1193 133:0.3904 134:-0.2852 135:-0.1974 136:-0.301 137:0.0613 138:-0.1773 139:0.1174 140:0.1218 141:-0.0692 142:0.0648 143:-0.0853 144:-0.2801 145:0.0453 146:-0.1735 147:0.1864 148:-0.0574 149:0.3002 150:-0.0186 151:-0.1701 152:0.3744 153:-0.042 154:0.1098 155:0.2084 156:0.3122 157:0.0199 158:-0.167 159:-0.1744 160:-0.4162 161:0.082 162:-0.1502 163:0.2254 164:0.2666 165:0.1027 166:0.0867 167:0.0075 168:-0.0657 169:0.2635 170:-0.042 171:-0.1293 172:0.19 173:-0.2182 174:-0.0425 175:-0.007 176:-0.2054 177:0.1749 178:0.2662 179:0.2551 180:-0.0555 181:0.0545 182:-0.1396 183:0.1998 184:-0.0346 185:0.1011 186:-0.251 187:-0.0271 188:-0.123 189:-0.3067 190:-0.1996 191:0.1815 192:-0.2883 193:0.148 194:-0.8101 195:-0.0869 196:0.3567 197:0.3681 198:0.2774 199:0.1919 200:-0.1748 201:-0.0616 202:2.0 203:0.1335 204:0.1755 205:-0.2883 206:0.2032 207:0.226 208:0.2623 209:0.1578 210:-0.2302 211:0.1275 212:0.1346 213:0.273 214:0.141 215:0.18 216:0.0964 217:0.3163 218:0.2175 219:-0.1718 220:-0.0086 221:-0.2299 222:-0.1594 223:0.0273 224:0.1801 225:0.158 226:0.1576 227:-0.0609 228:0.0562 229:0.0757 230:-0.0554 231:-0.2854 232:-0.2265 233:0.1075 234:0.335 235:-0.202 236:-0.123 237:-0.0043 238:0.3978 239:-0.1611 240:-0.1627 241:-0.0419 242:0.0292 243:0.0048 244:0.0713 245:-0.216 246:-0.3307 247:0.1502 248:0.3106 249:0.0941 250:0.1423 251:0.0349 252:-0.0963 253:0.1553 254:-0.0807 255:0.0642 256:0.3285 257:0.0289 258:0.0354 259:0.1026 260:-0.2276 261:-0.092 262:-0.1128 263:0.0491 264:0.1443 265:0.0982 266:0.2229 267:0.1365 268:-0.2518 269:-0.0664 270:0.1296 271:0.1602 272:-0.1126 273:0.147 274:-0.026 275:-0.006 276:-0.1031 277:-0.1892 278:0.0869 279:-0.0147 280:0.1418 281:0.0576 282:0.1531 283:-0.2021 284:0.0099 285:-0.0389 286:-0.1467 287:-0.0696 288:-0.0631 289:-0.1215 290:-0.1925 291:-0.0123 292:0.1456 293:-0.3007 294:-0.205 295:-0.5388 296:-0.2348 297:0.1271 298:0.0801 299:-0.0194 300:0.0737 301:-0.1008 302:-0.0791 303:2.0 323:1.0 
0.004192227268002853 1:0.2069 2:-0.0721 3:-0.3014 4:-0.3219 5:0.0781 6:0.195 7:0.0321 8:-0.1344 9:-0.2621 10:0.3768 11:-0.0544 12:0.1212 13:-0.1313 14:0.2188 15:-0.1081 16:0.1963 17:-0.1544 18:0.0546 19:-0.1177 20:-0.0443 21:-0.1027 22:-0.0442 23:-0.0646 24:0.0634 25:-0.0442 26:7.0E-4 27:0.1181 28:-0.1851 29:-0.2113 30:0.1183 31:-0.1474 32:0.3467 33:-0.0323 34:0.0449 35:-0.1295 36:0.2801 37:-0.1946 38:0.1346 39:-0.2451 40:0.0411 41:0.1903 42:-0.0466 43:-0.0516 44:-0.2098 45:0.0677 46:0.1852 47:-0.052 48:-0.1167 49:-6.0E-4 50:0.0235 51:-0.0349 52:-0.0898 53:0.0446 54:0.2199 55:0.0974 56:0.2118 57:0.1822 58:-0.1387 59:-0.1672 60:0.0101 61:0.2661 62:0.0517 63:0.2263 64:0.0095 65:-0.043 66:-0.102 67:-0.2153 68:0.115 69:0.2725 70:0.0593 71:-0.1426 72:-0.1239 73:0.0581 74:0.1558 75:-0.0305 76:0.1349 77:-0.1587 78:0.1307 79:0.1157 80:-0.26 81:-0.2408 82:-0.1065 83:0.2307 84:-0.0793 85:-0.2043 86:-0.1728 87:-0.0535 88:-0.4587 89:-0.0564 90:0.0349 91:-0.3258 92:0.0467 93:-0.4913 94:-0.1781 95:-0.0783 96:0.024 97:-0.0881 98:0.1562 99:-0.1564 100:0.0643 101:8.0 102:0.1493 103:0.3065 104:-0.165 105:0.051 106:0.0666 107:0.0861 108:-0.045 109:-0.1695 110:-0.0713 111:0.0692 112:-0.0042 113:-0.0262 114:0.0811 115:0.1629 116:-0.1561 117:-0.2941 118:-0.0567 119:-0.0096 120:0.0688 121:-0.1402 122:-0.1133 123:-0.0513 124:0.1553 125:0.0257 126:0.1867 127:-0.167 128:-0.0573 129:-0.017 130:-0.2965 131:0.1161 132:0.2265 133:0.0665 134:-0.0891 135:0.0587 136:0.0883 137:0.0129 138:-0.0139 139:0.0685 140:-0.0066 141:0.0559 142:0.2355 143:-0.1629 144:0.2249 145:-0.1393 146:0.0979 147:0.0822 148:-0.0231 149:0.2632 150:0.0267 151:-0.0767 152:0.064 153:-0.1906 154:-0.1889 155:0.2211 156:-0.1106 157:0.0461 158:0.1159 159:-0.1374 160:-0.1145 161:0.1319 162:0.0368 163:0.0316 164:0.3786 165:-0.0592 166:-0.0405 167:0.1009 168:0.1288 169:-0.1526 170:0.22 171:-0.2411 172:0.0368 173:0.305 174:-0.1079 175:0.22 176:0.1018 177:0.2368 178:-0.107 179:-0.0354 180:0.0477 181:-0.1571 182:-0.2821 183:-0.0316 184:0.1869 185:-0.0343 186:0.1039 187:-0.0421 188:0.0575 189:-0.463 190:0.0078 191:0.2555 192:-0.4005 193:0.2622 194:-0.6109 195:-0.1146 196:0.1906 197:0.1258 198:0.2093 199:0.3363 200:-0.1263 201:0.0726 202:3.0 203:0.1534 204:0.0574 205:-0.2613 206:-0.1477 207:0.0863 208:0.2187 209:0.0614 210:-0.2128 211:-0.1172 212:0.2068 213:0.0355 214:0.0472 215:0.0405 216:0.075 217:-0.0342 218:0.1022 219:-0.1401 220:-0.0054 221:-0.0475 222:-0.1389 223:-0.0708 224:-0.0118 225:-0.0115 226:0.1133 227:-0.0526 228:-0.0489 229:0.0301 230:-0.1345 231:-0.2289 232:0.0144 233:-0.0346 234:0.3185 235:-0.097 236:-0.0255 237:-0.0898 238:0.093 239:-0.149 240:0.1414 241:-0.0505 242:-0.0103 243:0.2062 244:-0.0696 245:-0.0125 246:-0.0501 247:-0.0551 248:0.065 249:0.0333 250:0.0947 251:0.0756 252:0.0283 253:0.0355 254:-0.1255 255:0.0121 256:0.2471 257:0.0026 258:0.1751 259:0.1074 260:-0.1804 261:-0.102 262:0.0026 263:0.1879 264:0.1071 265:0.2879 266:0.011 267:0.0625 268:-0.0573 269:-0.1466 270:0.0118 271:0.2249 272:0.0265 273:-0.0961 274:0.0187 275:0.0226 276:0.0775 277:0.006 278:0.1634 279:-0.0346 280:0.0449 281:0.0706 282:-0.0739 283:-0.2099 284:-0.0604 285:0.0309 286:0.028 287:0.0706 288:-0.1491 289:0.0133 290:-0.3484 291:-0.0514 292:0.0603 293:-0.2621 294:-0.0178 295:-0.4395 296:-0.0718 297:-0.0608 298:0.0292 299:1.0E-4 300:0.1579 301:-0.1601 302:-0.0209 303:45.0 324:1.0 
0.007392163208838115 1:0.2634 2:0.128 3:-0.4206 4:0.0066 5:0.1851 6:0.3045 7:-0.1278 8:-0.0852 9:-0.2286 10:0.0917 11:-0.1321 12:0.0441 13:0.141 14:0.189 15:-0.0645 16:0.4147 17:-0.0517 18:-0.1356 19:0.0954 20:0.0815 21:0.1889 22:-0.0391 23:0.068 24:0.0122 25:-0.0699 26:-0.083 27:0.1117 28:-0.2006 29:-0.2571 30:-0.0919 31:-0.2339 32:0.1979 33:-0.4686 34:0.1016 35:0.0066 36:0.3378 37:-0.0817 38:-0.2826 39:0.0329 40:-0.0693 41:0.0528 42:0.0027 43:-0.1229 44:-0.2899 45:-0.051 46:0.1245 47:0.3183 48:0.0292 49:-0.056 50:0.1111 51:0.214 52:-0.1467 53:0.0762 54:0.5714 55:0.0581 56:0.1441 57:0.19 58:-0.3006 59:-0.3995 60:-0.1335 61:-0.0215 62:0.2229 63:0.3263 64:0.1503 65:0.1904 66:-0.0808 67:0.1483 68:-0.0734 69:0.187 70:-0.0242 71:0.2183 72:0.0985 73:-0.0749 74:0.0604 75:0.0753 76:0.2143 77:0.2519 78:-0.113 79:0.0711 80:0.0326 81:-0.2082 82:0.0068 83:-0.0885 84:-0.2957 85:0.0625 86:0.089 87:0.0558 88:-0.1871 89:-0.0331 90:0.1132 91:-0.2078 92:0.1078 93:-0.4813 94:0.0492 95:0.1961 96:0.1542 97:0.0734 98:0.2344 99:-0.1272 100:0.1125 101:14.0 102:0.0922 103:0.1467 104:-0.2305 105:-0.1471 106:0.0737 107:0.2491 108:0.0657 109:-0.1335 110:-0.0482 111:0.1505 112:-0.0129 113:-0.0601 114:0.0563 115:-0.0299 116:0.0824 117:0.1137 118:-0.1152 119:0.0314 120:-0.1606 121:-0.1562 122:-0.0536 123:-0.1013 124:-0.0105 125:0.0885 126:0.1136 127:-0.0498 128:-0.0878 129:-0.0563 130:-0.1764 131:-0.0756 132:-0.0052 133:0.344 134:-0.1709 135:0.0079 136:-0.0428 137:0.056 138:-0.1675 139:0.1428 140:0.0376 141:-0.0807 142:0.2276 143:-0.0713 144:-0.1419 145:-0.0272 146:-0.0225 147:0.0012 148:0.0961 149:0.1215 150:0.1726 151:0.0033 152:0.0146 153:-0.1102 154:0.0353 155:0.2261 156:0.0241 157:0.0343 158:0.0632 159:-0.1508 160:-0.1933 161:-0.0487 162:0.2677 163:0.1209 164:0.1912 165:-0.0759 166:0.0621 167:-0.111 168:0.0167 169:-0.0331 170:0.2656 171:0.1021 172:-0.0487 173:-0.036 174:0.0193 175:0.0389 176:0.0163 177:0.2047 178:-0.0182 179:0.1223 180:0.1322 181:-0.0446 182:-0.2759 183:-0.1068 184:0.049 185:-0.0387 186:-0.1318 187:-0.0182 188:0.0397 189:-0.2552 190:-0.1593 191:0.0483 192:-0.0596 193:-0.0252 194:-0.4148 195:-0.0107 196:-0.0228 197:0.1059 198:0.02 199:0.0718 200:-0.1058 201:0.1097 202:21.0 203:0.1049 204:0.1271 205:-0.3199 206:-0.088 207:0.0146 208:0.2239 209:0.065 210:-0.253 211:0.0835 212:0.0357 213:-0.0979 214:0.27 215:0.2424 216:-0.0724 217:0.0433 218:0.1425 219:-0.1561 220:-0.1695 221:0.0496 222:-0.1526 223:-0.1453 224:-0.1959 225:0.186 226:-0.1184 227:0.012 228:0.0162 229:0.0815 230:-0.0131 231:-0.1845 232:-0.062 233:-0.0625 234:0.4378 235:-0.267 236:-0.051 237:-0.0926 238:-0.0337 239:-0.1996 240:0.1067 241:0.0307 242:-0.1239 243:0.0974 244:0.1599 245:-0.1265 246:-0.2938 247:-0.0465 248:-0.0811 249:0.1298 250:-0.1109 251:0.1055 252:0.0377 253:0.2167 254:0.047 255:0.1024 256:0.4172 257:0.0287 258:0.08 259:-0.0622 260:-0.2533 261:-0.0397 262:-0.1749 263:0.1065 264:0.243 265:0.2917 266:-0.123 267:0.1605 268:-0.0215 269:-0.0604 270:0.0648 271:0.2615 272:-0.0251 273:-0.0098 274:-0.1096 275:-0.1327 276:-0.0841 277:-0.0755 278:0.0737 279:0.1124 280:-0.02 281:0.2074 282:0.0502 283:-0.3434 284:0.1427 285:-0.0947 286:0.0984 287:-0.0014 288:0.0099 289:0.0765 290:-0.2334 291:-0.069 292:0.0548 293:-0.1084 294:-0.1292 295:-0.4433 296:-0.0209 297:0.0466 298:0.1807 299:0.1709 300:0.1086 301:-0.0148 302:-0.1524 303:2.0 325:1.0 
0.003799945444090556 1:0.0546 2:0.1388 3:-0.3264 4:-0.1079 5:-0.0283 6:0.1991 7:-0.0788 8:0.0374 9:0.1042 10:-0.0069 11:0.0682 12:-0.0422 13:0.051 14:-0.1752 15:0.1485 16:0.1652 17:-0.1398 18:-0.0232 19:-0.2046 20:-0.3707 21:-0.092 22:-0.004 23:-0.0464 24:0.2432 25:-0.0569 26:0.0631 27:-0.0229 28:-0.1735 29:-0.205 30:-0.0957 31:0.0105 32:0.3539 33:-0.3047 34:0.0563 35:-0.2229 36:0.0025 37:-0.2767 38:0.0619 39:0.1875 40:-0.0504 41:0.1497 42:0.1002 43:-0.2914 44:-0.0495 45:-0.0522 46:0.1845 47:0.1399 48:0.1445 49:0.1744 50:-0.0665 51:0.1623 52:-0.0695 53:0.1123 54:0.1836 55:0.1185 56:0.1283 57:0.0221 58:-0.1253 59:-0.1912 60:0.0096 61:0.136 62:0.0906 63:0.0727 64:0.0546 65:0.1677 66:-0.063 67:-0.0881 68:-0.0525 69:0.3279 70:-0.0292 71:0.0557 72:-0.0489 73:0.0275 74:-0.1136 75:-0.0759 76:0.1041 77:0.0914 78:0.1113 79:0.0686 80:-0.0344 81:-0.1641 82:-0.0588 83:-0.0495 84:-0.0706 85:-0.1137 86:-0.0159 87:-0.0847 88:-0.2744 89:-0.1009 90:0.0806 91:-0.1692 92:-0.0029 93:-0.4389 94:-0.0849 95:0.1459 96:0.1377 97:0.0655 98:0.1451 99:-0.0557 100:-0.0294 101:4.0 102:0.123 103:0.3126 104:-0.2442 105:0.0984 106:-0.1552 107:0.1309 108:0.0542 109:-0.2544 110:0.0358 111:0.0365 112:-0.0031 113:0.0754 114:-0.0158 115:0.0738 116:0.083 117:0.1085 118:-0.2292 119:0.0386 120:-0.1786 121:-0.2769 122:-0.0957 123:0.1732 124:0.2178 125:0.0793 126:-0.0151 127:-0.0192 128:-0.1615 129:-0.1363 130:-0.2637 131:-0.2051 132:0.028 133:0.3689 134:-0.0684 135:-0.0257 136:-0.212 137:0.242 138:-0.0661 139:0.2097 140:-0.0896 141:0.0338 142:0.1015 143:-0.1704 144:-0.1257 145:-0.1718 146:-0.1088 147:0.0037 148:-0.136 149:0.1094 150:0.0036 151:0.0708 152:-0.0106 153:-0.2571 154:-0.0276 155:0.218 156:0.1245 157:0.1889 158:0.2036 159:-0.079 160:-0.0425 161:-0.0903 162:-0.0196 163:0.0402 164:0.1757 165:-0.0018 166:-0.0301 167:-0.1243 168:-0.1464 169:-0.056 170:0.1803 171:-0.1303 172:0.1688 173:0.0778 174:-0.1385 175:0.1936 176:0.0404 177:0.1756 178:-0.1492 179:0.1253 180:0.0333 181:0.1752 182:-0.1282 183:-0.0734 184:0.0405 185:-0.1941 186:0.1356 187:-0.0432 188:0.1131 189:-0.3332 190:-0.0018 191:0.3214 192:-0.1036 193:-0.0081 194:-0.4333 195:0.0673 196:0.0486 197:0.0455 198:-0.0099 199:0.2677 200:-0.1088 201:0.0702 202:5.0 203:0.2076 204:0.2342 205:-0.2804 206:-0.0888 207:0.0725 208:0.1738 209:0.0367 210:-0.2904 211:-0.0966 212:0.2033 213:0.093 214:-0.0938 215:0.0212 216:0.0139 217:-0.0152 218:0.0599 219:-0.1714 220:0.0572 221:-0.0575 222:-0.1242 223:-0.1564 224:-0.072 225:0.1162 226:0.1541 227:0.0987 228:-0.1125 229:-0.0363 230:-0.0177 231:-0.268 232:-0.069 233:0.0116 234:0.2795 235:-0.0988 236:6.0E-4 237:-0.0662 238:0.1934 239:-0.1286 240:0.1457 241:-0.0035 242:0.0121 243:0.1168 244:-0.0505 245:-0.1164 246:-0.1856 247:0.0124 248:0.0401 249:-0.0051 250:0.1265 251:0.0985 252:0.0295 253:0.089 254:-0.2372 255:-0.0418 256:0.2775 257:0.0894 258:0.1303 259:0.1199 260:-0.1988 261:-0.135 262:-0.0532 263:0.247 264:0.1953 265:0.2578 266:-0.03 267:0.0099 268:-0.1106 269:-0.077 270:0.0875 271:0.1107 272:0.033 273:0.0581 274:0.0246 275:-0.0994 276:0.0395 277:-0.0392 278:0.1637 279:0.0273 280:0.1067 281:0.0732 282:-0.0395 283:-0.1811 284:-0.141 285:-0.0757 286:-0.0483 287:0.1212 288:-0.0628 289:0.1004 290:-0.2985 291:-0.099 292:0.0523 293:-0.1516 294:-9.0E-4 295:-0.4996 296:-0.1389 297:0.0155 298:0.0455 299:0.0476 300:0.1042 301:-0.0901 302:0.0859 303:23.0 326:1.0 
0.0038922111156717417 1:0.0546 2:0.1388 3:-0.3264 4:-0.1079 5:-0.0283 6:0.1991 7:-0.0788 8:0.0374 9:0.1042 10:-0.0069 11:0.0682 12:-0.0422 13:0.051 14:-0.1752 15:0.1485 16:0.1652 17:-0.1398 18:-0.0232 19:-0.2046 20:-0.3707 21:-0.092 22:-0.004 23:-0.0464 24:0.2432 25:-0.0569 26:0.0631 27:-0.0229 28:-0.1735 29:-0.205 30:-0.0957 31:0.0105 32:0.3539 33:-0.3047 34:0.0563 35:-0.2229 36:0.0025 37:-0.2767 38:0.0619 39:0.1875 40:-0.0504 41:0.1497 42:0.1002 43:-0.2914 44:-0.0495 45:-0.0522 46:0.1845 47:0.1399 48:0.1445 49:0.1744 50:-0.0665 51:0.1623 52:-0.0695 53:0.1123 54:0.1836 55:0.1185 56:0.1283 57:0.0221 58:-0.1253 59:-0.1912 60:0.0096 61:0.136 62:0.0906 63:0.0727 64:0.0546 65:0.1677 66:-0.063 67:-0.0881 68:-0.0525 69:0.3279 70:-0.0292 71:0.0557 72:-0.0489 73:0.0275 74:-0.1136 75:-0.0759 76:0.1041 77:0.0914 78:0.1113 79:0.0686 80:-0.0344 81:-0.1641 82:-0.0588 83:-0.0495 84:-0.0706 85:-0.1137 86:-0.0159 87:-0.0847 88:-0.2744 89:-0.1009 90:0.0806 91:-0.1692 92:-0.0029 93:-0.4389 94:-0.0849 95:0.1459 96:0.1377 97:0.0655 98:0.1451 99:-0.0557 100:-0.0294 101:4.0 102:0.2218 103:0.2353 104:-0.2714 105:-0.0552 106:0.0451 107:0.1635 108:0.0271 109:-0.3034 110:-0.105 111:0.1915 112:0.0853 113:-0.0564 114:-0.0327 115:0.0642 116:0.0072 117:0.089 118:-0.2094 119:0.0452 120:-0.1156 121:-0.1918 122:-0.1536 123:0.0297 124:0.1357 125:0.1461 126:0.041 127:-0.0939 128:-0.0931 129:-0.0771 130:-0.2849 131:-0.1545 132:0.0166 133:0.2959 134:-0.0558 135:-0.0255 136:-0.1714 137:0.2459 138:-0.0946 139:0.1488 140:-0.0469 141:0.0522 142:0.0461 143:-0.0606 144:-0.1923 145:-0.2238 146:-0.0047 147:0.0288 148:-0.0576 149:0.12 150:0.0686 151:0.04 152:0.0842 153:-0.2818 154:-0.0238 155:0.2479 156:0.1312 157:0.1264 158:0.1474 159:-0.2035 160:-0.1713 161:-0.1387 162:0.1505 163:0.1894 164:0.2448 165:0.0164 166:0.0059 167:-0.144 168:-0.1402 169:0.0824 170:0.1188 171:-0.0034 172:0.0724 173:0.0643 174:-0.0762 175:0.0705 176:-0.0406 177:0.1693 178:-0.0328 179:0.1406 180:0.1142 181:0.0111 182:-0.1552 183:-0.1484 184:-0.0438 185:-0.1057 186:0.1573 187:-0.0083 188:0.0892 189:-0.3071 190:-0.0344 191:0.1582 192:-0.1361 193:0.0205 194:-0.5158 195:-0.1034 196:-0.004 197:0.0029 198:-0.0122 199:0.1262 200:-0.0766 201:0.0975 202:20.0 203:0.1208 204:0.2805 205:-0.279 206:-0.0515 207:-0.0048 208:0.1712 209:0.0705 210:-0.2369 211:0.0062 212:0.127 213:0.0511 214:-0.0769 215:0.126 216:-0.0683 217:-0.0071 218:0.0213 219:-0.1172 220:0.074 221:0.0048 222:-0.0593 223:-0.1252 224:-0.1603 225:0.1334 226:0.1262 227:0.1646 228:-0.0983 229:0.0202 230:0.0494 231:-0.2252 232:0.049 233:0.0101 234:0.2964 235:-0.1821 236:0.0463 237:0.0926 238:0.0992 239:-0.1701 240:0.1783 241:0.0457 242:-0.0696 243:0.2751 244:-0.1013 245:0.0581 246:-0.0862 247:-0.0229 248:0.0442 249:0.0378 250:0.1312 251:0.1101 252:0.0304 253:0.0381 254:-0.1435 255:-0.0757 256:0.3106 257:0.012 258:0.1761 259:0.107 260:-0.1127 261:0.0091 262:0.1265 263:0.3094 264:0.1124 265:0.2373 266:-0.1226 267:-0.0055 268:-0.0401 269:0.0296 270:0.0098 271:0.1348 272:0.0175 273:0.0934 274:-0.0366 275:-0.179 276:0.0622 277:0.0138 278:0.1577 279:0.0597 280:0.0377 281:-0.049 282:-0.0257 283:-0.2095 284:-0.0813 285:-0.0789 286:-0.0032 287:0.0445 288:-0.1799 289:0.135 290:-0.2996 291:-0.1916 292:-0.0311 293:-0.1584 294:-0.0562 295:-0.4197 296:-0.0942 297:0.0823 298:0.1466 299:0.1536 300:0.1539 301:-0.1338 302:0.0483 303:8.0 327:1.0 
0.0061112822240399324 1:0.1689 2:0.1999 3:-0.3146 4:-0.0173 5:0.1421 6:0.3023 7:0.023 8:-0.2159 9:-0.0075 10:0.0559 11:0.0559 12:-0.0074 13:0.0072 14:0.0774 15:0.1086 16:0.2632 17:-0.1406 18:-0.0038 19:-0.168 20:-0.236 21:-0.0636 22:0.0616 23:0.0735 24:0.1632 25:0.0795 26:-0.0381 27:-0.1476 28:-0.0772 29:-0.2688 30:-0.1849 31:-0.0545 32:0.2262 33:-0.1414 34:0.1036 35:-0.0724 36:0.2114 37:-0.0556 38:0.0705 39:0.0173 40:0.0693 41:0.0809 42:-0.0714 43:-0.1897 44:-0.2614 45:-0.0682 46:0.1856 47:0.0613 48:0.2064 49:0.1223 50:0.0036 51:0.1332 52:-0.174 53:0.0528 54:0.1833 55:0.0637 56:0.0555 57:0.0935 58:-0.1305 59:-0.22 60:-0.0179 61:0.0802 62:0.0698 63:0.0643 64:0.05 65:-0.0536 66:-0.1556 67:-0.1719 68:0.2182 69:0.2354 70:-0.0802 71:-0.0482 72:0.2088 73:-0.1501 74:-0.0557 75:-0.0204 76:0.154 77:0.0891 78:0.0995 79:0.0818 80:-0.1078 81:-0.244 82:-0.1679 83:-0.0667 84:-0.0522 85:0.0786 86:-0.0202 87:-0.0269 88:-0.2358 89:-0.0608 90:0.0321 91:-0.2961 92:0.0488 93:-0.5598 94:-0.0385 95:0.0255 96:-0.0527 97:0.0086 98:0.1595 99:-0.102 100:0.086 101:16.0 102:0.1867 103:0.1658 104:-0.1813 105:-0.085 106:0.1216 107:0.2055 108:0.0157 109:-0.205 110:-0.0418 111:0.1689 112:-0.0407 113:0.0523 114:-0.114 115:0.0741 116:0.0323 117:0.1384 118:-0.129 119:0.1197 120:-0.0311 121:-0.1673 122:-0.148 123:0.1757 124:0.0062 125:0.2294 126:-0.0118 127:-0.1732 128:-0.0766 129:-0.0977 130:-0.2067 131:-0.0961 132:0.0179 133:0.1871 134:-0.1412 135:0.0414 136:-0.0573 137:0.2126 138:-0.1467 139:0.0225 140:-0.1674 141:0.0046 142:0.0909 143:-0.045 144:-0.2978 145:-0.3002 146:0.0782 147:0.1761 148:-0.1023 149:0.1246 150:0.1182 151:0.004 152:0.1383 153:-0.1258 154:0.0914 155:0.2865 156:0.0214 157:0.1297 158:0.1288 159:-0.1487 160:-0.2157 161:-0.0585 162:0.1794 163:0.1327 164:0.1703 165:0.1805 166:0.044 167:-0.038 168:-0.13 169:0.0399 170:0.2412 171:-0.023 172:0.1159 173:0.1373 174:-0.0143 175:-0.0947 176:-0.0869 177:0.1574 178:-0.0467 179:0.1112 180:0.0935 181:-0.0425 182:-0.2704 183:-0.1351 184:0.0556 185:-0.2143 186:0.0546 187:0.0136 188:4.0E-4 189:-0.2557 190:-0.0127 191:0.1117 192:-0.2212 193:-0.077 194:-0.4449 195:-0.1123 196:-0.0108 197:0.0192 198:-0.058 199:0.1015 200:-0.1471 201:0.1716 202:13.0 203:0.1398 204:0.1927 205:-0.2645 206:-0.0341 207:-0.0167 208:0.3499 209:-0.0602 210:-0.2263 211:0.0434 212:0.2027 213:-0.052 214:0.0803 215:-0.0275 216:-0.0038 217:0.0132 218:0.0463 219:-0.1067 220:0.0125 221:-0.0469 222:-0.1967 223:-0.0785 224:0.1197 225:0.0833 226:0.144 227:-0.0097 228:-0.0791 229:-0.1618 230:-0.1464 231:-0.209 232:-0.1963 233:-0.0764 234:0.2546 235:-0.1729 236:-0.0955 237:-0.0816 238:0.1243 239:-0.0608 240:0.1272 241:0.0613 242:0.0091 243:0.1172 244:-0.1061 245:-0.1882 246:-0.2042 247:0.0319 248:0.1543 249:-0.1761 250:0.1306 251:0.2209 252:-0.0273 253:0.1195 254:-0.1301 255:0.1758 256:0.3402 257:0.1165 258:0.1221 259:0.0267 260:-0.2241 261:-0.1801 262:-0.0795 263:0.139 264:0.1506 265:0.1763 266:0.146 267:0.088 268:-0.0807 269:-0.2836 270:0.0366 271:0.1278 272:-0.0939 273:0.0269 274:-0.0188 275:-0.1311 276:-0.0775 277:-0.0185 278:0.2126 279:-0.0024 280:0.1182 281:0.1211 282:0.0725 283:-0.3 284:-0.0657 285:-0.0222 286:-0.0377 287:0.1339 288:-0.075 289:-0.0724 290:-0.1898 291:-0.0713 292:0.0759 293:-0.2102 294:-0.0674 295:-0.3876 296:-0.0212 297:-0.0124 298:-0.0242 299:-0.1144 300:0.1166 301:-0.1184 302:0.0737 303:11.0 331:1.0 
0.005792324949726323 1:0.0 2:0.0 3:0.0 4:0.0 5:0.0 6:0.0 7:0.0 8:0.0 9:0.0 10:0.0 11:0.0 12:0.0 13:0.0 14:0.0 15:0.0 16:0.0 17:0.0 18:0.0 19:0.0 20:0.0 21:0.0 22:0.0 23:0.0 24:0.0 25:0.0 26:0.0 27:0.0 28:0.0 29:0.0 30:0.0 31:0.0 32:0.0 33:0.0 34:0.0 35:0.0 36:0.0 37:0.0 38:0.0 39:0.0 40:0.0 41:0.0 42:0.0 43:0.0 44:0.0 45:0.0 46:0.0 47:0.0 48:0.0 49:0.0 50:0.0 51:0.0 52:0.0 53:0.0 54:0.0 55:0.0 56:0.0 57:0.0 58:0.0 59:0.0 60:0.0 61:0.0 62:0.0 63:0.0 64:0.0 65:0.0 66:0.0 67:0.0 68:0.0 69:0.0 70:0.0 71:0.0 72:0.0 73:0.0 74:0.0 75:0.0 76:0.0 77:0.0 78:0.0 79:0.0 80:0.0 81:0.0 82:0.0 83:0.0 84:0.0 85:0.0 86:0.0 87:0.0 88:0.0 89:0.0 90:0.0 91:0.0 92:0.0 93:0.0 94:0.0 95:0.0 96:0.0 97:0.0 98:0.0 99:0.0 100:0.0 101:0.0 102:0.1847 103:0.2146 104:-0.2457 105:0.1068 106:0.2268 107:0.3016 108:0.0538 109:-0.0107 110:-0.0343 111:0.2574 112:0.0889 113:0.1093 114:0.0394 115:-0.0669 116:0.1484 117:0.1332 118:-0.1194 119:0.0442 120:-0.1812 121:-0.1979 122:0.0045 123:0.0635 124:0.0578 125:0.0739 126:0.11 127:-0.0084 128:-0.0881 129:-0.0674 130:-0.1693 131:-0.0861 132:-0.0036 133:0.3168 134:-0.2158 135:-0.0575 136:-0.094 137:0.26 138:-0.0888 139:-0.023 140:-0.0862 141:-0.1192 142:0.108 143:-0.1235 144:-0.2555 145:-0.1662 146:-0.0748 147:0.074 148:0.133 149:0.1803 150:0.1488 151:-0.025 152:0.1453 153:-0.1103 154:0.259 155:0.3081 156:0.0358 157:-0.0126 158:0.015 159:-0.1274 160:-0.1676 161:-0.0082 162:0.1072 163:0.2349 164:0.091 165:0.2386 166:0.0854 167:-0.0775 168:-0.0842 169:-0.1103 170:0.1633 171:0.0111 172:0.0045 173:0.0702 174:0.0511 175:-0.0942 176:-0.2096 177:0.1388 178:0.1123 179:0.1945 180:0.1525 181:0.0192 182:-0.2689 183:0.0238 184:-0.0336 185:-0.0799 186:-0.025 187:-0.0063 188:-0.0761 189:-0.1904 190:-0.0373 191:0.1127 192:-0.1725 193:0.0138 194:-0.3628 195:-0.1916 196:0.1522 197:0.1446 198:-0.0052 199:0.0161 200:-0.0942 201:0.0542 202:9.0 203:0.1078 204:0.2138 205:-0.2764 206:-0.0598 207:0.0824 208:0.287 209:0.0569 210:-0.2153 211:0.0727 212:0.1393 213:0.0945 214:-0.153 215:0.0541 216:0.0295 217:0.0671 218:0.1501 219:-0.161 220:0.1059 221:-0.08 222:-0.1907 223:-0.1395 224:0.008 225:0.0808 226:0.1618 227:0.1153 228:-0.0371 229:-0.0508 230:-0.0628 231:-0.2745 232:-0.0423 233:0.029 234:0.2223 235:-0.1221 236:0.0062 237:-0.0092 238:0.1418 239:-0.1297 240:0.1284 241:0.032 242:0.0076 243:0.1472 244:-0.0827 245:-0.1655 246:-0.1402 247:0.0253 248:0.1237 249:0.0394 250:0.1294 251:0.1763 252:-0.0317 253:0.1373 254:-0.0535 255:0.021 256:0.1658 257:0.043 258:0.1019 259:0.054 260:-0.1387 261:-0.2337 262:0.0042 263:0.1524 264:0.1104 265:0.1697 266:0.0391 267:0.1036 268:-0.1826 269:-0.1253 270:0.0544 271:0.2433 272:0.006 273:-0.0058 274:0.086 275:-0.0913 276:-0.0106 277:-0.0832 278:0.2329 279:0.0491 280:0.1148 281:0.051 282:-0.1417 283:-0.2654 284:-0.1497 285:0.0194 286:-0.0769 287:0.0025 288:-0.0422 289:0.0211 290:-0.2291 291:-0.047 292:-0.0311 293:-0.1458 294:-0.0616 295:-0.4868 296:-0.0263 297:-0.0821 298:-0.0366 299:-0.0309 300:0.0447 301:-0.1368 302:0.1476 303:29.0 305:1.0 
0.0026856219007878085 1:0.2312 2:0.1957 3:-0.2131 4:0.1659 5:0.2013 6:0.1911 7:0.04 8:-0.1734 9:-0.1754 10:0.0896 11:-0.0026 12:-0.125 13:0.0805 14:0.0823 15:0.1608 16:0.3089 17:-0.134 18:0.0267 19:0.0604 20:-0.1078 21:0.0528 22:-0.0424 23:0.0425 24:0.1396 25:0.026 26:-0.0699 27:0.0053 28:-0.0679 29:-0.3041 30:-0.2455 31:0.0145 32:0.3716 33:-0.3156 34:0.0309 35:-0.0866 36:0.1777 37:-0.1065 38:-0.0479 39:-0.0183 40:0.0599 41:0.1153 42:-0.0778 43:-0.2332 44:-0.1437 45:-0.0424 46:0.0825 47:0.0704 48:0.1235 49:0.018 50:0.0259 51:0.1971 52:-0.2144 53:0.0205 54:0.4216 55:0.1794 56:0.2223 57:0.1226 58:-0.1945 59:-0.2685 60:-0.1077 61:0.1787 62:0.1513 63:0.171 64:0.1087 65:0.0456 66:-0.0687 67:0.0145 68:0.1179 69:0.1773 70:-0.0421 71:0.0478 72:0.0927 73:0.0099 74:-0.0031 75:-0.1764 76:0.163 77:0.1067 78:0.1453 79:0.0248 80:-0.0164 81:-0.3168 82:0.0785 83:-0.0071 84:-0.0969 85:0.0755 86:0.0207 87:-0.0401 88:-0.2234 89:0.0535 90:0.1689 91:-0.2014 92:0.0527 93:-0.5671 94:-0.0655 95:0.0798 96:0.1578 97:0.0473 98:0.1279 99:-0.0741 100:0.2215 101:14.0 102:0.0616 103:0.1974 104:-0.2712 105:-0.102 106:-0.0828 107:0.044 108:0.2064 109:-0.2124 110:-0.1798 111:-0.054 112:0.0194 113:0.1012 114:0.1406 115:0.0594 116:0.0472 117:0.2617 118:-0.2066 119:0.0955 120:-0.0251 121:-0.2096 122:-0.0258 123:-0.1393 124:-0.025 125:0.1805 126:0.0648 127:-0.0764 128:-0.2128 129:-0.0875 130:-0.3187 131:-0.1208 132:-0.0896 133:0.2096 134:-0.1114 135:-0.0984 136:0.0226 137:0.2617 138:-0.0852 139:0.0388 140:-0.0896 141:-0.138 142:0.1136 143:-0.1288 144:-0.0598 145:-0.2633 146:-0.0625 147:0.0409 148:-0.0376 149:0.2586 150:0.1616 151:0.0028 152:0.0347 153:-0.2011 154:0.0115 155:0.2759 156:0.029 157:0.2544 158:0.2393 159:-0.2698 160:-0.125 161:0.1101 162:0.1421 163:-0.0025 164:0.0517 165:0.089 166:0.0239 167:-0.1538 168:-0.0114 169:0.1286 170:0.1411 171:0.0835 172:-0.0674 173:0.2547 174:-0.0361 175:0.0518 176:-0.117 177:0.3107 178:0.1746 179:0.2374 180:0.0333 181:-0.0027 182:-0.1973 183:0.0141 184:0.0404 185:-0.1202 186:-0.032 187:-0.1281 188:0.0643 189:-0.3014 190:0.146 191:0.0801 192:-0.3667 193:0.025 194:-0.3482 195:-0.0952 196:0.0799 197:0.1227 198:0.3611 199:0.1549 200:-0.1252 201:-0.1429 202:6.0 203:0.2004 204:0.1017 205:-0.1005 206:0.0909 207:0.1957 208:0.5756 209:0.1605 210:-0.2457 211:0.2635 212:0.1579 213:-0.1161 214:-0.0825 215:0.1107 216:-0.1316 217:0.0706 218:0.3341 219:-0.0609 220:0.0063 221:-0.068 222:-0.1046 223:-0.1314 224:0.1841 225:-0.0595 226:0.1914 227:0.2823 228:-0.0782 229:0.015 230:-0.0318 231:-0.2179 232:-0.2442 233:-0.0731 234:0.3803 235:-0.3876 236:0.0228 237:-0.1799 238:0.3256 239:-0.2606 240:0.011 241:0.1076 242:0.1774 243:-0.0518 244:-0.0561 245:-0.3247 246:-0.3065 247:0.1656 248:0.3634 249:-0.1611 250:0.344 251:-0.057 252:-0.1256 253:0.6424 254:-0.2559 255:0.1954 256:0.1483 257:0.0616 258:0.3125 259:-0.0395 260:-0.0776 261:-0.2583 262:-0.0516 263:0.0243 264:0.0607 265:0.0759 266:-0.043 267:-0.1327 268:0.0207 269:-0.1222 270:0.3299 271:-0.1042 272:-0.3499 273:0.1823 274:0.0408 275:-0.0158 276:0.0441 277:-0.3448 278:0.0857 279:-0.0158 280:0.2257 281:0.1367 282:0.2638 283:-0.2521 284:0.0422 285:-0.1548 286:-0.2221 287:0.0986 288:0.1161 289:-0.3739 290:-0.3542 291:-0.2541 292:0.0928 293:-0.541 294:-0.2523 295:-0.7867 296:-0.0246 297:0.2397 298:-0.1577 299:0.0555 300:0.0954 301:-0.0159 302:0.086 303:2.0 307:1.0 
-0.01 1:0.2662 2:0.1053 3:-0.1847 4:-0.0062 5:0.2916 6:0.2539 7:0.0417 8:-0.1626 9:-0.2293 10:0.2803 11:-0.0833 12:0.0158 13:0.0081 14:0.126 15:-0.0013 16:0.2046 17:-0.1309 18:-0.1011 19:0.0287 20:-0.1442 21:-0.0762 22:-0.0277 23:0.0053 24:0.2029 25:0.0131 26:-0.1528 27:0.0472 28:-0.0939 29:-0.4012 30:-0.1457 31:-0.078 32:0.3123 33:-0.2118 34:0.0416 35:-0.0534 36:0.2308 37:-0.1197 38:-0.0813 39:-0.0441 40:0.0488 41:0.0516 42:0.0167 43:-0.1475 44:-0.2733 45:0.0897 46:0.1271 47:0.0818 48:0.1581 49:0.0678 50:0.0062 51:0.21 52:-0.2829 53:-0.0601 54:0.3529 55:0.0584 56:0.1739 57:0.1842 58:-0.1321 59:-0.3037 60:-0.1208 61:0.1102 62:0.1566 63:0.0731 64:0.1284 65:0.0136 66:-0.233 67:-0.0169 68:0.156 69:0.1956 70:0.0203 71:-0.16 72:0.1018 73:-0.0523 74:0.0467 75:-0.1156 76:0.2555 77:-0.0665 78:0.0578 79:0.1047 80:-0.0793 81:-0.3342 82:-0.0077 83:-0.1222 84:-0.1518 85:0.1149 86:-0.0261 87:-0.0887 88:-0.2573 89:0.0527 90:0.0905 91:-0.3847 92:5.0E-4 93:-0.5504 94:-0.1143 95:-0.0386 96:0.0752 97:-0.1759 98:0.1199 99:-0.0823 100:0.1372 101:13.0 102:0.2592 103:0.078 104:-0.3383 105:-0.0587 106:-0.0014 107:0.3521 108:0.1217 109:-0.1727 110:-0.5484 111:0.0796 112:-0.0389 113:0.2146 114:0.4416 115:-0.2487 116:-0.1074 117:0.2838 118:-0.191 119:-0.4704 120:0.2812 121:0.1572 122:-0.0091 123:0.0479 124:0.1755 125:-0.6805 126:-0.127 127:-0.2206 128:-0.1008 129:-0.1046 130:-0.5285 131:-0.1252 132:-0.4676 133:0.2344 134:-0.5686 135:0.0974 136:-0.2298 137:0.2841 138:-0.2123 139:-0.2016 140:0.1647 141:-0.0964 142:0.1186 143:0.1113 144:-0.2176 145:-0.0769 146:0.0914 147:0.2479 148:0.5481 149:0.2835 150:-0.0723 151:-0.2564 152:-0.0731 153:0.2959 154:-0.1026 155:0.6412 156:-0.2781 157:0.0628 158:0.3586 159:-0.0462 160:-0.3747 161:-0.2412 162:-0.1517 163:0.1966 164:0.1827 165:0.0313 166:-0.0731 167:-0.2226 168:0.2083 169:-0.0344 170:0.3395 171:-0.0574 172:0.082 173:-0.3411 174:-0.332 175:-0.086 176:0.2841 177:0.1943 178:-0.3726 179:-0.0886 180:-0.1385 181:0.2515 182:-0.1683 183:0.1378 184:0.1169 185:0.0244 186:0.1638 187:-0.4604 188:0.0196 189:0.1023 190:0.0719 191:-0.2388 192:-0.3894 193:-0.0477 194:-0.3024 195:-0.0893 196:0.3319 197:-0.2575 198:-0.2633 199:0.3706 200:0.1097 201:0.2748 202:1.0 203:0.1571 204:0.0218 205:-0.1807 206:-0.2054 207:0.006 208:0.2176 209:0.0641 210:-0.1662 211:0.0579 212:0.1542 213:0.0293 214:0.0835 215:0.0592 216:-0.0029 217:-0.0662 218:0.0866 219:-0.2088 220:-0.0701 221:-0.0884 222:-0.1571 223:-0.0854 224:-0.1071 225:0.067 226:0.0333 227:0.1188 228:-0.1598 229:0.0746 230:-0.1042 231:-0.154 232:-0.0145 233:-0.0258 234:0.4974 235:-0.0589 236:0.0119 237:-0.1119 238:0.1698 239:-0.1947 240:0.1822 241:0.0284 242:-0.0201 243:0.2455 244:-0.0045 245:-0.1197 246:-0.109 247:-0.0563 248:0.0445 249:0.0493 250:0.0091 251:0.106 252:0.0783 253:-0.0474 254:-0.1754 255:-0.0134 256:0.3293 257:0.0673 258:0.0947 259:0.1902 260:-0.2549 261:-0.0848 262:-0.0897 263:0.1978 264:0.0905 265:0.1718 266:-0.0772 267:0.1314 268:-0.016 269:-0.0428 270:0.0858 271:0.1951 272:-0.0035 273:-0.0797 274:-0.1562 275:-0.0025 276:0.1316 277:-0.0276 278:0.1277 279:-0.071 280:0.0117 281:0.0984 282:-0.1144 283:-0.3382 284:-0.0899 285:0.0847 286:-0.1012 287:-0.1157 288:-0.0395 289:-0.0617 290:-0.4011 291:-0.0266 292:0.0467 293:-0.0966 294:-0.0242 295:-0.4337 296:-0.1619 297:-0.0792 298:-0.0714 299:-0.0447 300:0.049 301:-0.193 302:0.0195 303:6.0 310:1.0 
-0.01 1:0.132 2:0.1158 3:-0.3214 4:0.1165 5:0.0204 6:0.2462 7:0.123 8:-0.1658 9:-0.0637 10:0.0551 11:0.0561 12:0.0012 13:0.153 14:0.1141 15:0.1563 16:0.2797 17:-0.0716 18:0.0291 19:0.0056 20:0.0145 21:0.1509 22:0.0149 23:0.0301 24:-0.0205 25:0.0941 26:-0.023 27:-0.0072 28:-0.1802 29:-0.261 30:-0.2035 31:-0.0849 32:0.2518 33:-0.4324 34:0.0856 35:0.0322 36:0.0973 37:-0.1235 38:-0.0126 39:0.0635 40:-0.1545 41:0.207 42:-0.2152 43:-0.1095 44:-0.0113 45:-0.0796 46:0.0195 47:0.1851 48:-9.0E-4 49:0.0269 50:-0.0889 51:0.1508 52:-0.106 53:0.1772 54:0.4096 55:0.04 56:0.2527 57:0.1069 58:-0.225 59:-0.236 60:-0.0428 61:0.1418 62:0.0514 63:0.1898 64:0.0852 65:0.046 66:-0.0403 67:0.1326 68:-0.055 69:0.2978 70:-0.0351 71:0.0118 72:-0.0933 73:-0.102 74:0.0455 75:0.0118 76:0.187 77:0.1631 78:0.0142 79:0.028 80:-0.0057 81:-0.2882 82:0.0285 83:0.2064 84:-0.0223 85:0.0113 86:-0.2353 87:-0.0133 88:-0.266 89:-0.0567 90:0.1918 91:-0.0743 92:-0.0457 93:-0.3729 94:0.0687 95:0.1861 96:0.181 97:0.0252 98:0.2062 99:-0.109 100:0.0033 101:7.0 102:0.0 103:0.0 104:0.0 105:0.0 106:0.0 107:0.0 108:0.0 109:0.0 110:0.0 111:0.0 112:0.0 113:0.0 114:0.0 115:0.0 116:0.0 117:0.0 118:0.0 119:0.0 120:0.0 121:0.0 122:0.0 123:0.0 124:0.0 125:0.0 126:0.0 127:0.0 128:0.0 129:0.0 130:0.0 131:0.0 132:0.0 133:0.0 134:0.0 135:0.0 136:0.0 137:0.0 138:0.0 139:0.0 140:0.0 141:0.0 142:0.0 143:0.0 144:0.0 145:0.0 146:0.0 147:0.0 148:0.0 149:0.0 150:0.0 151:0.0 152:0.0 153:0.0 154:0.0 155:0.0 156:0.0 157:0.0 158:0.0 159:0.0 160:0.0 161:0.0 162:0.0 163:0.0 164:0.0 165:0.0 166:0.0 167:0.0 168:0.0 169:0.0 170:0.0 171:0.0 172:0.0 173:0.0 174:0.0 175:0.0 176:0.0 177:0.0 178:0.0 179:0.0 180:0.0 181:0.0 182:0.0 183:0.0 184:0.0 185:0.0 186:0.0 187:0.0 188:0.0 189:0.0 190:0.0 191:0.0 192:0.0 193:0.0 194:0.0 195:0.0 196:0.0 197:0.0 198:0.0 199:0.0 200:0.0 201:0.0 202:0.0 203:0.118 204:0.2175 205:-0.2609 206:-0.0051 207:0.0985 208:0.1831 209:0.0375 210:-0.0922 211:-0.0692 212:0.0951 213:-0.005 214:-0.0757 215:0.176 216:0.0046 217:0.0191 218:0.1364 219:-0.0662 220:-0.0014 221:-0.0135 222:-0.1213 223:-0.0349 224:-0.1651 225:0.0169 226:0.0235 227:0.0781 228:-0.0911 229:-0.0031 230:-0.0943 231:-0.2842 232:-0.1579 233:-0.0316 234:0.2378 235:-0.3042 236:0.1051 237:0.0378 238:0.2616 239:-0.1273 240:0.008 241:0.0674 242:-0.1071 243:0.2109 244:-0.0719 245:-0.038 246:-0.038 247:-0.133 248:0.0618 249:0.0542 250:0.1298 251:0.0392 252:0.0397 253:0.0858 254:-0.1882 255:0.0259 256:0.359 257:0.1161 258:0.1523 259:0.0564 260:-0.1797 261:-0.1229 262:0.0659 263:0.1917 264:0.1603 265:0.1776 266:-0.0582 267:0.0765 268:-0.1031 269:0.0779 270:-0.0755 271:0.1573 272:-0.0273 273:0.1057 274:-0.0389 275:-0.0402 276:0.1235 277:-0.0024 278:0.2639 279:0.1699 280:0.1472 281:-0.0654 282:0.0283 283:-0.2869 284:-0.0179 285:0.1508 286:-0.025 287:0.0599 288:-0.12 289:0.0334 290:-0.2455 291:-0.036 292:0.1271 293:-0.0576 294:0.0414 295:-0.4714 296:-0.0114 297:0.1848 298:0.1231 299:0.0475 300:0.1267 301:-0.144 302:0.1947 303:28.0 304:1.0 
-0.01 1:0.1814 2:0.2505 3:-0.1528 4:-0.0296 5:0.206 6:0.0998 7:0.0116 8:-0.1403 9:0.0287 10:0.066 11:-0.137 12:-0.0045 13:0.0429 14:0.0856 15:-0.054 16:-0.1079 17:-0.0327 18:0.0055 19:0.0871 20:0.1428 21:-0.0436 22:-0.2343 23:0.0452 24:0.2977 25:-0.1782 26:-0.2065 27:0.1522 28:-0.114 29:-0.3216 30:-0.1453 31:0.0551 32:0.2252 33:-0.21 34:0.1007 35:0.0577 36:0.1926 37:0.0059 38:-0.0775 39:-0.1554 40:-0.0807 41:0.356 42:0.0447 43:0.1369 44:0.0066 45:-0.1786 46:-0.0278 47:0.125 48:0.1144 49:0.1949 50:0.0052 51:0.0455 52:-0.1907 53:-0.0604 54:0.399 55:0.0175 56:0.2848 57:0.225 58:-0.2056 59:-0.1012 60:0.0256 61:0.057 62:0.1189 63:0.4419 64:-0.0244 65:0.0814 66:-0.0051 67:0.1048 68:-0.1155 69:0.1091 70:-0.0345 71:0.1489 72:-0.0141 73:-0.0676 74:0.2467 75:0.052 76:0.1128 77:0.0578 78:-0.0633 79:0.0593 80:-0.1814 81:0.0409 82:-0.0062 83:-0.0586 84:-0.0479 85:0.1233 86:-0.0481 87:0.1722 88:-0.2482 89:0.1111 90:0.0574 91:-0.1418 92:0.0941 93:-0.4825 94:0.0607 95:0.1737 96:0.2793 97:-0.0452 98:0.2674 99:-0.2453 100:0.0841 101:2.0 102:0.2069 103:0.2419 104:-0.2835 105:0.0516 106:0.1883 107:0.2821 108:0.0848 109:-0.104 110:-0.1189 111:0.1776 112:0.0115 113:0.0468 114:0.0907 115:0.0369 116:-0.054 117:0.3061 118:-0.1546 119:0.0042 120:-0.1773 121:-0.2806 122:-0.1533 123:0.092 124:0.123 125:0.2944 126:0.0101 127:-0.0413 128:-0.0821 129:-0.0314 130:-0.2863 131:-0.1585 132:0.0083 133:0.2992 134:-0.1211 135:-0.1587 136:-0.279 137:0.3338 138:-0.0972 139:0.0075 140:-0.0089 141:-0.0267 142:-0.0112 143:-0.1143 144:-0.2987 145:-0.2161 146:0.0056 147:0.0655 148:0.0389 149:0.1903 150:0.138 151:-0.0406 152:0.2532 153:-0.2313 154:0.0617 155:0.3905 156:0.1941 157:0.0824 158:0.0181 159:-0.211 160:-0.3059 161:-0.1492 162:0.1006 163:0.2798 164:0.103 165:0.113 166:0.0459 167:-0.0185 168:-0.0022 169:0.1899 170:0.1522 171:-0.0971 172:-0.0183 173:0.1986 174:0.0404 175:-0.0243 176:-0.165 177:0.1981 178:0.1636 179:0.2671 180:0.2192 181:-0.144 182:-0.2352 183:-0.0108 184:-0.1535 185:-0.0666 186:0.1272 187:0.1266 188:-0.1078 189:-0.2678 190:-0.0294 191:-0.0482 192:-0.285 193:0.0614 194:-0.6213 195:-0.1575 196:0.1049 197:0.11 198:-0.0168 199:0.1266 200:-0.1049 201:0.0686 202:13.0 203:0.2119 204:0.1632 205:-0.2508 206:0.0013 207:0.1421 208:0.2539 209:0.0607 210:-0.1488 211:-0.1473 212:0.2252 213:0.0239 214:-0.0412 215:0.0631 216:0.0447 217:0.0097 218:0.1743 219:-0.1689 220:0.0559 221:-0.082 222:-0.2232 223:-0.1069 224:-0.0095 225:0.0386 226:0.2086 227:-0.0534 228:-0.0353 229:-0.0188 230:-0.0569 231:-0.2334 232:-0.0891 233:-0.0213 234:0.3113 235:-0.1144 236:-0.0914 237:-0.103 238:0.1754 239:-0.201 240:0.0863 241:0.0093 242:-0.0355 243:0.0688 244:-0.1111 245:-0.1614 246:-0.1185 247:-0.0541 248:0.0857 249:0.0057 250:0.1025 251:0.0736 252:-0.0142 253:0.1328 254:-0.1374 255:-0.0024 256:0.2841 257:0.0927 258:0.1424 259:0.1192 260:-0.1764 261:-0.1763 262:-0.0444 263:0.1622 264:0.1216 265:0.197 266:0.0882 267:0.0512 268:-0.0961 269:-0.0345 270:0.0197 271:0.1687 272:0.0488 273:-0.0737 274:0.0107 275:0.0141 276:0.0505 277:-0.0303 278:0.2233 279:-0.0129 280:0.1187 281:0.1272 282:-0.078 283:-0.2739 284:-0.0716 285:0.0489 286:-0.0438 287:0.0525 288:-0.057 289:-0.0097 290:-0.3281 291:-0.055 292:0.0752 293:-0.2142 294:0.0094 295:-0.5184 296:-0.1441 297:0.0386 298:0.0761 299:0.0578 300:0.1296 301:-0.133 302:0.1038 303:36.0 314:1.0 
-0.01 1:0.2415 2:0.2198 3:-0.2547 4:0.028 5:0.1878 6:0.2583 7:0.0858 8:-0.1111 9:-0.1669 10:0.1745 11:-0.0041 12:0.0315 13:0.0899 14:0.0683 15:-0.0998 16:0.2526 17:-0.1879 18:0.0064 19:-0.1136 20:-0.2398 21:-0.1361 22:0.0511 23:0.1193 24:0.3188 25:-0.0424 26:-0.0882 27:-0.0387 28:-0.0303 29:-0.3109 30:-0.1815 31:-0.003 32:0.2972 33:-0.0971 34:-0.1504 35:-0.2612 36:0.3453 37:-0.1164 38:0.0165 39:-0.0274 40:-0.0543 41:0.0426 42:-0.0665 43:-0.2381 44:-0.141 45:0.0143 46:0.1014 47:0.0104 48:0.1872 49:0.1681 50:-0.0604 51:0.2526 52:-0.2724 53:0.027 54:0.3668 55:0.1725 56:0.1211 57:0.054 58:-0.2392 59:-0.2802 60:-0.1117 61:0.0712 62:0.3092 63:0.1385 64:0.1059 65:0.0439 66:-0.0786 67:-0.0189 68:0.1715 69:0.1449 70:-0.109 71:-0.0294 72:0.1998 73:-7.0E-4 74:0.0308 75:-0.1347 76:0.2134 77:0.1344 78:0.2318 79:0.1775 80:-0.1907 81:-0.1904 82:-0.0116 83:-0.1511 84:-0.0486 85:0.1653 86:0.0794 87:-0.0554 88:-0.2658 89:-0.0083 90:-0.0858 91:-0.2714 92:0.1056 93:-0.6442 94:-0.1212 95:0.0735 96:0.0807 97:-0.002 98:0.1338 99:-0.1278 100:0.0679 101:13.0 102:-0.0437 103:0.3941 104:-0.3396 105:0.1238 106:0.2091 107:0.2545 108:0.0056 109:-0.094 110:0.3407 111:0.0862 112:-0.0359 113:0.0949 114:0.0479 115:-0.1186 116:0.244 117:0.2399 118:0.1835 119:-0.009 120:-0.3265 121:-0.123 122:-0.1555 123:0.0315 124:0.069 125:0.1387 126:0.163 127:0.0985 128:-0.13 129:-0.1212 130:-0.1613 131:0.0043 132:0.1284 133:0.2384 134:-0.3659 135:0.0468 136:-0.0576 137:0.1175 138:0.1305 139:-0.1361 140:-0.0348 141:0.0985 142:0.0061 143:-0.266 144:-0.2568 145:-0.4816 146:-0.2352 147:-0.2613 148:0.31 149:0.1346 150:-8.0E-4 151:0.1338 152:0.049 153:0.0769 154:0.1657 155:0.5533 156:0.1575 157:0.0331 158:-0.0083 159:-0.0223 160:-0.2684 161:-0.2183 162:0.2477 163:-0.0723 164:0.2111 165:0.0218 166:0.0944 167:0.3855 168:0.2133 169:0.0037 170:0.1566 171:0.0429 172:0.2212 173:-0.0222 174:0.1997 175:-0.1113 176:-0.145 177:0.0132 178:0.2477 179:0.1662 180:0.3301 181:0.1223 182:-0.25 183:-0.0012 184:-0.0744 185:-0.165 186:-0.1246 187:0.2588 188:-0.1682 189:-0.2611 190:-0.0259 191:0.3024 192:-0.23 193:-0.1932 194:-0.3338 195:-0.175 196:0.3781 197:0.4693 198:-0.1414 199:0.2206 200:-0.0968 201:0.089 202:2.0 203:0.2119 204:0.1632 205:-0.2508 206:0.0013 207:0.1421 208:0.2539 209:0.0607 210:-0.1488 211:-0.1473 212:0.2252 213:0.0239 214:-0.0412 215:0.0631 216:0.0447 217:0.0097 218:0.1743 219:-0.1689 220:0.0559 221:-0.082 222:-0.2232 223:-0.1069 224:-0.0095 225:0.0386 226:0.2086 227:-0.0534 228:-0.0353 229:-0.0188 230:-0.0569 231:-0.2334 232:-0.0891 233:-0.0213 234:0.3113 235:-0.1144 236:-0.0914 237:-0.103 238:0.1754 239:-0.201 240:0.0863 241:0.0093 242:-0.0355 243:0.0688 244:-0.1111 245:-0.1614 246:-0.1185 247:-0.0541 248:0.0857 249:0.0057 250:0.1025 251:0.0736 252:-0.0142 253:0.1328 254:-0.1374 255:-0.0024 256:0.2841 257:0.0927 258:0.1424 259:0.1192 260:-0.1764 261:-0.1763 262:-0.0444 263:0.1622 264:0.1216 265:0.197 266:0.0882 267:0.0512 268:-0.0961 269:-0.0345 270:0.0197 271:0.1687 272:0.0488 273:-0.0737 274:0.0107 275:0.0141 276:0.0505 277:-0.0303 278:0.2233 279:-0.0129 280:0.1187 281:0.1272 282:-0.078 283:-0.2739 284:-0.0716 285:0.0489 286:-0.0438 287:0.0525 288:-0.057 289:-0.0097 290:-0.3281 291:-0.055 292:0.0752 293:-0.2142 294:0.0094 295:-0.5184 296:-0.1441 297:0.0386 298:0.0761 299:0.0578 300:0.1296 301:-0.133 302:0.1038 303:36.0 309:1.0 
-0.01 1:0.2415 2:0.2198 3:-0.2547 4:0.028 5:0.1878 6:0.2583 7:0.0858 8:-0.1111 9:-0.1669 10:0.1745 11:-0.0041 12:0.0315 13:0.0899 14:0.0683 15:-0.0998 16:0.2526 17:-0.1879 18:0.0064 19:-0.1136 20:-0.2398 21:-0.1361 22:0.0511 23:0.1193 24:0.3188 25:-0.0424 26:-0.0882 27:-0.0387 28:-0.0303 29:-0.3109 30:-0.1815 31:-0.003 32:0.2972 33:-0.0971 34:-0.1504 35:-0.2612 36:0.3453 37:-0.1164 38:0.0165 39:-0.0274 40:-0.0543 41:0.0426 42:-0.0665 43:-0.2381 44:-0.141 45:0.0143 46:0.1014 47:0.0104 48:0.1872 49:0.1681 50:-0.0604 51:0.2526 52:-0.2724 53:0.027 54:0.3668 55:0.1725 56:0.1211 57:0.054 58:-0.2392 59:-0.2802 60:-0.1117 61:0.0712 62:0.3092 63:0.1385 64:0.1059 65:0.0439 66:-0.0786 67:-0.0189 68:0.1715 69:0.1449 70:-0.109 71:-0.0294 72:0.1998 73:-7.0E-4 74:0.0308 75:-0.1347 76:0.2134 77:0.1344 78:0.2318 79:0.1775 80:-0.1907 81:-0.1904 82:-0.0116 83:-0.1511 84:-0.0486 85:0.1653 86:0.0794 87:-0.0554 88:-0.2658 89:-0.0083 90:-0.0858 91:-0.2714 92:0.1056 93:-0.6442 94:-0.1212 95:0.0735 96:0.0807 97:-0.002 98:0.1338 99:-0.1278 100:0.0679 101:13.0 102:0.2222 103:0.1743 104:-0.2227 105:0.0528 106:0.1578 107:0.2224 108:-0.0194 109:-0.1264 110:-0.1024 111:0.1511 112:-0.0329 113:0.035 114:0.07 115:0.0924 116:0.0097 117:0.2545 118:-0.0709 119:0.0091 120:-0.0765 121:-0.1698 122:-0.0869 123:0.0957 124:0.0301 125:0.1726 126:-0.079 127:-0.0367 128:-0.0953 129:-0.0844 130:-0.1987 131:-0.045 132:-0.0045 133:0.2919 134:-0.1629 135:-0.0343 136:-0.1837 137:0.2039 138:-0.1446 139:0.0264 140:-0.0455 141:-0.0863 142:0.0248 143:-0.0754 144:-0.2163 145:-0.2215 146:-0.1165 147:0.0941 148:0.0901 149:0.0864 150:-0.0075 151:0.0189 152:0.1777 153:-0.1706 154:0.0279 155:0.3969 156:0.1786 157:0.171 158:0.1292 159:-0.1061 160:-0.246 161:-0.1351 162:0.1696 163:0.0921 164:0.2626 165:0.144 166:0.0597 167:0.0161 168:0.0815 169:-0.0272 170:0.1713 171:0.0701 172:0.0099 173:0.0791 174:0.13 175:0.0641 176:-0.0681 177:0.2315 178:0.0146 179:0.1027 180:0.1759 181:-0.0131 182:-0.2568 183:-0.0359 184:0.0098 185:-0.0577 186:0.027 187:0.0086 188:-0.0416 189:-0.3301 190:-0.0131 191:0.1343 192:-0.1785 193:-0.0259 194:-0.5204 195:-0.1995 196:0.1289 197:0.1604 198:0.0343 199:0.1837 200:-0.1151 201:0.1116 202:14.0 203:0.1821 204:0.1772 205:-0.2767 206:-0.0203 207:0.1382 208:0.274 209:0.1066 210:-0.158 211:-0.1315 212:0.2597 213:0.0545 214:-0.0772 215:0.0574 216:-5.0E-4 217:0.0309 218:0.1293 219:-0.1992 220:0.0798 221:-0.1077 222:-0.2481 223:-0.124 224:-0.0727 225:0.0468 226:0.2251 227:-0.0174 228:-0.0223 229:0.0197 230:-0.0453 231:-0.2489 232:-0.1086 233:-0.0184 234:0.317 235:-0.1064 236:-0.1152 237:-0.0475 238:0.1519 239:-0.2067 240:0.1043 241:0.0401 242:0.0091 243:0.0911 244:-0.1479 245:-0.1352 246:-0.086 247:-0.0308 248:0.0487 249:-0.0204 250:0.1157 251:0.1185 252:-0.0217 253:0.0966 254:-0.0967 255:-0.0064 256:0.2368 257:0.044 258:0.1142 259:0.1013 260:-0.2071 261:-0.1404 262:-0.0024 263:0.1653 264:0.1228 265:0.1565 266:0.0467 267:0.0497 268:-0.1238 269:-0.0859 270:0.0481 271:0.166 272:0.0347 273:-0.1001 274:-0.0358 275:-0.0428 276:0.0271 277:-0.0167 278:0.199 279:-0.0067 280:0.1332 281:0.1146 282:-0.1011 283:-0.2827 284:-0.088 285:0.0625 286:-0.0459 287:0.0526 288:-0.07 289:-0.0038 290:-0.3207 291:-0.0791 292:0.0582 293:-0.2384 294:0.0135 295:-0.5004 296:-0.1116 297:0.012 298:0.0582 299:0.0546 300:0.1034 301:-0.1411 302:0.0976 303:24.0 317:1.0 
-0.01 1:0.2415 2:0.2198 3:-0.2547 4:0.028 5:0.1878 6:0.2583 7:0.0858 8:-0.1111 9:-0.1669 10:0.1745 11:-0.0041 12:0.0315 13:0.0899 14:0.0683 15:-0.0998 16:0.2526 17:-0.1879 18:0.0064 19:-0.1136 20:-0.2398 21:-0.1361 22:0.0511 23:0.1193 24:0.3188 25:-0.0424 26:-0.0882 27:-0.0387 28:-0.0303 29:-0.3109 30:-0.1815 31:-0.003 32:0.2972 33:-0.0971 34:-0.1504 35:-0.2612 36:0.3453 37:-0.1164 38:0.0165 39:-0.0274 40:-0.0543 41:0.0426 42:-0.0665 43:-0.2381 44:-0.141 45:0.0143 46:0.1014 47:0.0104 48:0.1872 49:0.1681 50:-0.0604 51:0.2526 52:-0.2724 53:0.027 54:0.3668 55:0.1725 56:0.1211 57:0.054 58:-0.2392 59:-0.2802 60:-0.1117 61:0.0712 62:0.3092 63:0.1385 64:0.1059 65:0.0439 66:-0.0786 67:-0.0189 68:0.1715 69:0.1449 70:-0.109 71:-0.0294 72:0.1998 73:-7.0E-4 74:0.0308 75:-0.1347 76:0.2134 77:0.1344 78:0.2318 79:0.1775 80:-0.1907 81:-0.1904 82:-0.0116 83:-0.1511 84:-0.0486 85:0.1653 86:0.0794 87:-0.0554 88:-0.2658 89:-0.0083 90:-0.0858 91:-0.2714 92:0.1056 93:-0.6442 94:-0.1212 95:0.0735 96:0.0807 97:-0.002 98:0.1338 99:-0.1278 100:0.0679 101:13.0 102:0.1889 103:0.1661 104:-0.25 105:0.0386 106:0.1766 107:0.2782 108:0.0244 109:-0.1212 110:-0.1498 111:0.2025 112:0.0156 113:-0.0316 114:0.0647 115:0.0626 116:0.0178 117:0.2188 118:-0.1366 119:0.0517 120:-0.1082 121:-0.2346 122:-0.108 123:0.0514 124:0.0467 125:0.2143 126:-0.0881 127:-0.0254 128:-0.0559 129:-0.0803 130:-0.2077 131:-0.0994 132:-0.0201 133:0.2974 134:-0.1444 135:-0.1013 136:-0.1656 137:0.1807 138:-0.1968 139:0.0523 140:-0.0175 141:-0.0483 142:0.0105 143:-0.1121 144:-0.2053 145:-0.1475 146:-0.0796 147:0.1027 148:6.0E-4 149:0.0844 150:0.0498 151:0.0152 152:0.1718 153:-0.1665 154:0.0099 155:0.3231 156:0.1313 157:0.1614 158:0.1261 159:-0.1361 160:-0.2135 161:-0.0739 162:0.1667 163:0.1406 164:0.2057 165:0.1068 166:0.085 167:-0.0418 168:-0.0014 169:-0.0076 170:0.1788 171:0.0317 172:-0.0748 173:0.052 174:0.0692 175:0.0408 176:-0.0481 177:0.2233 178:0.0218 179:0.0914 180:0.1589 181:-0.0326 182:-0.2678 183:-0.044 184:0.0227 185:-0.0637 186:0.0489 187:-0.0231 188:-0.0319 189:-0.3526 190:-0.0401 191:0.1366 192:-0.2449 193:0.023 194:-0.5308 195:-0.1561 196:0.073 197:0.1401 198:0.0161 199:0.1623 200:-0.1207 201:0.0992 202:28.0 203:0.2241 204:0.2058 205:-0.2729 206:-0.0834 207:0.0535 208:0.1811 209:0.1574 210:-0.2192 211:-0.0312 212:0.2624 213:0.0354 214:-0.0397 215:0.055 216:-0.0453 217:0.0374 218:0.0554 219:-0.1875 220:0.0542 221:-0.0576 222:-0.1668 223:-0.1145 224:-0.1832 225:0.0211 226:0.1759 227:0.0987 228:-0.0353 229:0.0677 230:-0.001 231:-0.2944 232:-0.0372 233:0.0084 234:0.3369 235:-0.0803 236:-0.0311 237:0.0951 238:0.1464 239:-0.1396 240:0.1389 241:0.0799 242:0.0328 243:0.2296 244:-0.1423 245:-0.0511 246:-0.1121 247:-0.0176 248:-0.0425 249:0.0887 250:0.164 251:0.1284 252:-0.0693 253:-0.0029 254:-0.0023 255:-0.002 256:0.227 257:-0.0086 258:0.0609 259:0.0702 260:-0.2631 261:-0.0852 262:0.0056 263:0.1677 264:0.0215 265:0.1742 266:0.0178 267:-0.0407 268:-0.1522 269:-0.079 270:0.0982 271:0.1357 272:0.0989 273:-0.0049 274:-0.1204 275:-0.1101 276:0.0435 277:-0.0026 278:0.1766 279:-0.0593 280:0.2113 281:0.0771 282:-0.1696 283:-0.2871 284:-0.1388 285:0.0999 286:-0.0109 287:0.024 288:-0.0885 289:0.0215 290:-0.2396 291:-0.0934 292:-0.0586 293:-0.1257 294:-0.0765 295:-0.4402 296:-0.1149 297:0.0108 298:-0.0285 299:0.1385 300:0.0516 301:-0.1618 302:0.1143 303:10.0 318:1.0 
-0.01 1:0.161 2:0.2101 3:-0.167 4:-0.0502 5:0.1276 6:0.1092 7:0.0204 8:-0.2074 9:-0.2142 10:-0.002 11:-0.0946 12:0.0204 13:-0.0288 14:0.1244 15:0.0861 16:0.1311 17:0.0361 18:-0.0061 19:-0.259 20:-0.1464 21:0.1021 22:-0.1598 23:0.2207 24:0.0853 25:-0.0611 26:-0.0578 27:-0.0529 28:0.1245 29:-0.3442 30:-0.153 31:0.1296 32:0.2407 33:-0.1247 34:0.177 35:0.2241 36:0.0077 37:-0.0449 38:-0.1453 39:0.0484 40:-0.1166 41:0.4538 42:0.0118 43:-0.2253 44:-0.1682 45:-0.0439 46:-0.0338 47:0.1983 48:0.0399 49:0.0935 50:0.1412 51:0.0786 52:-0.2506 53:-0.0561 54:0.2979 55:0.1096 56:0.1319 57:0.1727 58:-0.2558 59:-0.3728 60:-0.1328 61:0.3462 62:0.0924 63:0.2428 64:-0.1274 65:0.0846 66:0.2159 67:0.119 68:-0.0524 69:0.2393 70:0.0996 71:0.0016 72:-0.1787 73:-0.1458 74:0.2071 75:0.2133 76:0.1858 77:0.1301 78:-0.0633 79:0.0411 80:-0.0474 81:-0.0987 82:0.021 83:0.1064 84:-0.2218 85:-0.0891 86:0.0746 87:0.0504 88:-0.1693 89:0.0239 90:0.0814 91:-0.1335 92:0.018 93:-0.4845 94:-0.0803 95:0.1149 96:0.0279 97:-0.078 98:0.19 99:-0.0188 100:0.0667 101:7.0 102:0.1289 103:0.1916 104:-0.2676 105:-0.0845 106:6.0E-4 107:0.2817 108:0.0585 109:-0.2352 110:0.0036 111:0.1236 112:-0.0056 113:0.0051 114:0.0198 115:0.0357 116:0.005 117:-0.0258 118:-0.0844 119:0.0127 120:-0.117 121:-0.1902 122:-0.1328 123:-0.1155 124:0.0831 125:0.1293 126:0.0167 127:-0.004 128:-0.0649 129:-0.0493 130:-0.1905 131:-0.0581 132:-0.0447 133:0.3335 134:-0.1796 135:0.0107 136:-0.0319 137:0.0445 138:-0.14 139:0.1131 140:-0.0082 141:-0.0695 142:0.2225 143:-0.0245 144:-0.1019 145:-0.1288 146:-0.0465 147:0.0349 148:0.0772 149:0.0238 150:0.1356 151:0.0598 152:0.1082 153:-0.0526 154:-0.0057 155:0.2759 156:0.0761 157:0.0556 158:0.016 159:-0.2103 160:-0.1817 161:-0.0392 162:0.1266 163:0.1332 164:0.273 165:-0.0264 166:0.0482 167:-0.0337 168:-0.1202 169:-0.0011 170:0.1821 171:0.0492 172:-0.0182 173:-0.0088 174:-0.1031 175:0.0125 176:0.0546 177:0.1672 178:0.0501 179:0.0442 180:0.0679 181:-0.0645 182:-0.2164 183:-0.0774 184:-0.0159 185:-0.0735 186:0.0238 187:-0.0448 188:0.1128 189:-0.23 190:-0.1323 191:-0.0152 192:-0.211 193:0.0114 194:-0.449 195:0.0152 196:-0.0359 197:0.1023 198:0.0211 199:0.0215 200:-0.1642 201:0.0613 202:27.0 203:-0.0253 204:0.1884 205:-0.3442 206:0.0725 207:-0.0212 208:0.2606 209:0.146 210:-0.3079 211:0.1442 212:0.0305 213:-0.0715 214:0.1304 215:0.2416 216:-0.1087 217:0.0982 218:0.0659 219:-0.1865 220:-0.1861 221:-0.0248 222:-0.1462 223:-0.0554 224:-0.1818 225:0.1807 226:-0.0145 227:0.0455 228:-0.277 229:0.1711 230:-0.0264 231:-0.2543 232:-0.1738 233:-0.0145 234:0.5808 235:-0.2351 236:-0.0508 237:0.0539 238:0.1846 239:-0.2333 240:0.0475 241:0.2488 242:-0.0534 243:0.2071 244:0.1466 245:0.0084 246:-0.1378 247:-0.055 248:0.0151 249:0.1255 250:0.1003 251:0.0868 252:-0.0664 253:0.0661 254:0.0715 255:0.0049 256:0.5046 257:-0.1262 258:0.099 259:-0.0316 260:-0.2677 261:0.1479 262:-0.1078 263:0.1759 264:0.2724 265:0.2204 266:-0.1928 267:0.2557 268:-0.1613 269:-0.0858 270:0.0791 271:0.1736 272:-0.2708 273:0.1756 274:-0.3309 275:-0.1021 276:0.0349 277:-0.0055 278:0.0639 279:-0.0541 280:0.0741 281:0.0603 282:0.3283 283:-0.3162 284:0.0059 285:-0.082 286:0.0624 287:0.2462 288:-0.1242 289:-0.1247 290:-0.2171 291:-0.0918 292:0.0169 293:-0.0947 294:-0.2483 295:-0.4772 296:-0.0422 297:-0.1026 298:0.0317 299:0.1897 300:0.1211 301:0.0224 302:-0.0576 303:1.0 328:1.0 
-0.01 1:0.0 2:0.0 3:0.0 4:0.0 5:0.0 6:0.0 7:0.0 8:0.0 9:0.0 10:0.0 11:0.0 12:0.0 13:0.0 14:0.0 15:0.0 16:0.0 17:0.0 18:0.0 19:0.0 20:0.0 21:0.0 22:0.0 23:0.0 24:0.0 25:0.0 26:0.0 27:0.0 28:0.0 29:0.0 30:0.0 31:0.0 32:0.0 33:0.0 34:0.0 35:0.0 36:0.0 37:0.0 38:0.0 39:0.0 40:0.0 41:0.0 42:0.0 43:0.0 44:0.0 45:0.0 46:0.0 47:0.0 48:0.0 49:0.0 50:0.0 51:0.0 52:0.0 53:0.0 54:0.0 55:0.0 56:0.0 57:0.0 58:0.0 59:0.0 60:0.0 61:0.0 62:0.0 63:0.0 64:0.0 65:0.0 66:0.0 67:0.0 68:0.0 69:0.0 70:0.0 71:0.0 72:0.0 73:0.0 74:0.0 75:0.0 76:0.0 77:0.0 78:0.0 79:0.0 80:0.0 81:0.0 82:0.0 83:0.0 84:0.0 85:0.0 86:0.0 87:0.0 88:0.0 89:0.0 90:0.0 91:0.0 92:0.0 93:0.0 94:0.0 95:0.0 96:0.0 97:0.0 98:0.0 99:0.0 100:0.0 101:0.0 102:0.116 103:0.1379 104:-0.326 105:-0.0136 106:0.1207 107:0.3073 108:0.1161 109:-0.2199 110:0.0068 111:0.2938 112:0.1043 113:0.0128 114:0.0517 115:0.0058 116:0.0204 117:0.2374 118:-0.0837 119:-0.0095 120:-0.2169 121:-0.1394 122:0.0509 123:-0.0382 124:0.0812 125:0.1091 126:0.1069 127:-0.0366 128:-0.0408 129:-0.0526 130:-0.2003 131:-0.0097 132:0.0407 133:0.3728 134:-0.2131 135:-0.1605 136:-0.1499 137:0.1027 138:-0.1219 139:0.0712 140:-0.0051 141:0.0132 142:0.1139 143:-0.0917 144:-0.1453 145:-0.0234 146:-0.0642 147:0.0595 148:0.0313 149:0.0223 150:0.0726 151:0.0698 152:0.0013 153:-0.1222 154:0.1461 155:0.2465 156:0.0526 157:-0.056 158:0.0965 159:-0.2886 160:-0.0706 161:0.0584 162:0.2159 163:0.2441 164:0.1359 165:0.088 166:-0.0347 167:-0.0149 168:-0.1846 169:-0.0964 170:0.299 171:0.0481 172:-0.0146 173:0.0337 174:-0.0149 175:-0.1606 176:-0.0687 177:0.1195 178:8.0E-4 179:0.1496 180:0.0378 181:0.0691 182:-0.2749 183:-0.0903 184:0.0617 185:-0.0532 186:-0.0071 187:-0.0727 188:-0.0887 189:-0.2312 190:-0.0027 191:0.1494 192:-0.1119 193:-0.0895 194:-0.397 195:-0.0306 196:-0.006 197:0.1003 198:-0.1015 199:0.0958 200:-0.047 201:0.028 202:6.0 203:0.2395 204:0.2648 205:-0.3292 206:0.0363 207:0.0923 208:0.1865 209:0.0428 210:-0.0829 211:0.0646 212:0.1096 213:0.0631 214:-0.1009 215:0.255 216:0.0417 217:0.2427 218:0.3207 219:-0.1156 220:0.0105 221:-0.0186 222:-0.2365 223:0.0588 224:0.1339 225:-0.0216 226:0.0748 227:-0.0126 228:0.0173 229:-0.113 230:-0.1598 231:-0.0255 232:-0.1032 233:-0.062 234:0.361 235:-0.2832 236:0.0359 237:-0.0117 238:0.2215 239:-0.2667 240:-0.2213 241:-0.005 242:-0.1 243:0.1569 244:0.0307 245:-0.3295 246:-0.1905 247:-0.0371 248:0.2214 249:0.0882 250:0.0987 251:-0.0379 252:-0.0042 253:0.0759 254:-0.0626 255:0.1048 256:0.3612 257:0.1797 258:0.178 259:-0.0235 260:-0.1805 261:-0.1417 262:-0.018 263:0.1791 264:0.1539 265:0.109 266:0.1414 267:0.1342 268:-0.1153 269:-0.0416 270:-0.0989 271:0.1944 272:-0.0484 273:0.1331 274:-0.0767 275:-0.0338 276:-0.1582 277:-0.1278 278:0.1553 279:0.0577 280:0.1127 281:0.0384 282:0.2349 283:-0.2707 284:-0.0077 285:0.0168 286:-0.1709 287:-0.026 288:-0.1903 289:-0.1969 290:-0.2206 291:-0.0993 292:0.2505 293:-0.2123 294:-0.0993 295:-0.524 296:-0.2237 297:0.1805 298:0.1987 299:0.0688 300:0.0635 301:-0.0834 302:-0.1186 303:5.0 329:1.0 
-0.01 1:0.3136 2:0.2659 3:-0.2231 4:0.0658 5:0.0265 6:0.3381 7:0.101 8:-0.2169 9:0.0037 10:0.159 11:0.048 12:-0.0939 13:0.2128 14:0.0868 15:0.1529 16:0.1649 17:0.0523 18:0.006 19:-0.0829 20:-0.0055 21:0.0107 22:-0.1581 23:0.1331 24:0.0064 25:0.1044 26:0.0731 27:-0.0792 28:-0.0249 29:-0.2189 30:-0.127 31:-0.1485 32:0.3108 33:-0.3002 34:0.1657 35:-0.0244 36:0.171 37:-0.0195 38:0.1022 39:-0.0245 40:-0.0044 41:0.1512 42:-0.0621 43:-0.1669 44:-0.1164 45:-0.0306 46:0.086 47:0.1701 48:0.2151 49:0.0603 50:0.1566 51:0.1047 52:-0.0653 53:0.0244 54:0.3764 55:0.2236 56:0.0491 57:0.0894 58:-0.1691 59:-0.1556 60:0.0787 61:0.3025 62:0.1495 63:0.1336 64:-0.031 65:0.0514 66:-0.2883 67:0.0701 68:0.0536 69:0.1849 70:-0.0155 71:0.0266 72:-0.0308 73:-0.049 74:0.0098 75:-0.0011 76:0.1893 77:0.0844 78:0.1596 79:-0.034 80:0.0863 81:-0.144 82:-0.1183 83:0.0213 84:0.0191 85:-0.074 86:0.0421 87:0.0022 88:-0.175 89:-0.0541 90:0.1566 91:-0.1107 92:-0.0026 93:-0.4388 94:-0.056 95:0.1155 96:0.1208 97:0.0253 98:0.0644 99:-0.0659 100:0.0797 101:19.0 102:0.0 103:0.0 104:0.0 105:0.0 106:0.0 107:0.0 108:0.0 109:0.0 110:0.0 111:0.0 112:0.0 113:0.0 114:0.0 115:0.0 116:0.0 117:0.0 118:0.0 119:0.0 120:0.0 121:0.0 122:0.0 123:0.0 124:0.0 125:0.0 126:0.0 127:0.0 128:0.0 129:0.0 130:0.0 131:0.0 132:0.0 133:0.0 134:0.0 135:0.0 136:0.0 137:0.0 138:0.0 139:0.0 140:0.0 141:0.0 142:0.0 143:0.0 144:0.0 145:0.0 146:0.0 147:0.0 148:0.0 149:0.0 150:0.0 151:0.0 152:0.0 153:0.0 154:0.0 155:0.0 156:0.0 157:0.0 158:0.0 159:0.0 160:0.0 161:0.0 162:0.0 163:0.0 164:0.0 165:0.0 166:0.0 167:0.0 168:0.0 169:0.0 170:0.0 171:0.0 172:0.0 173:0.0 174:0.0 175:0.0 176:0.0 177:0.0 178:0.0 179:0.0 180:0.0 181:0.0 182:0.0 183:0.0 184:0.0 185:0.0 186:0.0 187:0.0 188:0.0 189:0.0 190:0.0 191:0.0 192:0.0 193:0.0 194:0.0 195:0.0 196:0.0 197:0.0 198:0.0 199:0.0 200:0.0 201:0.0 202:0.0 203:0.1362 204:0.2322 205:-0.3468 206:-0.0878 207:0.0846 208:0.1932 209:0.0444 210:-0.1517 211:0.0066 212:0.1845 213:-0.0116 214:-0.0644 215:0.0716 216:-0.0407 217:0.0066 218:0.044 219:-0.0904 220:0.0291 221:-0.0927 222:-0.1758 223:-0.031 224:-0.1732 225:0.0891 226:0.0628 227:0.1618 228:-0.0937 229:-0.0193 230:0.0263 231:-0.1737 232:-0.0936 233:-0.0364 234:0.3349 235:-0.1698 236:0.151 237:0.0231 238:0.0557 239:-0.1062 240:0.0846 241:0.1313 242:0.0018 243:0.2446 244:-0.0742 245:-0.0534 246:-0.0827 247:-0.0479 248:0.0413 249:0.1126 250:0.1532 251:0.1262 252:0.0701 253:-0.0079 254:-0.1073 255:-0.0203 256:0.3001 257:0.0838 258:0.0628 259:0.0169 260:-0.1896 261:-0.1114 262:0.0282 263:0.3211 264:0.1643 265:0.1374 266:-0.1501 267:0.0366 268:-0.0621 269:-0.0658 270:0.0488 271:0.1512 272:0.0192 273:0.0061 274:-0.0075 275:-0.0913 276:-0.0175 277:0.0121 278:0.231 279:0.0528 280:0.0842 281:0.0229 282:0.0377 283:-0.2379 284:-0.1492 285:0.0068 286:0.0163 287:0.0173 288:-0.0854 289:-0.012 290:-0.2572 291:-0.0958 292:0.1293 293:-0.1447 294:-0.0396 295:-0.3914 296:-0.1138 297:-2.0E-4 298:0.0816 299:0.0918 300:0.0413 301:-0.0993 302:0.0138 303:17.0 304:1.0 
